{
  "learner": {
    "attributes": {
      "scikit_learn": "{\"_estimator_type\": \"regressor\"}"
    },
    "feature_names": [],
    "feature_types": [],
    "gradient_booster": {
      "model": {
        "cats": {
          "enc": [],
          "feature_segments": [],
          "sorted_idx": []
        },
        "gbtree_model_param": {
          "num_parallel_tree": "1",
          "num_trees": "800"
        },
        "iteration_indptr": [
          0,
          1,
          2,
          3,
          4,
          5,
          6,
          7,
          8,
          9,
          10,
          11,
          12,
          13,
          14,
          15,
          16,
          17,
          18,
          19,
          20,
          21,
          22,
          23,
          24,
          25,
          26,
          27,
          28,
          29,
          30,
          31,
          32,
          33,
          34,
          35,
          36,
          37,
          38,
          39,
          40,
          41,
          42,
          43,
          44,
          45,
          46,
          47,
          48,
          49,
          50,
          51,
          52,
          53,
          54,
          55,
          56,
          57,
          58,
          59,
          60,
          61,
          62,
          63,
          64,
          65,
          66,
          67,
          68,
          69,
          70,
          71,
          72,
          73,
          74,
          75,
          76,
          77,
          78,
          79,
          80,
          81,
          82,
          83,
          84,
          85,
          86,
          87,
          88,
          89,
          90,
          91,
          92,
          93,
          94,
          95,
          96,
          97,
          98,
          99,
          100,
          101,
          102,
          103,
          104,
          105,
          106,
          107,
          108,
          109,
          110,
          111,
          112,
          113,
          114,
          115,
          116,
          117,
          118,
          119,
          120,
          121,
          122,
          123,
          124,
          125,
          126,
          127,
          128,
          129,
          130,
          131,
          132,
          133,
          134,
          135,
          136,
          137,
          138,
          139,
          140,
          141,
          142,
          143,
          144,
          145,
          146,
          147,
          148,
          149,
          150,
          151,
          152,
          153,
          154,
          155,
          156,
          157,
          158,
          159,
          160,
          161,
          162,
          163,
          164,
          165,
          166,
          167,
          168,
          169,
          170,
          171,
          172,
          173,
          174,
          175,
          176,
          177,
          178,
          179,
          180,
          181,
          182,
          183,
          184,
          185,
          186,
          187,
          188,
          189,
          190,
          191,
          192,
          193,
          194,
          195,
          196,
          197,
          198,
          199,
          200,
          201,
          202,
          203,
          204,
          205,
          206,
          207,
          208,
          209,
          210,
          211,
          212,
          213,
          214,
          215,
          216,
          217,
          218,
          219,
          220,
          221,
          222,
          223,
          224,
          225,
          226,
          227,
          228,
          229,
          230,
          231,
          232,
          233,
          234,
          235,
          236,
          237,
          238,
          239,
          240,
          241,
          242,
          243,
          244,
          245,
          246,
          247,
          248,
          249,
          250,
          251,
          252,
          253,
          254,
          255,
          256,
          257,
          258,
          259,
          260,
          261,
          262,
          263,
          264,
          265,
          266,
          267,
          268,
          269,
          270,
          271,
          272,
          273,
          274,
          275,
          276,
          277,
          278,
          279,
          280,
          281,
          282,
          283,
          284,
          285,
          286,
          287,
          288,
          289,
          290,
          291,
          292,
          293,
          294,
          295,
          296,
          297,
          298,
          299,
          300,
          301,
          302,
          303,
          304,
          305,
          306,
          307,
          308,
          309,
          310,
          311,
          312,
          313,
          314,
          315,
          316,
          317,
          318,
          319,
          320,
          321,
          322,
          323,
          324,
          325,
          326,
          327,
          328,
          329,
          330,
          331,
          332,
          333,
          334,
          335,
          336,
          337,
          338,
          339,
          340,
          341,
          342,
          343,
          344,
          345,
          346,
          347,
          348,
          349,
          350,
          351,
          352,
          353,
          354,
          355,
          356,
          357,
          358,
          359,
          360,
          361,
          362,
          363,
          364,
          365,
          366,
          367,
          368,
          369,
          370,
          371,
          372,
          373,
          374,
          375,
          376,
          377,
          378,
          379,
          380,
          381,
          382,
          383,
          384,
          385,
          386,
          387,
          388,
          389,
          390,
          391,
          392,
          393,
          394,
          395,
          396,
          397,
          398,
          399,
          400,
          401,
          402,
          403,
          404,
          405,
          406,
          407,
          408,
          409,
          410,
          411,
          412,
          413,
          414,
          415,
          416,
          417,
          418,
          419,
          420,
          421,
          422,
          423,
          424,
          425,
          426,
          427,
          428,
          429,
          430,
          431,
          432,
          433,
          434,
          435,
          436,
          437,
          438,
          439,
          440,
          441,
          442,
          443,
          444,
          445,
          446,
          447,
          448,
          449,
          450,
          451,
          452,
          453,
          454,
          455,
          456,
          457,
          458,
          459,
          460,
          461,
          462,
          463,
          464,
          465,
          466,
          467,
          468,
          469,
          470,
          471,
          472,
          473,
          474,
          475,
          476,
          477,
          478,
          479,
          480,
          481,
          482,
          483,
          484,
          485,
          486,
          487,
          488,
          489,
          490,
          491,
          492,
          493,
          494,
          495,
          496,
          497,
          498,
          499,
          500,
          501,
          502,
          503,
          504,
          505,
          506,
          507,
          508,
          509,
          510,
          511,
          512,
          513,
          514,
          515,
          516,
          517,
          518,
          519,
          520,
          521,
          522,
          523,
          524,
          525,
          526,
          527,
          528,
          529,
          530,
          531,
          532,
          533,
          534,
          535,
          536,
          537,
          538,
          539,
          540,
          541,
          542,
          543,
          544,
          545,
          546,
          547,
          548,
          549,
          550,
          551,
          552,
          553,
          554,
          555,
          556,
          557,
          558,
          559,
          560,
          561,
          562,
          563,
          564,
          565,
          566,
          567,
          568,
          569,
          570,
          571,
          572,
          573,
          574,
          575,
          576,
          577,
          578,
          579,
          580,
          581,
          582,
          583,
          584,
          585,
          586,
          587,
          588,
          589,
          590,
          591,
          592,
          593,
          594,
          595,
          596,
          597,
          598,
          599,
          600,
          601,
          602,
          603,
          604,
          605,
          606,
          607,
          608,
          609,
          610,
          611,
          612,
          613,
          614,
          615,
          616,
          617,
          618,
          619,
          620,
          621,
          622,
          623,
          624,
          625,
          626,
          627,
          628,
          629,
          630,
          631,
          632,
          633,
          634,
          635,
          636,
          637,
          638,
          639,
          640,
          641,
          642,
          643,
          644,
          645,
          646,
          647,
          648,
          649,
          650,
          651,
          652,
          653,
          654,
          655,
          656,
          657,
          658,
          659,
          660,
          661,
          662,
          663,
          664,
          665,
          666,
          667,
          668,
          669,
          670,
          671,
          672,
          673,
          674,
          675,
          676,
          677,
          678,
          679,
          680,
          681,
          682,
          683,
          684,
          685,
          686,
          687,
          688,
          689,
          690,
          691,
          692,
          693,
          694,
          695,
          696,
          697,
          698,
          699,
          700,
          701,
          702,
          703,
          704,
          705,
          706,
          707,
          708,
          709,
          710,
          711,
          712,
          713,
          714,
          715,
          716,
          717,
          718,
          719,
          720,
          721,
          722,
          723,
          724,
          725,
          726,
          727,
          728,
          729,
          730,
          731,
          732,
          733,
          734,
          735,
          736,
          737,
          738,
          739,
          740,
          741,
          742,
          743,
          744,
          745,
          746,
          747,
          748,
          749,
          750,
          751,
          752,
          753,
          754,
          755,
          756,
          757,
          758,
          759,
          760,
          761,
          762,
          763,
          764,
          765,
          766,
          767,
          768,
          769,
          770,
          771,
          772,
          773,
          774,
          775,
          776,
          777,
          778,
          779,
          780,
          781,
          782,
          783,
          784,
          785,
          786,
          787,
          788,
          789,
          790,
          791,
          792,
          793,
          794,
          795,
          796,
          797,
          798,
          799,
          800
        ],
        "tree_info": [
          0,
          0,
          0,
          0,
          0,
          0,
          0,
          0,
          0,
          0,
          0,
          0,
          0,
          0,
          0,
          0,
          0,
          0,
          0,
          0,
          0,
          0,
          0,
          0,
          0,
          0,
          0,
          0,
          0,
          0,
          0,
          0,
          0,
          0,
          0,
          0,
          0,
          0,
          0,
          0,
          0,
          0,
          0,
          0,
          0,
          0,
          0,
          0,
          0,
          0,
          0,
          0,
          0,
          0,
          0,
          0,
          0,
          0,
          0,
          0,
          0,
          0,
          0,
          0,
          0,
          0,
          0,
          0,
          0,
          0,
          0,
          0,
          0,
          0,
          0,
          0,
          0,
          0,
          0,
          0,
          0,
          0,
          0,
          0,
          0,
          0,
          0,
          0,
          0,
          0,
          0,
          0,
          0,
          0,
          0,
          0,
          0,
          0,
          0,
          0,
          0,
          0,
          0,
          0,
          0,
          0,
          0,
          0,
          0,
          0,
          0,
          0,
          0,
          0,
          0,
          0,
          0,
          0,
          0,
          0,
          0,
          0,
          0,
          0,
          0,
          0,
          0,
          0,
          0,
          0,
          0,
          0,
          0,
          0,
          0,
          0,
          0,
          0,
          0,
          0,
          0,
          0,
          0,
          0,
          0,
          0,
          0,
          0,
          0,
          0,
          0,
          0,
          0,
          0,
          0,
          0,
          0,
          0,
          0,
          0,
          0,
          0,
          0,
          0,
          0,
          0,
          0,
          0,
          0,
          0,
          0,
          0,
          0,
          0,
          0,
          0,
          0,
          0,
          0,
          0,
          0,
          0,
          0,
          0,
          0,
          0,
          0,
          0,
          0,
          0,
          0,
          0,
          0,
          0,
          0,
          0,
          0,
          0,
          0,
          0,
          0,
          0,
          0,
          0,
          0,
          0,
          0,
          0,
          0,
          0,
          0,
          0,
          0,
          0,
          0,
          0,
          0,
          0,
          0,
          0,
          0,
          0,
          0,
          0,
          0,
          0,
          0,
          0,
          0,
          0,
          0,
          0,
          0,
          0,
          0,
          0,
          0,
          0,
          0,
          0,
          0,
          0,
          0,
          0,
          0,
          0,
          0,
          0,
          0,
          0,
          0,
          0,
          0,
          0,
          0,
          0,
          0,
          0,
          0,
          0,
          0,
          0,
          0,
          0,
          0,
          0,
          0,
          0,
          0,
          0,
          0,
          0,
          0,
          0,
          0,
          0,
          0,
          0,
          0,
          0,
          0,
          0,
          0,
          0,
          0,
          0,
          0,
          0,
          0,
          0,
          0,
          0,
          0,
          0,
          0,
          0,
          0,
          0,
          0,
          0,
          0,
          0,
          0,
          0,
          0,
          0,
          0,
          0,
          0,
          0,
          0,
          0,
          0,
          0,
          0,
          0,
          0,
          0,
          0,
          0,
          0,
          0,
          0,
          0,
          0,
          0,
          0,
          0,
          0,
          0,
          0,
          0,
          0,
          0,
          0,
          0,
          0,
          0,
          0,
          0,
          0,
          0,
          0,
          0,
          0,
          0,
          0,
          0,
          0,
          0,
          0,
          0,
          0,
          0,
          0,
          0,
          0,
          0,
          0,
          0,
          0,
          0,
          0,
          0,
          0,
          0,
          0,
          0,
          0,
          0,
          0,
          0,
          0,
          0,
          0,
          0,
          0,
          0,
          0,
          0,
          0,
          0,
          0,
          0,
          0,
          0,
          0,
          0,
          0,
          0,
          0,
          0,
          0,
          0,
          0,
          0,
          0,
          0,
          0,
          0,
          0,
          0,
          0,
          0,
          0,
          0,
          0,
          0,
          0,
          0,
          0,
          0,
          0,
          0,
          0,
          0,
          0,
          0,
          0,
          0,
          0,
          0,
          0,
          0,
          0,
          0,
          0,
          0,
          0,
          0,
          0,
          0,
          0,
          0,
          0,
          0,
          0,
          0,
          0,
          0,
          0,
          0,
          0,
          0,
          0,
          0,
          0,
          0,
          0,
          0,
          0,
          0,
          0,
          0,
          0,
          0,
          0,
          0,
          0,
          0,
          0,
          0,
          0,
          0,
          0,
          0,
          0,
          0,
          0,
          0,
          0,
          0,
          0,
          0,
          0,
          0,
          0,
          0,
          0,
          0,
          0,
          0,
          0,
          0,
          0,
          0,
          0,
          0,
          0,
          0,
          0,
          0,
          0,
          0,
          0,
          0,
          0,
          0,
          0,
          0,
          0,
          0,
          0,
          0,
          0,
          0,
          0,
          0,
          0,
          0,
          0,
          0,
          0,
          0,
          0,
          0,
          0,
          0,
          0,
          0,
          0,
          0,
          0,
          0,
          0,
          0,
          0,
          0,
          0,
          0,
          0,
          0,
          0,
          0,
          0,
          0,
          0,
          0,
          0,
          0,
          0,
          0,
          0,
          0,
          0,
          0,
          0,
          0,
          0,
          0,
          0,
          0,
          0,
          0,
          0,
          0,
          0,
          0,
          0,
          0,
          0,
          0,
          0,
          0,
          0,
          0,
          0,
          0,
          0,
          0,
          0,
          0,
          0,
          0,
          0,
          0,
          0,
          0,
          0,
          0,
          0,
          0,
          0,
          0,
          0,
          0,
          0,
          0,
          0,
          0,
          0,
          0,
          0,
          0,
          0,
          0,
          0,
          0,
          0,
          0,
          0,
          0,
          0,
          0,
          0,
          0,
          0,
          0,
          0,
          0,
          0,
          0,
          0,
          0,
          0,
          0,
          0,
          0,
          0,
          0,
          0,
          0,
          0,
          0,
          0,
          0,
          0,
          0,
          0,
          0,
          0,
          0,
          0,
          0,
          0,
          0,
          0,
          0,
          0,
          0,
          0,
          0,
          0,
          0,
          0,
          0,
          0,
          0,
          0,
          0,
          0,
          0,
          0,
          0,
          0,
          0,
          0,
          0,
          0,
          0,
          0,
          0,
          0,
          0,
          0,
          0,
          0,
          0,
          0,
          0,
          0,
          0,
          0,
          0,
          0,
          0,
          0,
          0,
          0,
          0,
          0,
          0,
          0,
          0,
          0,
          0,
          0,
          0,
          0,
          0,
          0,
          0,
          0,
          0,
          0,
          0,
          0,
          0,
          0,
          0,
          0,
          0,
          0,
          0,
          0,
          0,
          0,
          0,
          0,
          0,
          0,
          0,
          0,
          0,
          0,
          0,
          0,
          0,
          0,
          0,
          0,
          0,
          0,
          0,
          0,
          0,
          0,
          0,
          0,
          0,
          0,
          0,
          0,
          0,
          0,
          0,
          0,
          0,
          0,
          0,
          0,
          0,
          0,
          0,
          0,
          0,
          0,
          0,
          0,
          0,
          0,
          0,
          0,
          0,
          0,
          0,
          0,
          0,
          0,
          0,
          0,
          0,
          0,
          0,
          0,
          0,
          0,
          0,
          0,
          0,
          0,
          0,
          0,
          0,
          0,
          0,
          0,
          0,
          0,
          0,
          0,
          0,
          0,
          0,
          0,
          0,
          0,
          0,
          0,
          0,
          0,
          0,
          0,
          0,
          0,
          0,
          0,
          0,
          0,
          0
        ],
        "trees": [
          {
            "base_weights": [
              0.00026142737,
              -0.13989514,
              0.03111421,
              -0.008274039,
              -0.003278336,
              0.0563839,
              -0.000029308625,
              -0.025868304,
              0.0038782228,
              0.0056656236,
              -0.002189525
            ],
            "categories": [],
            "categories_nodes": [],
            "categories_segments": [],
            "categories_sizes": [],
            "default_left": [
              0,
              0,
              0,
              0,
              0,
              0,
              0,
              0,
              0,
              0,
              0
            ],
            "id": 0,
            "left_children": [
              1,
              3,
              5,
              -1,
              -1,
              7,
              -1,
              9,
              -1,
              -1,
              -1
            ],
            "loss_changes": [
              22.434113,
              1.7583275,
              3.4061685,
              0,
              0,
              4.125933,
              0,
              1.2222142,
              0,
              0,
              0
            ],
            "parents": [
              2147483647,
              0,
              0,
              1,
              1,
              2,
              2,
              5,
              5,
              7,
              7
            ],
            "right_children": [
              2,
              4,
              6,
              -1,
              -1,
              8,
              -1,
              10,
              -1,
              -1,
              -1
            ],
            "split_conditions": [
              1,
              2107,
              1,
              -0.008274039,
              -0.003278336,
              1,
              -0.000029308625,
              1,
              0.0038782228,
              0.0056656236,
              -0.002189525
            ],
            "split_indices": [
              18,
              5,
              192,
              0,
              0,
              58,
              0,
              22,
              0,
              0,
              0
            ],
            "split_type": [
              0,
              0,
              0,
              0,
              0,
              0,
              0,
              0,
              0,
              0,
              0
            ],
            "sum_hessian": [
              5184,
              934,
              4.25E+3,
              693,
              241,
              2364,
              1886,
              484,
              1.88E+3,
              54,
              4.3E+2
            ],
            "tree_param": {
              "num_deleted": "0",
              "num_feature": "2400",
              "num_nodes": "11",
              "size_leaf_vector": "1"
            }
          },
          {
            "base_weights": [
              -0.000040935767,
              -0.13234292,
              0.029517885,
              -0.0077735656,
              -0.0030530111,
              0.053406704,
              -0.000025337184,
              -0.021817163,
              0.0037475948,
              0.006676465,
              -0.0016996515
            ],
            "categories": [],
            "categories_nodes": [],
            "categories_segments": [],
            "categories_sizes": [],
            "default_left": [
              0,
              0,
              0,
              0,
              0,
              0,
              0,
              0,
              0,
              0,
              0
            ],
            "id": 1,
            "left_children": [
              1,
              3,
              5,
              -1,
              -1,
              7,
              -1,
              9,
              -1,
              -1,
              -1
            ],
            "loss_changes": [
              20.429438,
              1.5538292,
              3.0627244,
              0,
              0,
              3.8573256,
              0,
              1.0134526,
              0,
              0,
              0
            ],
            "parents": [
              2147483647,
              0,
              0,
              1,
              1,
              2,
              2,
              5,
              5,
              7,
              7
            ],
            "right_children": [
              2,
              4,
              6,
              -1,
              -1,
              8,
              -1,
              10,
              -1,
              -1,
              -1
            ],
            "split_conditions": [
              1,
              2107,
              1,
              -0.0077735656,
              -0.0030530111,
              1,
              -0.000025337184,
              1,
              0.0037475948,
              0.006676465,
              -0.0016996515
            ],
            "split_indices": [
              18,
              5,
              192,
              0,
              0,
              62,
              0,
              20,
              0,
              0,
              0
            ],
            "split_type": [
              0,
              0,
              0,
              0,
              0,
              0,
              0,
              0,
              0,
              0,
              0
            ],
            "sum_hessian": [
              5.22E+3,
              952,
              4268,
              717,
              235,
              2376,
              1892,
              529,
              1847,
              37,
              492
            ],
            "tree_param": {
              "num_deleted": "0",
              "num_feature": "2400",
              "num_nodes": "11",
              "size_leaf_vector": "1"
            }
          },
          {
            "base_weights": [
              0.00040833178,
              -0.12499148,
              0.028398644,
              -0.0074135917,
              -0.0027635917,
              0.050513696,
              -0.000023365646,
              -0.024197709,
              0.0034924024,
              0.006569013,
              -0.0018979617
            ],
            "categories": [],
            "categories_nodes": [],
            "categories_segments": [],
            "categories_sizes": [],
            "default_left": [
              0,
              0,
              0,
              0,
              0,
              0,
              0,
              0,
              0,
              0,
              0
            ],
            "id": 2,
            "left_children": [
              1,
              3,
              5,
              -1,
              -1,
              7,
              -1,
              9,
              -1,
              -1,
              -1
            ],
            "loss_changes": [
              18.350254,
              1.5320454,
              2.7284498,
              0,
              0,
              3.499063,
              0,
              1.0783281,
              0,
              0,
              0
            ],
            "parents": [
              2147483647,
              0,
              0,
              1,
              1,
              2,
              2,
              5,
              5,
              7,
              7
            ],
            "right_children": [
              2,
              4,
              6,
              -1,
              -1,
              8,
              -1,
              10,
              -1,
              -1,
              -1
            ],
            "split_conditions": [
              1,
              2107,
              494,
              -0.0074135917,
              -0.0027635917,
              1,
              -0.000023365646,
              1,
              0.0034924024,
              0.006569013,
              -0.0018979617
            ],
            "split_indices": [
              18,
              5,
              193,
              0,
              0,
              58,
              0,
              20,
              0,
              0,
              0
            ],
            "split_type": [
              0,
              0,
              0,
              0,
              0,
              0,
              0,
              0,
              0,
              0,
              0
            ],
            "sum_hessian": [
              5224,
              952,
              4272,
              712,
              2.4E+2,
              2418,
              1854,
              497,
              1921,
              39,
              458
            ],
            "tree_param": {
              "num_deleted": "0",
              "num_feature": "2400",
              "num_nodes": "11",
              "size_leaf_vector": "1"
            }
          },
          {
            "base_weights": [
              0.00014339638,
              -0.11571546,
              0.026297122,
              -0.10150654,
              -0.0112588955,
              0.04532611,
              -0.00022658764,
              -0.14354372,
              -0.0025975257,
              -0.0009887182,
              0.003095319,
              -0.005232287,
              -0.01166764
            ],
            "categories": [],
            "categories_nodes": [],
            "categories_segments": [],
            "categories_sizes": [],
            "default_left": [
              0,
              0,
              0,
              0,
              0,
              0,
              0,
              0,
              0,
              0,
              0,
              0,
              0
            ],
            "id": 3,
            "left_children": [
              1,
              3,
              5,
              7,
              -1,
              9,
              -1,
              11,
              -1,
              -1,
              -1,
              -1,
              -1
            ],
            "loss_changes": [
              15.844632,
              1.4520807,
              2.503027,
              1.7683,
              0,
              2.8498611,
              0,
              1.5651083,
              0,
              0,
              0,
              0,
              0
            ],
            "parents": [
              2147483647,
              0,
              0,
              1,
              1,
              2,
              2,
              3,
              3,
              5,
              5,
              7,
              7
            ],
            "right_children": [
              2,
              4,
              6,
              8,
              -1,
              10,
              -1,
              12,
              -1,
              -1,
              -1,
              -1,
              -1
            ],
            "split_conditions": [
              666,
              1358,
              1,
              815,
              -0.0112588955,
              1,
              -0.00022658764,
              1,
              -0.0025975257,
              -0.0009887182,
              0.003095319,
              -0.005232287,
              -0.01166764
            ],
            "split_indices": [
              19,
              17,
              352,
              9,
              0,
              62,
              0,
              4,
              0,
              0,
              0,
              0,
              0
            ],
            "split_type": [
              0,
              0,
              0,
              0,
              0,
              0,
              0,
              0,
              0,
              0,
              0,
              0,
              0
            ],
            "sum_hessian": [
              5225,
              961,
              4264,
              854,
              107,
              2636,
              1628,
              4.6E+2,
              394,
              535,
              2101,
              324,
              136
            ],
            "tree_param": {
              "num_deleted": "0",
              "num_feature": "2400",
              "num_nodes": "13",
              "size_leaf_vector": "1"
            }
          },
          {
            "base_weights": [
              -0.000076695884,
              -0.11385039,
              0.025694543,
              -0.09997905,
              -0.010713855,
              0.046642065,
              -0.00004911085,
              -0.13597703,
              -0.0027310096,
              -0.0011005859,
              0.003196399,
              -0.0050297524,
              -0.011186137
            ],
            "categories": [],
            "categories_nodes": [],
            "categories_segments": [],
            "categories_sizes": [],
            "default_left": [
              0,
              0,
              0,
              0,
              0,
              0,
              0,
              0,
              0,
              0,
              0,
              0,
              0
            ],
            "id": 4,
            "left_children": [
              1,
              3,
              5,
              7,
              -1,
              9,
              -1,
              11,
              -1,
              -1,
              -1,
              -1,
              -1
            ],
            "loss_changes": [
              15.273239,
              1.2972717,
              2.3733659,
              1.3714151,
              0,
              2.826078,
              0,
              1.4203691,
              0,
              0,
              0,
              0,
              0
            ],
            "parents": [
              2147483647,
              0,
              0,
              1,
              1,
              2,
              2,
              3,
              3,
              5,
              5,
              7,
              7
            ],
            "right_children": [
              2,
              4,
              6,
              8,
              -1,
              10,
              -1,
              12,
              -1,
              -1,
              -1,
              -1,
              -1
            ],
            "split_conditions": [
              1,
              1,
              1,
              1,
              -0.010713855,
              1,
              -0.00004911085,
              1,
              -0.0027310096,
              -0.0011005859,
              0.003196399,
              -0.0050297524,
              -0.011186137
            ],
            "split_indices": [
              18,
              16,
              192,
              8,
              0,
              58,
              0,
              4,
              0,
              0,
              0,
              0,
              0
            ],
            "split_type": [
              0,
              0,
              0,
              0,
              0,
              0,
              0,
              0,
              0,
              0,
              0,
              0,
              0
            ],
            "sum_hessian": [
              5205,
              9.6E+2,
              4245,
              847,
              113,
              2377,
              1868,
              4.7E+2,
              377,
              478,
              1899,
              338,
              132
            ],
            "tree_param": {
              "num_deleted": "0",
              "num_feature": "2400",
              "num_nodes": "13",
              "size_leaf_vector": "1"
            }
          },
          {
            "base_weights": [
              -0.0004810919,
              -0.10709183,
              0.023582844,
              -0.0057477653,
              0.0023715824,
              0.04105776,
              -0.0002258471,
              -0.0009573122,
              0.0027523553
            ],
            "categories": [],
            "categories_nodes": [],
            "categories_segments": [],
            "categories_sizes": [],
            "default_left": [
              0,
              0,
              0,
              0,
              0,
              0,
              0,
              0,
              0
            ],
            "id": 5,
            "left_children": [
              1,
              3,
              5,
              -1,
              -1,
              7,
              -1,
              -1,
              -1
            ],
            "loss_changes": [
              13.401957,
              1.179822,
              2.0931897,
              0,
              0,
              2.2154474,
              0,
              0,
              0
            ],
            "parents": [
              2147483647,
              0,
              0,
              1,
              1,
              2,
              2,
              5,
              5
            ],
            "right_children": [
              2,
              4,
              6,
              -1,
              -1,
              8,
              -1,
              -1,
              -1
            ],
            "split_conditions": [
              1,
              2157,
              1,
              -0.0057477653,
              0.0023715824,
              1,
              -0.0002258471,
              -0.0009573122,
              0.0027523553
            ],
            "split_indices": [
              18,
              9,
              352,
              0,
              0,
              58,
              0,
              0,
              0
            ],
            "split_type": [
              0,
              0,
              0,
              0,
              0,
              0,
              0,
              0,
              0
            ],
            "sum_hessian": [
              5.22E+3,
              9.6E+2,
              4.26E+3,
              914,
              46,
              2626,
              1634,
              495,
              2131
            ],
            "tree_param": {
              "num_deleted": "0",
              "num_feature": "2400",
              "num_nodes": "9",
              "size_leaf_vector": "1"
            }
          },
          {
            "base_weights": [
              -0.0005077058,
              -0.10329057,
              0.022614459,
              -0.09057008,
              -0.009893599,
              0.041538775,
              -0.00005161789,
              -0.12697677,
              -0.002322581,
              -0.0008911458,
              0.0029379427,
              -0.0045373086,
              -0.010311442
            ],
            "categories": [],
            "categories_nodes": [],
            "categories_segments": [],
            "categories_sizes": [],
            "default_left": [
              0,
              0,
              0,
              0,
              0,
              0,
              0,
              0,
              0,
              0,
              0,
              0,
              0
            ],
            "id": 6,
            "left_children": [
              1,
              3,
              5,
              7,
              -1,
              9,
              -1,
              11,
              -1,
              -1,
              -1,
              -1,
              -1
            ],
            "loss_changes": [
              12.410327,
              1.1179523,
              1.9077773,
              1.3518729,
              0,
              2.4226952,
              0,
              1.2948775,
              0,
              0,
              0,
              0,
              0
            ],
            "parents": [
              2147483647,
              0,
              0,
              1,
              1,
              2,
              2,
              3,
              3,
              5,
              5,
              7,
              7
            ],
            "right_children": [
              2,
              4,
              6,
              8,
              -1,
              10,
              -1,
              12,
              -1,
              -1,
              -1,
              -1,
              -1
            ],
            "split_conditions": [
              1,
              1,
              1,
              1,
              -0.009893599,
              1,
              -0.00005161789,
              1,
              -0.002322581,
              -0.0008911458,
              0.0029379427,
              -0.0045373086,
              -0.010311442
            ],
            "split_indices": [
              18,
              16,
              192,
              8,
              0,
              62,
              0,
              4,
              0,
              0,
              0,
              0,
              0
            ],
            "split_type": [
              0,
              0,
              0,
              0,
              0,
              0,
              0,
              0,
              0,
              0,
              0,
              0,
              0
            ],
            "sum_hessian": [
              5218,
              957,
              4261,
              847,
              1.1E+2,
              2366,
              1895,
              462,
              385,
              532,
              1834,
              3.2E+2,
              142
            ],
            "tree_param": {
              "num_deleted": "0",
              "num_feature": "2400",
              "num_nodes": "13",
              "size_leaf_vector": "1"
            }
          },
          {
            "base_weights": [
              0.00006600988,
              -0.09891909,
              0.021784907,
              -0.08595229,
              -0.00942798,
              0.03967963,
              -0.000043102606,
              -0.117659144,
              -0.0022710394,
              -0.0009810693,
              0.0027607935,
              -0.00425765,
              -0.009712047
            ],
            "categories": [],
            "categories_nodes": [],
            "categories_segments": [],
            "categories_sizes": [],
            "default_left": [
              0,
              0,
              0,
              0,
              0,
              0,
              0,
              0,
              0,
              0,
              0,
              0,
              0
            ],
            "id": 7,
            "left_children": [
              1,
              3,
              5,
              7,
              -1,
              9,
              -1,
              11,
              -1,
              -1,
              -1,
              -1,
              -1
            ],
            "loss_changes": [
              11.314657,
              1.0683317,
              1.7491753,
              1.0572515,
              0,
              2.2234564,
              0,
              1.1244812,
              0,
              0,
              0,
              0,
              0
            ],
            "parents": [
              2147483647,
              0,
              0,
              1,
              1,
              2,
              2,
              3,
              3,
              5,
              5,
              7,
              7
            ],
            "right_children": [
              2,
              4,
              6,
              8,
              -1,
              10,
              -1,
              12,
              -1,
              -1,
              -1,
              -1,
              -1
            ],
            "split_conditions": [
              1,
              678,
              1,
              1,
              -0.00942798,
              1,
              -0.000043102606,
              1,
              -0.0022710394,
              -0.0009810693,
              0.0027607935,
              -0.00425765,
              -0.009712047
            ],
            "split_indices": [
              18,
              17,
              192,
              8,
              0,
              58,
              0,
              4,
              0,
              0,
              0,
              0,
              0
            ],
            "split_type": [
              0,
              0,
              0,
              0,
              0,
              0,
              0,
              0,
              0,
              0,
              0,
              0,
              0
            ],
            "sum_hessian": [
              5259,
              945,
              4314,
              829,
              116,
              2409,
              1905,
              463,
              366,
              5E+2,
              1909,
              328,
              135
            ],
            "tree_param": {
              "num_deleted": "0",
              "num_feature": "2400",
              "num_nodes": "13",
              "size_leaf_vector": "1"
            }
          },
          {
            "base_weights": [
              0.0002713407,
              -0.00457684,
              0.02063275,
              0.034536343,
              -0.00029401729,
              -0.0009560638,
              0.0022878605
            ],
            "categories": [],
            "categories_nodes": [],
            "categories_segments": [],
            "categories_sizes": [],
            "default_left": [
              0,
              0,
              0,
              0,
              0,
              0,
              0
            ],
            "id": 8,
            "left_children": [
              1,
              -1,
              3,
              5,
              -1,
              -1,
              -1
            ],
            "loss_changes": [
              9.834652,
              0,
              1.5877151,
              1.7026398,
              0,
              0,
              0
            ],
            "parents": [
              2147483647,
              0,
              0,
              2,
              2,
              3,
              3
            ],
            "right_children": [
              2,
              -1,
              4,
              6,
              -1,
              -1,
              -1
            ],
            "split_conditions": [
              1,
              -0.00457684,
              1,
              1,
              -0.00029401729,
              -0.0009560638,
              0.0022878605
            ],
            "split_indices": [
              18,
              0,
              524,
              58,
              0,
              0,
              0
            ],
            "split_type": [
              0,
              0,
              0,
              0,
              0,
              0,
              0
            ],
            "sum_hessian": [
              5257,
              953,
              4304,
              2823,
              1481,
              488,
              2335
            ],
            "tree_param": {
              "num_deleted": "0",
              "num_feature": "2400",
              "num_nodes": "7",
              "size_leaf_vector": "1"
            }
          },
          {
            "base_weights": [
              -0.000040978015,
              -0.004425934,
              0.019966666,
              0.03670048,
              -0.0000702495,
              -0.00056290923,
              0.002615907
            ],
            "categories": [],
            "categories_nodes": [],
            "categories_segments": [],
            "categories_sizes": [],
            "default_left": [
              0,
              0,
              0,
              0,
              0,
              0,
              0
            ],
            "id": 9,
            "left_children": [
              1,
              -1,
              3,
              5,
              -1,
              -1,
              -1
            ],
            "loss_changes": [
              9.252989,
              0,
              1.5246769,
              1.792042,
              0,
              0,
              0
            ],
            "parents": [
              2147483647,
              0,
              0,
              2,
              2,
              3,
              3
            ],
            "right_children": [
              2,
              -1,
              4,
              6,
              -1,
              -1,
              -1
            ],
            "split_conditions": [
              1,
              -0.004425934,
              1,
              1,
              -0.0000702495,
              -0.00056290923,
              0.002615907
            ],
            "split_indices": [
              18,
              0,
              192,
              66,
              0,
              0,
              0
            ],
            "split_type": [
              0,
              0,
              0,
              0,
              0,
              0,
              0
            ],
            "sum_hessian": [
              5223,
              962,
              4261,
              2389,
              1872,
              587,
              1802
            ],
            "tree_param": {
              "num_deleted": "0",
              "num_feature": "2400",
              "num_nodes": "7",
              "size_leaf_vector": "1"
            }
          },
          {
            "base_weights": [
              0.00007627462,
              -0.0041321204,
              0.018767852,
              0.031646922,
              -0.0003007257,
              0.0026402848,
              0.0003806642
            ],
            "categories": [],
            "categories_nodes": [],
            "categories_segments": [],
            "categories_sizes": [],
            "default_left": [
              0,
              0,
              0,
              0,
              0,
              0,
              0
            ],
            "id": 10,
            "left_children": [
              1,
              -1,
              3,
              5,
              -1,
              -1,
              -1
            ],
            "loss_changes": [
              8.04459,
              0,
              1.3549545,
              1.4194982,
              0,
              0,
              0
            ],
            "parents": [
              2147483647,
              0,
              0,
              2,
              2,
              3,
              3
            ],
            "right_children": [
              2,
              -1,
              4,
              6,
              -1,
              -1,
              -1
            ],
            "split_conditions": [
              1,
              -0.0041321204,
              1,
              1756,
              -0.0003007257,
              0.0026402848,
              0.0003806642
            ],
            "split_indices": [
              18,
              0,
              542,
              3,
              0,
              0,
              0
            ],
            "split_type": [
              0,
              0,
              0,
              0,
              0,
              0,
              0
            ],
            "sum_hessian": [
              5199,
              957,
              4242,
              2791,
              1451,
              1483,
              1308
            ],
            "tree_param": {
              "num_deleted": "0",
              "num_feature": "2400",
              "num_nodes": "7",
              "size_leaf_vector": "1"
            }
          },
          {
            "base_weights": [
              0.0000018702128,
              -0.003939306,
              0.017688967,
              0.029931502,
              -0.00026981393,
              0.0025322342,
              0.00031905624
            ],
            "categories": [],
            "categories_nodes": [],
            "categories_segments": [],
            "categories_sizes": [],
            "default_left": [
              0,
              0,
              0,
              0,
              0,
              0,
              0
            ],
            "id": 11,
            "left_children": [
              1,
              -1,
              3,
              5,
              -1,
              -1,
              -1
            ],
            "loss_changes": [
              7.2742314,
              0,
              1.2051402,
              1.3583736,
              0,
              0,
              0
            ],
            "parents": [
              2147483647,
              0,
              0,
              2,
              2,
              3,
              3
            ],
            "right_children": [
              2,
              -1,
              4,
              6,
              -1,
              -1,
              -1
            ],
            "split_conditions": [
              1,
              -0.003939306,
              1,
              1756,
              -0.00026981393,
              0.0025322342,
              0.00031905624
            ],
            "split_indices": [
              18,
              0,
              542,
              3,
              0,
              0,
              0
            ],
            "split_type": [
              0,
              0,
              0,
              0,
              0,
              0,
              0
            ],
            "sum_hessian": [
              5216,
              955,
              4261,
              2784,
              1477,
              1.48E+3,
              1304
            ],
            "tree_param": {
              "num_deleted": "0",
              "num_feature": "2400",
              "num_nodes": "7",
              "size_leaf_vector": "1"
            }
          },
          {
            "base_weights": [
              0.00005929361,
              -0.0038003612,
              0.017032199,
              0.028395273,
              -0.00025454652,
              -0.00085243984,
              0.0018967513
            ],
            "categories": [],
            "categories_nodes": [],
            "categories_segments": [],
            "categories_sizes": [],
            "default_left": [
              0,
              0,
              0,
              0,
              0,
              0,
              0
            ],
            "id": 12,
            "left_children": [
              1,
              -1,
              3,
              5,
              -1,
              -1,
              -1
            ],
            "loss_changes": [
              6.744556,
              0,
              1.073962,
              1.2247019,
              0,
              0,
              0
            ],
            "parents": [
              2147483647,
              0,
              0,
              2,
              2,
              3,
              3
            ],
            "right_children": [
              2,
              -1,
              4,
              6,
              -1,
              -1,
              -1
            ],
            "split_conditions": [
              1,
              -0.0038003612,
              1,
              1,
              -0.00025454652,
              -0.00085243984,
              0.0018967513
            ],
            "split_indices": [
              18,
              0,
              542,
              58,
              0,
              0,
              0
            ],
            "split_type": [
              0,
              0,
              0,
              0,
              0,
              0,
              0
            ],
            "sum_hessian": [
              5.22E+3,
              951,
              4269,
              2.82E+3,
              1449,
              489,
              2331
            ],
            "tree_param": {
              "num_deleted": "0",
              "num_feature": "2400",
              "num_nodes": "7",
              "size_leaf_vector": "1"
            }
          },
          {
            "base_weights": [
              -0.000085724096,
              -0.0035705247,
              0.00078913727
            ],
            "categories": [],
            "categories_nodes": [],
            "categories_segments": [],
            "categories_sizes": [],
            "default_left": [
              0,
              0,
              0
            ],
            "id": 13,
            "left_children": [
              1,
              -1,
              -1
            ],
            "loss_changes": [
              5.9329643,
              0,
              0
            ],
            "parents": [
              2147483647,
              0,
              0
            ],
            "right_children": [
              2,
              -1,
              -1
            ],
            "split_conditions": [
              1,
              -0.0035705247,
              0.00078913727
            ],
            "split_indices": [
              18,
              0,
              0
            ],
            "split_type": [
              0,
              0,
              0
            ],
            "sum_hessian": [
              5238,
              952,
              4286
            ],
            "tree_param": {
              "num_deleted": "0",
              "num_feature": "2400",
              "num_nodes": "3",
              "size_leaf_vector": "1"
            }
          },
          {
            "base_weights": [
              0.000108587374,
              -0.0033729547,
              0.0152535625,
              0.02891476,
              -0.000111155794,
              -0.00054514164,
              0.0021103395
            ],
            "categories": [],
            "categories_nodes": [],
            "categories_segments": [],
            "categories_sizes": [],
            "default_left": [
              0,
              0,
              0,
              0,
              0,
              0,
              0
            ],
            "id": 14,
            "left_children": [
              1,
              -1,
              3,
              5,
              -1,
              -1,
              -1
            ],
            "loss_changes": [
              5.353974,
              0,
              1.0205562,
              1.2706072,
              0,
              0,
              0
            ],
            "parents": [
              2147483647,
              0,
              0,
              2,
              2,
              3,
              3
            ],
            "right_children": [
              2,
              -1,
              4,
              6,
              -1,
              -1,
              -1
            ],
            "split_conditions": [
              1,
              -0.0033729547,
              1,
              1,
              -0.000111155794,
              -0.00054514164,
              0.0021103395
            ],
            "split_indices": [
              18,
              0,
              192,
              66,
              0,
              0,
              0
            ],
            "split_type": [
              0,
              0,
              0,
              0,
              0,
              0,
              0
            ],
            "sum_hessian": [
              5228,
              956,
              4272,
              2397,
              1875,
              6E+2,
              1797
            ],
            "tree_param": {
              "num_deleted": "0",
              "num_feature": "2400",
              "num_nodes": "7",
              "size_leaf_vector": "1"
            }
          },
          {
            "base_weights": [
              -0.00024015467,
              -0.003315064,
              0.00072329363
            ],
            "categories": [],
            "categories_nodes": [],
            "categories_segments": [],
            "categories_sizes": [],
            "default_left": [
              0,
              0,
              0
            ],
            "id": 15,
            "left_children": [
              1,
              -1,
              -1
            ],
            "loss_changes": [
              5.0954757,
              0,
              0
            ],
            "parents": [
              2147483647,
              0,
              0
            ],
            "right_children": [
              2,
              -1,
              -1
            ],
            "split_conditions": [
              1,
              -0.003315064,
              0.00072329363
            ],
            "split_indices": [
              18,
              0,
              0
            ],
            "split_type": [
              0,
              0,
              0
            ],
            "sum_hessian": [
              5241,
              953,
              4288
            ],
            "tree_param": {
              "num_deleted": "0",
              "num_feature": "2400",
              "num_nodes": "3",
              "size_leaf_vector": "1"
            }
          },
          {
            "base_weights": [
              0.00012949575,
              -0.06107565,
              0.0006922054,
              -0.0034273851,
              0.003978701
            ],
            "categories": [],
            "categories_nodes": [],
            "categories_segments": [],
            "categories_sizes": [],
            "default_left": [
              0,
              0,
              0,
              0,
              0
            ],
            "id": 16,
            "left_children": [
              1,
              3,
              -1,
              -1,
              -1
            ],
            "loss_changes": [
              4.3699536,
              1.0124567,
              0,
              0,
              0
            ],
            "parents": [
              2147483647,
              0,
              0,
              1,
              1
            ],
            "right_children": [
              2,
              4,
              -1,
              -1,
              -1
            ],
            "split_conditions": [
              1,
              2157,
              0.0006922054,
              -0.0034273851,
              0.003978701
            ],
            "split_indices": [
              18,
              9,
              0,
              0,
              0
            ],
            "split_type": [
              0,
              0,
              0,
              0,
              0
            ],
            "sum_hessian": [
              5202,
              951,
              4251,
              904,
              47
            ],
            "tree_param": {
              "num_deleted": "0",
              "num_feature": "2400",
              "num_nodes": "5",
              "size_leaf_vector": "1"
            }
          },
          {
            "base_weights": [
              -0.000117846386,
              -0.0025321136,
              0.016060302,
              0.0016837405,
              -0.00016443314
            ],
            "categories": [],
            "categories_nodes": [],
            "categories_segments": [],
            "categories_sizes": [],
            "default_left": [
              0,
              0,
              0,
              0,
              0
            ],
            "id": 17,
            "left_children": [
              1,
              -1,
              3,
              -1,
              -1
            ],
            "loss_changes": [
              4.246341,
              0,
              1.341358,
              0,
              0
            ],
            "parents": [
              2147483647,
              0,
              0,
              2,
              2
            ],
            "right_children": [
              2,
              -1,
              4,
              -1,
              -1
            ],
            "split_conditions": [
              1,
              -0.0025321136,
              1,
              0.0016837405,
              -0.00016443314
            ],
            "split_indices": [
              38,
              0,
              192,
              0,
              0
            ],
            "split_type": [
              0,
              0,
              0,
              0,
              0
            ],
            "sum_hessian": [
              5191,
              1258,
              3933,
              2058,
              1875
            ],
            "tree_param": {
              "num_deleted": "0",
              "num_feature": "2400",
              "num_nodes": "5",
              "size_leaf_vector": "1"
            }
          },
          {
            "base_weights": [
              -0.000100100144,
              -0.002365795,
              0.015056079,
              0.0015858918,
              -0.00015920657
            ],
            "categories": [],
            "categories_nodes": [],
            "categories_segments": [],
            "categories_sizes": [],
            "default_left": [
              0,
              0,
              0,
              0,
              0
            ],
            "id": 18,
            "left_children": [
              1,
              -1,
              3,
              -1,
              -1
            ],
            "loss_changes": [
              3.754805,
              0,
              1.2073481,
              0,
              0
            ],
            "parents": [
              2147483647,
              0,
              0,
              2,
              2
            ],
            "right_children": [
              2,
              -1,
              4,
              -1,
              -1
            ],
            "split_conditions": [
              1,
              -0.002365795,
              1,
              0.0015858918,
              -0.00015920657
            ],
            "split_indices": [
              38,
              0,
              192,
              0,
              0
            ],
            "split_type": [
              0,
              0,
              0,
              0,
              0
            ],
            "sum_hessian": [
              5243,
              1273,
              3.97E+3,
              2074,
              1896
            ],
            "tree_param": {
              "num_deleted": "0",
              "num_feature": "2400",
              "num_nodes": "5",
              "size_leaf_vector": "1"
            }
          },
          {
            "base_weights": [
              -0.00023458822,
              -0.002090289,
              0.015706703,
              0.0017263805,
              -0.00013963791
            ],
            "categories": [],
            "categories_nodes": [],
            "categories_segments": [],
            "categories_sizes": [],
            "default_left": [
              0,
              0,
              0,
              0,
              0
            ],
            "id": 19,
            "left_children": [
              1,
              -1,
              3,
              -1,
              -1
            ],
            "loss_changes": [
              3.438068,
              0,
              1.3058555,
              0,
              0
            ],
            "parents": [
              2147483647,
              0,
              0,
              2,
              2
            ],
            "right_children": [
              2,
              -1,
              4,
              -1,
              -1
            ],
            "split_conditions": [
              1,
              -0.002090289,
              1,
              0.0017263805,
              -0.00013963791
            ],
            "split_indices": [
              58,
              0,
              190,
              0,
              0
            ],
            "split_type": [
              0,
              0,
              0,
              0,
              0
            ],
            "sum_hessian": [
              5184,
              1436,
              3748,
              1857,
              1891
            ],
            "tree_param": {
              "num_deleted": "0",
              "num_feature": "2400",
              "num_nodes": "5",
              "size_leaf_vector": "1"
            }
          },
          {
            "base_weights": [
              -0.00002375217,
              -0.0026180372,
              0.0005719752
            ],
            "categories": [],
            "categories_nodes": [],
            "categories_segments": [],
            "categories_sizes": [],
            "default_left": [
              0,
              0,
              0
            ],
            "id": 20,
            "left_children": [
              1,
              -1,
              -1
            ],
            "loss_changes": [
              3.1287494,
              0,
              0
            ],
            "parents": [
              2147483647,
              0,
              0
            ],
            "right_children": [
              2,
              -1,
              -1
            ],
            "split_conditions": [
              1,
              -0.0026180372,
              0.0005719752
            ],
            "split_indices": [
              18,
              0,
              0
            ],
            "split_type": [
              0,
              0,
              0
            ],
            "sum_hessian": [
              5211,
              935,
              4276
            ],
            "tree_param": {
              "num_deleted": "0",
              "num_feature": "2400",
              "num_nodes": "3",
              "size_leaf_vector": "1"
            }
          },
          {
            "base_weights": [
              -0.00043609817,
              -0.0021018095,
              0.0006462714
            ],
            "categories": [],
            "categories_nodes": [],
            "categories_segments": [],
            "categories_sizes": [],
            "default_left": [
              0,
              0,
              0
            ],
            "id": 21,
            "left_children": [
              1,
              -1,
              -1
            ],
            "loss_changes": [
              2.9014635,
              0,
              0
            ],
            "parents": [
              2147483647,
              0,
              0
            ],
            "right_children": [
              2,
              -1,
              -1
            ],
            "split_conditions": [
              1,
              -0.0021018095,
              0.0006462714
            ],
            "split_indices": [
              38,
              0,
              0
            ],
            "split_type": [
              0,
              0,
              0
            ],
            "sum_hessian": [
              5216,
              1267,
              3949
            ],
            "tree_param": {
              "num_deleted": "0",
              "num_feature": "2400",
              "num_nodes": "3",
              "size_leaf_vector": "1"
            }
          },
          {
            "base_weights": [
              0.00029579047,
              -0.002399876,
              0.00054348033
            ],
            "categories": [],
            "categories_nodes": [],
            "categories_segments": [],
            "categories_sizes": [],
            "default_left": [
              0,
              0,
              0
            ],
            "id": 22,
            "left_children": [
              1,
              -1,
              -1
            ],
            "loss_changes": [
              2.6865232,
              0,
              0
            ],
            "parents": [
              2147483647,
              0,
              0
            ],
            "right_children": [
              2,
              -1,
              -1
            ],
            "split_conditions": [
              1,
              -0.002399876,
              0.00054348033
            ],
            "split_indices": [
              18,
              0,
              0
            ],
            "split_type": [
              0,
              0,
              0
            ],
            "sum_hessian": [
              5257,
              943,
              4314
            ],
            "tree_param": {
              "num_deleted": "0",
              "num_feature": "2400",
              "num_nodes": "3",
              "size_leaf_vector": "1"
            }
          },
          {
            "base_weights": [
              -0.000021031841,
              -0.0016978979,
              0.013111487,
              0.0015639125,
              -0.00022119404
            ],
            "categories": [],
            "categories_nodes": [],
            "categories_segments": [],
            "categories_sizes": [],
            "default_left": [
              0,
              0,
              0,
              0,
              0
            ],
            "id": 23,
            "left_children": [
              1,
              -1,
              3,
              -1,
              -1
            ],
            "loss_changes": [
              2.3242064,
              0,
              1.1980655,
              0,
              0
            ],
            "parents": [
              2147483647,
              0,
              0,
              2,
              2
            ],
            "right_children": [
              2,
              -1,
              4,
              -1,
              -1
            ],
            "split_conditions": [
              1,
              -0.0016978979,
              1,
              0.0015639125,
              -0.00022119404
            ],
            "split_indices": [
              58,
              0,
              190,
              0,
              0
            ],
            "split_type": [
              0,
              0,
              0,
              0,
              0
            ],
            "sum_hessian": [
              5211,
              1453,
              3758,
              1845,
              1913
            ],
            "tree_param": {
              "num_deleted": "0",
              "num_feature": "2400",
              "num_nodes": "5",
              "size_leaf_vector": "1"
            }
          },
          {
            "base_weights": [
              -0.000013168268,
              -0.0021631452,
              0.00047854657
            ],
            "categories": [],
            "categories_nodes": [],
            "categories_segments": [],
            "categories_sizes": [],
            "default_left": [
              0,
              0,
              0
            ],
            "id": 24,
            "left_children": [
              1,
              -1,
              -1
            ],
            "loss_changes": [
              2.166227,
              0,
              0
            ],
            "parents": [
              2147483647,
              0,
              0
            ],
            "right_children": [
              2,
              -1,
              -1
            ],
            "split_conditions": [
              1,
              -0.0021631452,
              0.00047854657
            ],
            "split_indices": [
              18,
              0,
              0
            ],
            "split_type": [
              0,
              0,
              0
            ],
            "sum_hessian": [
              5222,
              946,
              4276
            ],
            "tree_param": {
              "num_deleted": "0",
              "num_feature": "2400",
              "num_nodes": "3",
              "size_leaf_vector": "1"
            }
          },
          {
            "base_weights": [
              0.000052685147,
              -0.0020390425,
              0.000454268
            ],
            "categories": [],
            "categories_nodes": [],
            "categories_segments": [],
            "categories_sizes": [],
            "default_left": [
              0,
              0,
              0
            ],
            "id": 25,
            "left_children": [
              1,
              -1,
              -1
            ],
            "loss_changes": [
              1.924221,
              0,
              0
            ],
            "parents": [
              2147483647,
              0,
              0
            ],
            "right_children": [
              2,
              -1,
              -1
            ],
            "split_conditions": [
              1,
              -0.0020390425,
              0.000454268
            ],
            "split_indices": [
              18,
              0,
              0
            ],
            "split_type": [
              0,
              0,
              0
            ],
            "sum_hessian": [
              5213,
              943,
              4.27E+3
            ],
            "tree_param": {
              "num_deleted": "0",
              "num_feature": "2400",
              "num_nodes": "3",
              "size_leaf_vector": "1"
            }
          },
          {
            "base_weights": [
              0.0002780485,
              -0.0014539534,
              0.011509987,
              0.0014100312,
              -0.00026406505
            ],
            "categories": [],
            "categories_nodes": [],
            "categories_segments": [],
            "categories_sizes": [],
            "default_left": [
              0,
              0,
              0,
              0,
              0
            ],
            "id": 26,
            "left_children": [
              1,
              -1,
              3,
              -1,
              -1
            ],
            "loss_changes": [
              1.7242064,
              0,
              1.060231,
              0,
              0
            ],
            "parents": [
              2147483647,
              0,
              0,
              2,
              2
            ],
            "right_children": [
              2,
              -1,
              4,
              -1,
              -1
            ],
            "split_conditions": [
              1,
              -0.0014539534,
              1,
              0.0014100312,
              -0.00026406505
            ],
            "split_indices": [
              58,
              0,
              192,
              0,
              0
            ],
            "split_type": [
              0,
              0,
              0,
              0,
              0
            ],
            "sum_hessian": [
              5225,
              1445,
              3.78E+3,
              1895,
              1885
            ],
            "tree_param": {
              "num_deleted": "0",
              "num_feature": "2400",
              "num_nodes": "5",
              "size_leaf_vector": "1"
            }
          },
          {
            "base_weights": [
              -0.00048822034,
              -0.0014717069,
              0.00053107546
            ],
            "categories": [],
            "categories_nodes": [],
            "categories_segments": [],
            "categories_sizes": [],
            "default_left": [
              0,
              0,
              0
            ],
            "id": 27,
            "left_children": [
              1,
              -1,
              -1
            ],
            "loss_changes": [
              1.6812092,
              0,
              0
            ],
            "parents": [
              2147483647,
              0,
              0
            ],
            "right_children": [
              2,
              -1,
              -1
            ],
            "split_conditions": [
              1,
              -0.0014717069,
              0.00053107546
            ],
            "split_indices": [
              58,
              0,
              0
            ],
            "split_type": [
              0,
              0,
              0
            ],
            "sum_hessian": [
              5224,
              1448,
              3776
            ],
            "tree_param": {
              "num_deleted": "0",
              "num_feature": "2400",
              "num_nodes": "3",
              "size_leaf_vector": "1"
            }
          },
          {
            "base_weights": [
              0.000052153722,
              -0.05473394,
              0.00027284154,
              -0.0011947792,
              -0.0064832205
            ],
            "categories": [],
            "categories_nodes": [],
            "categories_segments": [],
            "categories_sizes": [],
            "default_left": [
              0,
              0,
              0,
              0,
              0
            ],
            "id": 28,
            "left_children": [
              1,
              3,
              -1,
              -1,
              -1
            ],
            "loss_changes": [
              1.5432842,
              1.0752262,
              0,
              0,
              0
            ],
            "parents": [
              2147483647,
              0,
              0,
              1,
              1
            ],
            "right_children": [
              2,
              4,
              -1,
              -1,
              -1
            ],
            "split_conditions": [
              1,
              1,
              0.00027284154,
              -0.0011947792,
              -0.0064832205
            ],
            "split_indices": [
              8,
              4,
              0,
              0,
              0
            ],
            "split_type": [
              0,
              0,
              0,
              0,
              0
            ],
            "sum_hessian": [
              5208,
              466,
              4742,
              332,
              134
            ],
            "tree_param": {
              "num_deleted": "0",
              "num_feature": "2400",
              "num_nodes": "5",
              "size_leaf_vector": "1"
            }
          },
          {
            "base_weights": [
              -0.0000020872853,
              -0.002610302,
              0.00025595937
            ],
            "categories": [],
            "categories_nodes": [],
            "categories_segments": [],
            "categories_sizes": [],
            "default_left": [
              0,
              0,
              0
            ],
            "id": 29,
            "left_children": [
              1,
              -1,
              -1
            ],
            "loss_changes": [
              1.3915607,
              0,
              0
            ],
            "parents": [
              2147483647,
              0,
              0
            ],
            "right_children": [
              2,
              -1,
              -1
            ],
            "split_conditions": [
              1,
              -0.002610302,
              0.00025595937
            ],
            "split_indices": [
              8,
              0,
              0
            ],
            "split_type": [
              0,
              0,
              0
            ],
            "sum_hessian": [
              5201,
              463,
              4738
            ],
            "tree_param": {
              "num_deleted": "0",
              "num_feature": "2400",
              "num_nodes": "3",
              "size_leaf_vector": "1"
            }
          },
          {
            "base_weights": [
              0.00051391305,
              -0.001338919,
              0.00048043803
            ],
            "categories": [],
            "categories_nodes": [],
            "categories_segments": [],
            "categories_sizes": [],
            "default_left": [
              0,
              0,
              0
            ],
            "id": 30,
            "left_children": [
              1,
              -1,
              -1
            ],
            "loss_changes": [
              1.2969637,
              0,
              0
            ],
            "parents": [
              2147483647,
              0,
              0
            ],
            "right_children": [
              2,
              -1,
              -1
            ],
            "split_conditions": [
              734,
              -0.001338919,
              0.00048043803
            ],
            "split_indices": [
              39,
              0,
              0
            ],
            "split_type": [
              0,
              0,
              0
            ],
            "sum_hessian": [
              5221,
              1304,
              3917
            ],
            "tree_param": {
              "num_deleted": "0",
              "num_feature": "2400",
              "num_nodes": "3",
              "size_leaf_vector": "1"
            }
          },
          {
            "base_weights": [
              0.000082503466,
              -0.0012097587,
              0.0004625172
            ],
            "categories": [],
            "categories_nodes": [],
            "categories_segments": [],
            "categories_sizes": [],
            "default_left": [
              0,
              0,
              0
            ],
            "id": 31,
            "left_children": [
              1,
              -1,
              -1
            ],
            "loss_changes": [
              1.1676251,
              0,
              0
            ],
            "parents": [
              2147483647,
              0,
              0
            ],
            "right_children": [
              2,
              -1,
              -1
            ],
            "split_conditions": [
              1,
              -0.0012097587,
              0.0004625172
            ],
            "split_indices": [
              58,
              0,
              0
            ],
            "split_type": [
              0,
              0,
              0
            ],
            "sum_hessian": [
              5242,
              1436,
              3806
            ],
            "tree_param": {
              "num_deleted": "0",
              "num_feature": "2400",
              "num_nodes": "3",
              "size_leaf_vector": "1"
            }
          },
          {
            "base_weights": [
              -0.00005533429,
              -0.0024776491,
              0.00024341876
            ],
            "categories": [],
            "categories_nodes": [],
            "categories_segments": [],
            "categories_sizes": [],
            "default_left": [
              0,
              0,
              0
            ],
            "id": 32,
            "left_children": [
              1,
              -1,
              -1
            ],
            "loss_changes": [
              1.2714406,
              0,
              0
            ],
            "parents": [
              2147483647,
              0,
              0
            ],
            "right_children": [
              2,
              -1,
              -1
            ],
            "split_conditions": [
              1,
              -0.0024776491,
              0.00024341876
            ],
            "split_indices": [
              8,
              0,
              0
            ],
            "split_type": [
              0,
              0,
              0
            ],
            "sum_hessian": [
              5213,
              4.7E+2,
              4743
            ],
            "tree_param": {
              "num_deleted": "0",
              "num_feature": "2400",
              "num_nodes": "3",
              "size_leaf_vector": "1"
            }
          },
          {
            "base_weights": [
              0.00008836124,
              -0.0022343774,
              0.00022707442
            ],
            "categories": [],
            "categories_nodes": [],
            "categories_segments": [],
            "categories_sizes": [],
            "default_left": [
              0,
              0,
              0
            ],
            "id": 33,
            "left_children": [
              1,
              -1,
              -1
            ],
            "loss_changes": [
              1.0448254,
              0,
              0
            ],
            "parents": [
              2147483647,
              0,
              0
            ],
            "right_children": [
              2,
              -1,
              -1
            ],
            "split_conditions": [
              1,
              -0.0022343774,
              0.00022707442
            ],
            "split_indices": [
              8,
              0,
              0
            ],
            "split_type": [
              0,
              0,
              0
            ],
            "sum_hessian": [
              5236,
              472,
              4764
            ],
            "tree_param": {
              "num_deleted": "0",
              "num_feature": "2400",
              "num_nodes": "3",
              "size_leaf_vector": "1"
            }
          },
          {
            "base_weights": [
              0.000072494724
            ],
            "categories": [],
            "categories_nodes": [],
            "categories_segments": [],
            "categories_sizes": [],
            "default_left": [
              0
            ],
            "id": 34,
            "left_children": [
              -1
            ],
            "loss_changes": [
              0
            ],
            "parents": [
              2147483647
            ],
            "right_children": [
              -1
            ],
            "split_conditions": [
              0.0000036247363
            ],
            "split_indices": [
              0
            ],
            "split_type": [
              0
            ],
            "sum_hessian": [
              5216
            ],
            "tree_param": {
              "num_deleted": "0",
              "num_feature": "2400",
              "num_nodes": "1",
              "size_leaf_vector": "1"
            }
          },
          {
            "base_weights": [
              -0.000114258604,
              -0.029779213,
              0.00031715256,
              -0.00087404106,
              -0.0060712597
            ],
            "categories": [],
            "categories_nodes": [],
            "categories_segments": [],
            "categories_sizes": [],
            "default_left": [
              0,
              0,
              0,
              0,
              0
            ],
            "id": 35,
            "left_children": [
              1,
              3,
              -1,
              -1,
              -1
            ],
            "loss_changes": [
              1.0083444,
              1.0563542,
              0,
              0,
              0
            ],
            "parents": [
              2147483647,
              0,
              0,
              1,
              1
            ],
            "right_children": [
              2,
              4,
              -1,
              -1,
              -1
            ],
            "split_conditions": [
              1,
              1,
              0.00031715256,
              -0.00087404106,
              -0.0060712597
            ],
            "split_indices": [
              18,
              16,
              0,
              0,
              0
            ],
            "split_type": [
              0,
              0,
              0,
              0,
              0
            ],
            "sum_hessian": [
              5.26E+3,
              939,
              4321,
              8.3E+2,
              109
            ],
            "tree_param": {
              "num_deleted": "0",
              "num_feature": "2400",
              "num_nodes": "5",
              "size_leaf_vector": "1"
            }
          },
          {
            "base_weights": [
              0.00029887896
            ],
            "categories": [],
            "categories_nodes": [],
            "categories_segments": [],
            "categories_sizes": [],
            "default_left": [
              0
            ],
            "id": 36,
            "left_children": [
              -1
            ],
            "loss_changes": [
              0
            ],
            "parents": [
              2147483647
            ],
            "right_children": [
              -1
            ],
            "split_conditions": [
              0.000014943948
            ],
            "split_indices": [
              0
            ],
            "split_type": [
              0
            ],
            "sum_hessian": [
              5213
            ],
            "tree_param": {
              "num_deleted": "0",
              "num_feature": "2400",
              "num_nodes": "1",
              "size_leaf_vector": "1"
            }
          },
          {
            "base_weights": [
              0.000056281966
            ],
            "categories": [],
            "categories_nodes": [],
            "categories_segments": [],
            "categories_sizes": [],
            "default_left": [
              0
            ],
            "id": 37,
            "left_children": [
              -1
            ],
            "loss_changes": [
              0
            ],
            "parents": [
              2147483647
            ],
            "right_children": [
              -1
            ],
            "split_conditions": [
              0.0000028140983
            ],
            "split_indices": [
              0
            ],
            "split_type": [
              0
            ],
            "sum_hessian": [
              5185
            ],
            "tree_param": {
              "num_deleted": "0",
              "num_feature": "2400",
              "num_nodes": "1",
              "size_leaf_vector": "1"
            }
          },
          {
            "base_weights": [
              -0.00014148276
            ],
            "categories": [],
            "categories_nodes": [],
            "categories_segments": [],
            "categories_sizes": [],
            "default_left": [
              0
            ],
            "id": 38,
            "left_children": [
              -1
            ],
            "loss_changes": [
              0
            ],
            "parents": [
              2147483647
            ],
            "right_children": [
              -1
            ],
            "split_conditions": [
              -0.000007074138
            ],
            "split_indices": [
              0
            ],
            "split_type": [
              0
            ],
            "sum_hessian": [
              5214
            ],
            "tree_param": {
              "num_deleted": "0",
              "num_feature": "2400",
              "num_nodes": "1",
              "size_leaf_vector": "1"
            }
          },
          {
            "base_weights": [
              0.000004959035
            ],
            "categories": [],
            "categories_nodes": [],
            "categories_segments": [],
            "categories_sizes": [],
            "default_left": [
              0
            ],
            "id": 39,
            "left_children": [
              -1
            ],
            "loss_changes": [
              0
            ],
            "parents": [
              2147483647
            ],
            "right_children": [
              -1
            ],
            "split_conditions": [
              2.4795176E-7
            ],
            "split_indices": [
              0
            ],
            "split_type": [
              0
            ],
            "sum_hessian": [
              5164
            ],
            "tree_param": {
              "num_deleted": "0",
              "num_feature": "2400",
              "num_nodes": "1",
              "size_leaf_vector": "1"
            }
          },
          {
            "base_weights": [
              -0.000034323042
            ],
            "categories": [],
            "categories_nodes": [],
            "categories_segments": [],
            "categories_sizes": [],
            "default_left": [
              0
            ],
            "id": 40,
            "left_children": [
              -1
            ],
            "loss_changes": [
              0
            ],
            "parents": [
              2147483647
            ],
            "right_children": [
              -1
            ],
            "split_conditions": [
              -0.0000017161522
            ],
            "split_indices": [
              0
            ],
            "split_type": [
              0
            ],
            "sum_hessian": [
              5233
            ],
            "tree_param": {
              "num_deleted": "0",
              "num_feature": "2400",
              "num_nodes": "1",
              "size_leaf_vector": "1"
            }
          },
          {
            "base_weights": [
              -0.00006527809
            ],
            "categories": [],
            "categories_nodes": [],
