{
  "learner": {
    "attributes": {
      "scikit_learn": "{\"_estimator_type\": \"regressor\"}"
    },
    "feature_names": [],
    "feature_types": [],
    "gradient_booster": {
      "model": {
        "cats": {
          "enc": [],
          "feature_segments": [],
          "sorted_idx": []
        },
        "gbtree_model_param": {
          "num_parallel_tree": "1",
          "num_trees": "800"
        },
        "iteration_indptr": [
          0,
          1,
          2,
          3,
          4,
          5,
          6,
          7,
          8,
          9,
          10,
          11,
          12,
          13,
          14,
          15,
          16,
          17,
          18,
          19,
          20,
          21,
          22,
          23,
          24,
          25,
          26,
          27,
          28,
          29,
          30,
          31,
          32,
          33,
          34,
          35,
          36,
          37,
          38,
          39,
          40,
          41,
          42,
          43,
          44,
          45,
          46,
          47,
          48,
          49,
          50,
          51,
          52,
          53,
          54,
          55,
          56,
          57,
          58,
          59,
          60,
          61,
          62,
          63,
          64,
          65,
          66,
          67,
          68,
          69,
          70,
          71,
          72,
          73,
          74,
          75,
          76,
          77,
          78,
          79,
          80,
          81,
          82,
          83,
          84,
          85,
          86,
          87,
          88,
          89,
          90,
          91,
          92,
          93,
          94,
          95,
          96,
          97,
          98,
          99,
          100,
          101,
          102,
          103,
          104,
          105,
          106,
          107,
          108,
          109,
          110,
          111,
          112,
          113,
          114,
          115,
          116,
          117,
          118,
          119,
          120,
          121,
          122,
          123,
          124,
          125,
          126,
          127,
          128,
          129,
          130,
          131,
          132,
          133,
          134,
          135,
          136,
          137,
          138,
          139,
          140,
          141,
          142,
          143,
          144,
          145,
          146,
          147,
          148,
          149,
          150,
          151,
          152,
          153,
          154,
          155,
          156,
          157,
          158,
          159,
          160,
          161,
          162,
          163,
          164,
          165,
          166,
          167,
          168,
          169,
          170,
          171,
          172,
          173,
          174,
          175,
          176,
          177,
          178,
          179,
          180,
          181,
          182,
          183,
          184,
          185,
          186,
          187,
          188,
          189,
          190,
          191,
          192,
          193,
          194,
          195,
          196,
          197,
          198,
          199,
          200,
          201,
          202,
          203,
          204,
          205,
          206,
          207,
          208,
          209,
          210,
          211,
          212,
          213,
          214,
          215,
          216,
          217,
          218,
          219,
          220,
          221,
          222,
          223,
          224,
          225,
          226,
          227,
          228,
          229,
          230,
          231,
          232,
          233,
          234,
          235,
          236,
          237,
          238,
          239,
          240,
          241,
          242,
          243,
          244,
          245,
          246,
          247,
          248,
          249,
          250,
          251,
          252,
          253,
          254,
          255,
          256,
          257,
          258,
          259,
          260,
          261,
          262,
          263,
          264,
          265,
          266,
          267,
          268,
          269,
          270,
          271,
          272,
          273,
          274,
          275,
          276,
          277,
          278,
          279,
          280,
          281,
          282,
          283,
          284,
          285,
          286,
          287,
          288,
          289,
          290,
          291,
          292,
          293,
          294,
          295,
          296,
          297,
          298,
          299,
          300,
          301,
          302,
          303,
          304,
          305,
          306,
          307,
          308,
          309,
          310,
          311,
          312,
          313,
          314,
          315,
          316,
          317,
          318,
          319,
          320,
          321,
          322,
          323,
          324,
          325,
          326,
          327,
          328,
          329,
          330,
          331,
          332,
          333,
          334,
          335,
          336,
          337,
          338,
          339,
          340,
          341,
          342,
          343,
          344,
          345,
          346,
          347,
          348,
          349,
          350,
          351,
          352,
          353,
          354,
          355,
          356,
          357,
          358,
          359,
          360,
          361,
          362,
          363,
          364,
          365,
          366,
          367,
          368,
          369,
          370,
          371,
          372,
          373,
          374,
          375,
          376,
          377,
          378,
          379,
          380,
          381,
          382,
          383,
          384,
          385,
          386,
          387,
          388,
          389,
          390,
          391,
          392,
          393,
          394,
          395,
          396,
          397,
          398,
          399,
          400,
          401,
          402,
          403,
          404,
          405,
          406,
          407,
          408,
          409,
          410,
          411,
          412,
          413,
          414,
          415,
          416,
          417,
          418,
          419,
          420,
          421,
          422,
          423,
          424,
          425,
          426,
          427,
          428,
          429,
          430,
          431,
          432,
          433,
          434,
          435,
          436,
          437,
          438,
          439,
          440,
          441,
          442,
          443,
          444,
          445,
          446,
          447,
          448,
          449,
          450,
          451,
          452,
          453,
          454,
          455,
          456,
          457,
          458,
          459,
          460,
          461,
          462,
          463,
          464,
          465,
          466,
          467,
          468,
          469,
          470,
          471,
          472,
          473,
          474,
          475,
          476,
          477,
          478,
          479,
          480,
          481,
          482,
          483,
          484,
          485,
          486,
          487,
          488,
          489,
          490,
          491,
          492,
          493,
          494,
          495,
          496,
          497,
          498,
          499,
          500,
          501,
          502,
          503,
          504,
          505,
          506,
          507,
          508,
          509,
          510,
          511,
          512,
          513,
          514,
          515,
          516,
          517,
          518,
          519,
          520,
          521,
          522,
          523,
          524,
          525,
          526,
          527,
          528,
          529,
          530,
          531,
          532,
          533,
          534,
          535,
          536,
          537,
          538,
          539,
          540,
          541,
          542,
          543,
          544,
          545,
          546,
          547,
          548,
          549,
          550,
          551,
          552,
          553,
          554,
          555,
          556,
          557,
          558,
          559,
          560,
          561,
          562,
          563,
          564,
          565,
          566,
          567,
          568,
          569,
          570,
          571,
          572,
          573,
          574,
          575,
          576,
          577,
          578,
          579,
          580,
          581,
          582,
          583,
          584,
          585,
          586,
          587,
          588,
          589,
          590,
          591,
          592,
          593,
          594,
          595,
          596,
          597,
          598,
          599,
          600,
          601,
          602,
          603,
          604,
          605,
          606,
          607,
          608,
          609,
          610,
          611,
          612,
          613,
          614,
          615,
          616,
          617,
          618,
          619,
          620,
          621,
          622,
          623,
          624,
          625,
          626,
          627,
          628,
          629,
          630,
          631,
          632,
          633,
          634,
          635,
          636,
          637,
          638,
          639,
          640,
          641,
          642,
          643,
          644,
          645,
          646,
          647,
          648,
          649,
          650,
          651,
          652,
          653,
          654,
          655,
          656,
          657,
          658,
          659,
          660,
          661,
          662,
          663,
          664,
          665,
          666,
          667,
          668,
          669,
          670,
          671,
          672,
          673,
          674,
          675,
          676,
          677,
          678,
          679,
          680,
          681,
          682,
          683,
          684,
          685,
          686,
          687,
          688,
          689,
          690,
          691,
          692,
          693,
          694,
          695,
          696,
          697,
          698,
          699,
          700,
          701,
          702,
          703,
          704,
          705,
          706,
          707,
          708,
          709,
          710,
          711,
          712,
          713,
          714,
          715,
          716,
          717,
          718,
          719,
          720,
          721,
          722,
          723,
          724,
          725,
          726,
          727,
          728,
          729,
          730,
          731,
          732,
          733,
          734,
          735,
          736,
          737,
          738,
          739,
          740,
          741,
          742,
          743,
          744,
          745,
          746,
          747,
          748,
          749,
          750,
          751,
          752,
          753,
          754,
          755,
          756,
          757,
          758,
          759,
          760,
          761,
          762,
          763,
          764,
          765,
          766,
          767,
          768,
          769,
          770,
          771,
          772,
          773,
          774,
          775,
          776,
          777,
          778,
          779,
          780,
          781,
          782,
          783,
          784,
          785,
          786,
          787,
          788,
          789,
          790,
          791,
          792,
          793,
          794,
          795,
          796,
          797,
          798,
          799,
          800
        ],
        "tree_info": [
          0,
          0,
          0,
          0,
          0,
          0,
          0,
          0,
          0,
          0,
          0,
          0,
          0,
          0,
          0,
          0,
          0,
          0,
          0,
          0,
          0,
          0,
          0,
          0,
          0,
          0,
          0,
          0,
          0,
          0,
          0,
          0,
          0,
          0,
          0,
          0,
          0,
          0,
          0,
          0,
          0,
          0,
          0,
          0,
          0,
          0,
          0,
          0,
          0,
          0,
          0,
          0,
          0,
          0,
          0,
          0,
          0,
          0,
          0,
          0,
          0,
          0,
          0,
          0,
          0,
          0,
          0,
          0,
          0,
          0,
          0,
          0,
          0,
          0,
          0,
          0,
          0,
          0,
          0,
          0,
          0,
          0,
          0,
          0,
          0,
          0,
          0,
          0,
          0,
          0,
          0,
          0,
          0,
          0,
          0,
          0,
          0,
          0,
          0,
          0,
          0,
          0,
          0,
          0,
          0,
          0,
          0,
          0,
          0,
          0,
          0,
          0,
          0,
          0,
          0,
          0,
          0,
          0,
          0,
          0,
          0,
          0,
          0,
          0,
          0,
          0,
          0,
          0,
          0,
          0,
          0,
          0,
          0,
          0,
          0,
          0,
          0,
          0,
          0,
          0,
          0,
          0,
          0,
          0,
          0,
          0,
          0,
          0,
          0,
          0,
          0,
          0,
          0,
          0,
          0,
          0,
          0,
          0,
          0,
          0,
          0,
          0,
          0,
          0,
          0,
          0,
          0,
          0,
          0,
          0,
          0,
          0,
          0,
          0,
          0,
          0,
          0,
          0,
          0,
          0,
          0,
          0,
          0,
          0,
          0,
          0,
          0,
          0,
          0,
          0,
          0,
          0,
          0,
          0,
          0,
          0,
          0,
          0,
          0,
          0,
          0,
          0,
          0,
          0,
          0,
          0,
          0,
          0,
          0,
          0,
          0,
          0,
          0,
          0,
          0,
          0,
          0,
          0,
          0,
          0,
          0,
          0,
          0,
          0,
          0,
          0,
          0,
          0,
          0,
          0,
          0,
          0,
          0,
          0,
          0,
          0,
          0,
          0,
          0,
          0,
          0,
          0,
          0,
          0,
          0,
          0,
          0,
          0,
          0,
          0,
          0,
          0,
          0,
          0,
          0,
          0,
          0,
          0,
          0,
          0,
          0,
          0,
          0,
          0,
          0,
          0,
          0,
          0,
          0,
          0,
          0,
          0,
          0,
          0,
          0,
          0,
          0,
          0,
          0,
          0,
          0,
          0,
          0,
          0,
          0,
          0,
          0,
          0,
          0,
          0,
          0,
          0,
          0,
          0,
          0,
          0,
          0,
          0,
          0,
          0,
          0,
          0,
          0,
          0,
          0,
          0,
          0,
          0,
          0,
          0,
          0,
          0,
          0,
          0,
          0,
          0,
          0,
          0,
          0,
          0,
          0,
          0,
          0,
          0,
          0,
          0,
          0,
          0,
          0,
          0,
          0,
          0,
          0,
          0,
          0,
          0,
          0,
          0,
          0,
          0,
          0,
          0,
          0,
          0,
          0,
          0,
          0,
          0,
          0,
          0,
          0,
          0,
          0,
          0,
          0,
          0,
          0,
          0,
          0,
          0,
          0,
          0,
          0,
          0,
          0,
          0,
          0,
          0,
          0,
          0,
          0,
          0,
          0,
          0,
          0,
          0,
          0,
          0,
          0,
          0,
          0,
          0,
          0,
          0,
          0,
          0,
          0,
          0,
          0,
          0,
          0,
          0,
          0,
          0,
          0,
          0,
          0,
          0,
          0,
          0,
          0,
          0,
          0,
          0,
          0,
          0,
          0,
          0,
          0,
          0,
          0,
          0,
          0,
          0,
          0,
          0,
          0,
          0,
          0,
          0,
          0,
          0,
          0,
          0,
          0,
          0,
          0,
          0,
          0,
          0,
          0,
          0,
          0,
          0,
          0,
          0,
          0,
          0,
          0,
          0,
          0,
          0,
          0,
          0,
          0,
          0,
          0,
          0,
          0,
          0,
          0,
          0,
          0,
          0,
          0,
          0,
          0,
          0,
          0,
          0,
          0,
          0,
          0,
          0,
          0,
          0,
          0,
          0,
          0,
          0,
          0,
          0,
          0,
          0,
          0,
          0,
          0,
          0,
          0,
          0,
          0,
          0,
          0,
          0,
          0,
          0,
          0,
          0,
          0,
          0,
          0,
          0,
          0,
          0,
          0,
          0,
          0,
          0,
          0,
          0,
          0,
          0,
          0,
          0,
          0,
          0,
          0,
          0,
          0,
          0,
          0,
          0,
          0,
          0,
          0,
          0,
          0,
          0,
          0,
          0,
          0,
          0,
          0,
          0,
          0,
          0,
          0,
          0,
          0,
          0,
          0,
          0,
          0,
          0,
          0,
          0,
          0,
          0,
          0,
          0,
          0,
          0,
          0,
          0,
          0,
          0,
          0,
          0,
          0,
          0,
          0,
          0,
          0,
          0,
          0,
          0,
          0,
          0,
          0,
          0,
          0,
          0,
          0,
          0,
          0,
          0,
          0,
          0,
          0,
          0,
          0,
          0,
          0,
          0,
          0,
          0,
          0,
          0,
          0,
          0,
          0,
          0,
          0,
          0,
          0,
          0,
          0,
          0,
          0,
          0,
          0,
          0,
          0,
          0,
          0,
          0,
          0,
          0,
          0,
          0,
          0,
          0,
          0,
          0,
          0,
          0,
          0,
          0,
          0,
          0,
          0,
          0,
          0,
          0,
          0,
          0,
          0,
          0,
          0,
          0,
          0,
          0,
          0,
          0,
          0,
          0,
          0,
          0,
          0,
          0,
          0,
          0,
          0,
          0,
          0,
          0,
          0,
          0,
          0,
          0,
          0,
          0,
          0,
          0,
          0,
          0,
          0,
          0,
          0,
          0,
          0,
          0,
          0,
          0,
          0,
          0,
          0,
          0,
          0,
          0,
          0,
          0,
          0,
          0,
          0,
          0,
          0,
          0,
          0,
          0,
          0,
          0,
          0,
          0,
          0,
          0,
          0,
          0,
          0,
          0,
          0,
          0,
          0,
          0,
          0,
          0,
          0,
          0,
          0,
          0,
          0,
          0,
          0,
          0,
          0,
          0,
          0,
          0,
          0,
          0,
          0,
          0,
          0,
          0,
          0,
          0,
          0,
          0,
          0,
          0,
          0,
          0,
          0,
          0,
          0,
          0,
          0,
          0,
          0,
          0,
          0,
          0,
          0,
          0,
          0,
          0,
          0,
          0,
          0,
          0,
          0,
          0,
          0,
          0,
          0,
          0,
          0,
          0,
          0,
          0,
          0,
          0,
          0,
          0,
          0,
          0,
          0,
          0,
          0,
          0,
          0,
          0,
          0,
          0,
          0,
          0,
          0,
          0,
          0,
          0,
          0,
          0,
          0,
          0,
          0,
          0,
          0,
          0,
          0,
          0,
          0,
          0,
          0,
          0,
          0,
          0,
          0,
          0,
          0,
          0,
          0,
          0,
          0,
          0,
          0,
          0,
          0,
          0,
          0,
          0,
          0,
          0,
          0,
          0,
          0,
          0,
          0,
          0,
          0,
          0
        ],
        "trees": [
          {
            "base_weights": [
              -0.00082203775
            ],
            "categories": [],
            "categories_nodes": [],
            "categories_segments": [],
            "categories_sizes": [],
            "default_left": [
              0
            ],
            "id": 0,
            "left_children": [
              -1
            ],
            "loss_changes": [
              0
            ],
            "parents": [
              2147483647
            ],
            "right_children": [
              -1
            ],
            "split_conditions": [
              -0.00004110189
            ],
            "split_indices": [
              0
            ],
            "split_type": [
              0
            ],
            "sum_hessian": [
              99
            ],
            "tree_param": {
              "num_deleted": "0",
              "num_feature": "78",
              "num_nodes": "1",
              "size_leaf_vector": "1"
            }
          },
          {
            "base_weights": [
              0.00039452658
            ],
            "categories": [],
            "categories_nodes": [],
            "categories_segments": [],
            "categories_sizes": [],
            "default_left": [
              0
            ],
            "id": 1,
            "left_children": [
              -1
            ],
            "loss_changes": [
              0
            ],
            "parents": [
              2147483647
            ],
            "right_children": [
              -1
            ],
            "split_conditions": [
              0.000019726329
            ],
            "split_indices": [
              0
            ],
            "split_type": [
              0
            ],
            "sum_hessian": [
              102
            ],
            "tree_param": {
              "num_deleted": "0",
              "num_feature": "78",
              "num_nodes": "1",
              "size_leaf_vector": "1"
            }
          },
          {
            "base_weights": [
              -0.00070803694
            ],
            "categories": [],
            "categories_nodes": [],
            "categories_segments": [],
            "categories_sizes": [],
            "default_left": [
              0
            ],
            "id": 2,
            "left_children": [
              -1
            ],
            "loss_changes": [
              0
            ],
            "parents": [
              2147483647
            ],
            "right_children": [
              -1
            ],
            "split_conditions": [
              -0.00003540185
            ],
            "split_indices": [
              0
            ],
            "split_type": [
              0
            ],
            "sum_hessian": [
              97
            ],
            "tree_param": {
              "num_deleted": "0",
              "num_feature": "78",
              "num_nodes": "1",
              "size_leaf_vector": "1"
            }
          },
          {
            "base_weights": [
              0.00035386457
            ],
            "categories": [],
            "categories_nodes": [],
            "categories_segments": [],
            "categories_sizes": [],
            "default_left": [
              0
            ],
            "id": 3,
            "left_children": [
              -1
            ],
            "loss_changes": [
              0
            ],
            "parents": [
              2147483647
            ],
            "right_children": [
              -1
            ],
            "split_conditions": [
              0.000017693228
            ],
            "split_indices": [
              0
            ],
            "split_type": [
              0
            ],
            "sum_hessian": [
              107
            ],
            "tree_param": {
              "num_deleted": "0",
              "num_feature": "78",
              "num_nodes": "1",
              "size_leaf_vector": "1"
            }
          },
          {
            "base_weights": [
              0.0009776066
            ],
            "categories": [],
            "categories_nodes": [],
            "categories_segments": [],
            "categories_sizes": [],
            "default_left": [
              0
            ],
            "id": 4,
            "left_children": [
              -1
            ],
            "loss_changes": [
              0
            ],
            "parents": [
              2147483647
            ],
            "right_children": [
              -1
            ],
            "split_conditions": [
              0.00004888033
            ],
            "split_indices": [
              0
            ],
            "split_type": [
              0
            ],
            "sum_hessian": [
              106
            ],
            "tree_param": {
              "num_deleted": "0",
              "num_feature": "78",
              "num_nodes": "1",
              "size_leaf_vector": "1"
            }
          },
          {
            "base_weights": [
              0.0019658422
            ],
            "categories": [],
            "categories_nodes": [],
            "categories_segments": [],
            "categories_sizes": [],
            "default_left": [
              0
            ],
            "id": 5,
            "left_children": [
              -1
            ],
            "loss_changes": [
              0
            ],
            "parents": [
              2147483647
            ],
            "right_children": [
              -1
            ],
            "split_conditions": [
              0.00009829211
            ],
            "split_indices": [
              0
            ],
            "split_type": [
              0
            ],
            "sum_hessian": [
              101
            ],
            "tree_param": {
              "num_deleted": "0",
              "num_feature": "78",
              "num_nodes": "1",
              "size_leaf_vector": "1"
            }
          },
          {
            "base_weights": [
              -0.0005420654
            ],
            "categories": [],
            "categories_nodes": [],
            "categories_segments": [],
            "categories_sizes": [],
            "default_left": [
              0
            ],
            "id": 6,
            "left_children": [
              -1
            ],
            "loss_changes": [
              0
            ],
            "parents": [
              2147483647
            ],
            "right_children": [
              -1
            ],
            "split_conditions": [
              -0.000027103271
            ],
            "split_indices": [
              0
            ],
            "split_type": [
              0
            ],
            "sum_hessian": [
              107
            ],
            "tree_param": {
              "num_deleted": "0",
              "num_feature": "78",
              "num_nodes": "1",
              "size_leaf_vector": "1"
            }
          },
          {
            "base_weights": [
              0.000007107854
            ],
            "categories": [],
            "categories_nodes": [],
            "categories_segments": [],
            "categories_sizes": [],
            "default_left": [
              0
            ],
            "id": 7,
            "left_children": [
              -1
            ],
            "loss_changes": [
              0
            ],
            "parents": [
              2147483647
            ],
            "right_children": [
              -1
            ],
            "split_conditions": [
              3.553927E-7
            ],
            "split_indices": [
              0
            ],
            "split_type": [
              0
            ],
            "sum_hessian": [
              102
            ],
            "tree_param": {
              "num_deleted": "0",
              "num_feature": "78",
              "num_nodes": "1",
              "size_leaf_vector": "1"
            }
          },
          {
            "base_weights": [
              -0.0002288616
            ],
            "categories": [],
            "categories_nodes": [],
            "categories_segments": [],
            "categories_sizes": [],
            "default_left": [
              0
            ],
            "id": 8,
            "left_children": [
              -1
            ],
            "loss_changes": [
              0
            ],
            "parents": [
              2147483647
            ],
            "right_children": [
              -1
            ],
            "split_conditions": [
              -0.0000114430795
            ],
            "split_indices": [
              0
            ],
            "split_type": [
              0
            ],
            "sum_hessian": [
              104
            ],
            "tree_param": {
              "num_deleted": "0",
              "num_feature": "78",
              "num_nodes": "1",
              "size_leaf_vector": "1"
            }
          },
          {
            "base_weights": [
              -0.00011243348
            ],
            "categories": [],
            "categories_nodes": [],
            "categories_segments": [],
            "categories_sizes": [],
            "default_left": [
              0
            ],
            "id": 9,
            "left_children": [
              -1
            ],
            "loss_changes": [
              0
            ],
            "parents": [
              2147483647
            ],
            "right_children": [
              -1
            ],
            "split_conditions": [
              -0.000005621674
            ],
            "split_indices": [
              0
            ],
            "split_type": [
              0
            ],
            "sum_hessian": [
              104
            ],
            "tree_param": {
              "num_deleted": "0",
              "num_feature": "78",
              "num_nodes": "1",
              "size_leaf_vector": "1"
            }
          },
          {
            "base_weights": [
              0.00021056549
            ],
            "categories": [],
            "categories_nodes": [],
            "categories_segments": [],
            "categories_sizes": [],
            "default_left": [
              0
            ],
            "id": 10,
            "left_children": [
              -1
            ],
            "loss_changes": [
              0
            ],
            "parents": [
              2147483647
            ],
            "right_children": [
              -1
            ],
            "split_conditions": [
              0.000010528274
            ],
            "split_indices": [
              0
            ],
            "split_type": [
              0
            ],
            "sum_hessian": [
              109
            ],
            "tree_param": {
              "num_deleted": "0",
              "num_feature": "78",
              "num_nodes": "1",
              "size_leaf_vector": "1"
            }
          },
          {
            "base_weights": [
              0.000069930866
            ],
            "categories": [],
            "categories_nodes": [],
            "categories_segments": [],
            "categories_sizes": [],
            "default_left": [
              0
            ],
            "id": 11,
            "left_children": [
              -1
            ],
            "loss_changes": [
              0
            ],
            "parents": [
              2147483647
            ],
            "right_children": [
              -1
            ],
            "split_conditions": [
              0.0000034965433
            ],
            "split_indices": [
              0
            ],
            "split_type": [
              0
            ],
            "sum_hessian": [
              104
            ],
            "tree_param": {
              "num_deleted": "0",
              "num_feature": "78",
              "num_nodes": "1",
              "size_leaf_vector": "1"
            }
          },
          {
            "base_weights": [
              0.0005717117
            ],
            "categories": [],
            "categories_nodes": [],
            "categories_segments": [],
            "categories_sizes": [],
            "default_left": [
              0
            ],
            "id": 12,
            "left_children": [
              -1
            ],
            "loss_changes": [
              0
            ],
            "parents": [
              2147483647
            ],
            "right_children": [
              -1
            ],
            "split_conditions": [
              0.000028585584
            ],
            "split_indices": [
              0
            ],
            "split_type": [
              0
            ],
            "sum_hessian": [
              102
            ],
            "tree_param": {
              "num_deleted": "0",
              "num_feature": "78",
              "num_nodes": "1",
              "size_leaf_vector": "1"
            }
          },
          {
            "base_weights": [
              -0.00019514449
            ],
            "categories": [],
            "categories_nodes": [],
            "categories_segments": [],
            "categories_sizes": [],
            "default_left": [
              0
            ],
            "id": 13,
            "left_children": [
              -1
            ],
            "loss_changes": [
              0
            ],
            "parents": [
              2147483647
            ],
            "right_children": [
              -1
            ],
            "split_conditions": [
              -0.000009757225
            ],
            "split_indices": [
              0
            ],
            "split_type": [
              0
            ],
            "sum_hessian": [
              104
            ],
            "tree_param": {
              "num_deleted": "0",
              "num_feature": "78",
              "num_nodes": "1",
              "size_leaf_vector": "1"
            }
          },
          {
            "base_weights": [
              -0.00046782786
            ],
            "categories": [],
            "categories_nodes": [],
            "categories_segments": [],
            "categories_sizes": [],
            "default_left": [
              0
            ],
            "id": 14,
            "left_children": [
              -1
            ],
            "loss_changes": [
              0
            ],
            "parents": [
              2147483647
            ],
            "right_children": [
              -1
            ],
            "split_conditions": [
              -0.000023391394
            ],
            "split_indices": [
              0
            ],
            "split_type": [
              0
            ],
            "sum_hessian": [
              104
            ],
            "tree_param": {
              "num_deleted": "0",
              "num_feature": "78",
              "num_nodes": "1",
              "size_leaf_vector": "1"
            }
          },
          {
            "base_weights": [
              0.0007251991
            ],
            "categories": [],
            "categories_nodes": [],
            "categories_segments": [],
            "categories_sizes": [],
            "default_left": [
              0
            ],
            "id": 15,
            "left_children": [
              -1
            ],
            "loss_changes": [
              0
            ],
            "parents": [
              2147483647
            ],
            "right_children": [
              -1
            ],
            "split_conditions": [
              0.000036259957
            ],
            "split_indices": [
              0
            ],
            "split_type": [
              0
            ],
            "sum_hessian": [
              105
            ],
            "tree_param": {
              "num_deleted": "0",
              "num_feature": "78",
              "num_nodes": "1",
              "size_leaf_vector": "1"
            }
          },
          {
            "base_weights": [
              0.00025800744
            ],
            "categories": [],
            "categories_nodes": [],
            "categories_segments": [],
            "categories_sizes": [],
            "default_left": [
              0
            ],
            "id": 16,
            "left_children": [
              -1
            ],
            "loss_changes": [
              0
            ],
            "parents": [
              2147483647
            ],
            "right_children": [
              -1
            ],
            "split_conditions": [
              0.000012900372
            ],
            "split_indices": [
              0
            ],
            "split_type": [
              0
            ],
            "sum_hessian": [
              97
            ],
            "tree_param": {
              "num_deleted": "0",
              "num_feature": "78",
              "num_nodes": "1",
              "size_leaf_vector": "1"
            }
          },
          {
            "base_weights": [
              0.00020971923
            ],
            "categories": [],
            "categories_nodes": [],
            "categories_segments": [],
            "categories_sizes": [],
            "default_left": [
              0
            ],
            "id": 17,
            "left_children": [
              -1
            ],
            "loss_changes": [
              0
            ],
            "parents": [
              2147483647
            ],
            "right_children": [
              -1
            ],
            "split_conditions": [
              0.000010485962
            ],
            "split_indices": [
              0
            ],
            "split_type": [
              0
            ],
            "sum_hessian": [
              101
            ],
            "tree_param": {
              "num_deleted": "0",
              "num_feature": "78",
              "num_nodes": "1",
              "size_leaf_vector": "1"
            }
          },
          {
            "base_weights": [
              -0.00012431425
            ],
            "categories": [],
            "categories_nodes": [],
            "categories_segments": [],
            "categories_sizes": [],
            "default_left": [
              0
            ],
            "id": 18,
            "left_children": [
              -1
            ],
            "loss_changes": [
              0
            ],
            "parents": [
              2147483647
            ],
            "right_children": [
              -1
            ],
            "split_conditions": [
              -0.0000062157123
            ],
            "split_indices": [
              0
            ],
            "split_type": [
              0
            ],
            "sum_hessian": [
              1E+2
            ],
            "tree_param": {
              "num_deleted": "0",
              "num_feature": "78",
              "num_nodes": "1",
              "size_leaf_vector": "1"
            }
          },
          {
            "base_weights": [
              0.0001360803
            ],
            "categories": [],
            "categories_nodes": [],
            "categories_segments": [],
            "categories_sizes": [],
            "default_left": [
              0
            ],
            "id": 19,
            "left_children": [
              -1
            ],
            "loss_changes": [
              0
            ],
            "parents": [
              2147483647
            ],
            "right_children": [
              -1
            ],
            "split_conditions": [
              0.000006804015
            ],
            "split_indices": [
              0
            ],
            "split_type": [
              0
            ],
            "sum_hessian": [
              101
            ],
            "tree_param": {
              "num_deleted": "0",
              "num_feature": "78",
              "num_nodes": "1",
              "size_leaf_vector": "1"
            }
          },
          {
            "base_weights": [
              0.00017711299
            ],
            "categories": [],
            "categories_nodes": [],
            "categories_segments": [],
            "categories_sizes": [],
            "default_left": [
              0
            ],
            "id": 20,
            "left_children": [
              -1
            ],
            "loss_changes": [
              0
            ],
            "parents": [
              2147483647
            ],
            "right_children": [
              -1
            ],
            "split_conditions": [
              0.00000885565
            ],
            "split_indices": [
              0
            ],
            "split_type": [
              0
            ],
            "sum_hessian": [
              106
            ],
            "tree_param": {
              "num_deleted": "0",
              "num_feature": "78",
              "num_nodes": "1",
              "size_leaf_vector": "1"
            }
          },
          {
            "base_weights": [
              -0.000043641954
            ],
            "categories": [],
            "categories_nodes": [],
            "categories_segments": [],
            "categories_sizes": [],
            "default_left": [
              0
            ],
            "id": 21,
            "left_children": [
              -1
            ],
            "loss_changes": [
              0
            ],
            "parents": [
              2147483647
            ],
            "right_children": [
              -1
            ],
            "split_conditions": [
              -0.0000021820977
            ],
            "split_indices": [
              0
            ],
            "split_type": [
              0
            ],
            "sum_hessian": [
              103
            ],
            "tree_param": {
              "num_deleted": "0",
              "num_feature": "78",
              "num_nodes": "1",
              "size_leaf_vector": "1"
            }
          },
          {
            "base_weights": [
              -0.0006291912
            ],
            "categories": [],
            "categories_nodes": [],
            "categories_segments": [],
            "categories_sizes": [],
            "default_left": [
              0
            ],
            "id": 22,
            "left_children": [
              -1
            ],
            "loss_changes": [
              0
            ],
            "parents": [
              2147483647
            ],
            "right_children": [
              -1
            ],
            "split_conditions": [
              -0.000031459564
            ],
            "split_indices": [
              0
            ],
            "split_type": [
              0
            ],
            "sum_hessian": [
              102
            ],
            "tree_param": {
              "num_deleted": "0",
              "num_feature": "78",
              "num_nodes": "1",
              "size_leaf_vector": "1"
            }
          },
          {
            "base_weights": [
              -0.00013657333
            ],
            "categories": [],
            "categories_nodes": [],
            "categories_segments": [],
            "categories_sizes": [],
            "default_left": [
              0
            ],
            "id": 23,
            "left_children": [
              -1
            ],
            "loss_changes": [
              0
            ],
            "parents": [
              2147483647
            ],
            "right_children": [
              -1
            ],
            "split_conditions": [
              -0.0000068286668
            ],
            "split_indices": [
              0
            ],
            "split_type": [
              0
            ],
            "sum_hessian": [
              101
            ],
            "tree_param": {
              "num_deleted": "0",
              "num_feature": "78",
              "num_nodes": "1",
              "size_leaf_vector": "1"
            }
          },
          {
            "base_weights": [
              -0.00061404135
            ],
            "categories": [],
            "categories_nodes": [],
            "categories_segments": [],
            "categories_sizes": [],
            "default_left": [
              0
            ],
            "id": 24,
            "left_children": [
              -1
            ],
            "loss_changes": [
              0
            ],
            "parents": [
              2147483647
            ],
            "right_children": [
              -1
            ],
            "split_conditions": [
              -0.000030702067
            ],
            "split_indices": [
              0
            ],
            "split_type": [
              0
            ],
            "sum_hessian": [
              103
            ],
            "tree_param": {
              "num_deleted": "0",
              "num_feature": "78",
              "num_nodes": "1",
              "size_leaf_vector": "1"
            }
          },
          {
            "base_weights": [
              -0.00034268503
            ],
            "categories": [],
            "categories_nodes": [],
            "categories_segments": [],
            "categories_sizes": [],
            "default_left": [
              0
            ],
            "id": 25,
            "left_children": [
              -1
            ],
            "loss_changes": [
              0
            ],
            "parents": [
              2147483647
            ],
            "right_children": [
              -1
            ],
            "split_conditions": [
              -0.000017134253
            ],
            "split_indices": [
              0
            ],
            "split_type": [
              0
            ],
            "sum_hessian": [
              101
            ],
            "tree_param": {
              "num_deleted": "0",
              "num_feature": "78",
              "num_nodes": "1",
              "size_leaf_vector": "1"
            }
          },
          {
            "base_weights": [
              0.000021999223
            ],
            "categories": [],
            "categories_nodes": [],
            "categories_segments": [],
            "categories_sizes": [],
            "default_left": [
              0
            ],
            "id": 26,
            "left_children": [
              -1
            ],
            "loss_changes": [
              0
            ],
            "parents": [
              2147483647
            ],
            "right_children": [
              -1
            ],
            "split_conditions": [
              0.0000010999612
            ],
            "split_indices": [
              0
            ],
            "split_type": [
              0
            ],
            "sum_hessian": [
              103
            ],
            "tree_param": {
              "num_deleted": "0",
              "num_feature": "78",
              "num_nodes": "1",
              "size_leaf_vector": "1"
            }
          },
          {
            "base_weights": [
              -0.00005901323
            ],
            "categories": [],
            "categories_nodes": [],
            "categories_segments": [],
            "categories_sizes": [],
            "default_left": [
              0
            ],
            "id": 27,
            "left_children": [
              -1
            ],
            "loss_changes": [
              0
            ],
            "parents": [
              2147483647
            ],
            "right_children": [
              -1
            ],
            "split_conditions": [
              -0.0000029506616
            ],
            "split_indices": [
              0
            ],
            "split_type": [
              0
            ],
            "sum_hessian": [
              101
            ],
            "tree_param": {
              "num_deleted": "0",
              "num_feature": "78",
              "num_nodes": "1",
              "size_leaf_vector": "1"
            }
          },
          {
            "base_weights": [
              -0.00021263633
            ],
            "categories": [],
            "categories_nodes": [],
            "categories_segments": [],
            "categories_sizes": [],
            "default_left": [
              0
            ],
            "id": 28,
            "left_children": [
              -1
            ],
            "loss_changes": [
              0
            ],
            "parents": [
              2147483647
            ],
            "right_children": [
              -1
            ],
            "split_conditions": [
              -0.000010631817
            ],
            "split_indices": [
              0
            ],
            "split_type": [
              0
            ],
            "sum_hessian": [
              99
            ],
            "tree_param": {
              "num_deleted": "0",
              "num_feature": "78",
              "num_nodes": "1",
              "size_leaf_vector": "1"
            }
          },
          {
            "base_weights": [
              0.00036921274
            ],
            "categories": [],
            "categories_nodes": [],
            "categories_segments": [],
            "categories_sizes": [],
            "default_left": [
              0
            ],
            "id": 29,
            "left_children": [
              -1
            ],
            "loss_changes": [
              0
            ],
            "parents": [
              2147483647
            ],
            "right_children": [
              -1
            ],
            "split_conditions": [
              0.000018460638
            ],
            "split_indices": [
              0
            ],
            "split_type": [
              0
            ],
            "sum_hessian": [
              103
            ],
            "tree_param": {
              "num_deleted": "0",
              "num_feature": "78",
              "num_nodes": "1",
              "size_leaf_vector": "1"
            }
          },
          {
            "base_weights": [
              -0.0005806061
            ],
            "categories": [],
            "categories_nodes": [],
            "categories_segments": [],
            "categories_sizes": [],
            "default_left": [
              0
            ],
            "id": 30,
            "left_children": [
              -1
            ],
            "loss_changes": [
              0
            ],
            "parents": [
              2147483647
            ],
            "right_children": [
              -1
            ],
            "split_conditions": [
              -0.000029030305
            ],
            "split_indices": [
              0
            ],
            "split_type": [
              0
            ],
            "sum_hessian": [
              107
            ],
            "tree_param": {
              "num_deleted": "0",
              "num_feature": "78",
              "num_nodes": "1",
              "size_leaf_vector": "1"
            }
          },
          {
            "base_weights": [
              0.0005042575
            ],
            "categories": [],
            "categories_nodes": [],
            "categories_segments": [],
            "categories_sizes": [],
            "default_left": [
              0
            ],
            "id": 31,
            "left_children": [
              -1
            ],
            "loss_changes": [
              0
            ],
            "parents": [
              2147483647
            ],
            "right_children": [
              -1
            ],
            "split_conditions": [
              0.000025212876
            ],
            "split_indices": [
              0
            ],
            "split_type": [
              0
            ],
            "sum_hessian": [
              105
            ],
            "tree_param": {
              "num_deleted": "0",
              "num_feature": "78",
              "num_nodes": "1",
              "size_leaf_vector": "1"
            }
          },
          {
            "base_weights": [
              0.00029868225
            ],
            "categories": [],
            "categories_nodes": [],
            "categories_segments": [],
            "categories_sizes": [],
            "default_left": [
              0
            ],
            "id": 32,
            "left_children": [
              -1
            ],
            "loss_changes": [
              0
            ],
            "parents": [
              2147483647
            ],
            "right_children": [
              -1
            ],
            "split_conditions": [
              0.000014934113
            ],
            "split_indices": [
              0
            ],
            "split_type": [
              0
            ],
            "sum_hessian": [
              104
            ],
            "tree_param": {
              "num_deleted": "0",
              "num_feature": "78",
              "num_nodes": "1",
              "size_leaf_vector": "1"
            }
          },
          {
            "base_weights": [
              0.0005647254
            ],
            "categories": [],
            "categories_nodes": [],
            "categories_segments": [],
            "categories_sizes": [],
            "default_left": [
              0
            ],
            "id": 33,
            "left_children": [
              -1
            ],
            "loss_changes": [
              0
            ],
            "parents": [
              2147483647
            ],
            "right_children": [
              -1
            ],
            "split_conditions": [
              0.000028236269
            ],
            "split_indices": [
              0
            ],
            "split_type": [
              0
            ],
            "sum_hessian": [
              102
            ],
            "tree_param": {
              "num_deleted": "0",
              "num_feature": "78",
              "num_nodes": "1",
              "size_leaf_vector": "1"
            }
          },
          {
            "base_weights": [
              -0.00065669965
            ],
            "categories": [],
            "categories_nodes": [],
            "categories_segments": [],
            "categories_sizes": [],
            "default_left": [
              0
            ],
            "id": 34,
            "left_children": [
              -1
            ],
            "loss_changes": [
              0
            ],
            "parents": [
              2147483647
            ],
            "right_children": [
              -1
            ],
            "split_conditions": [
              -0.00003283498
            ],
            "split_indices": [
              0
            ],
            "split_type": [
              0
            ],
            "sum_hessian": [
              101
            ],
            "tree_param": {
              "num_deleted": "0",
              "num_feature": "78",
              "num_nodes": "1",
              "size_leaf_vector": "1"
            }
          },
          {
            "base_weights": [
              -0.00054665445
            ],
            "categories": [],
            "categories_nodes": [],
            "categories_segments": [],
            "categories_sizes": [],
            "default_left": [
              0
            ],
            "id": 35,
            "left_children": [
              -1
            ],
            "loss_changes": [
              0
            ],
            "parents": [
              2147483647
            ],
            "right_children": [
              -1
            ],
            "split_conditions": [
              -0.000027332722
            ],
            "split_indices": [
              0
            ],
            "split_type": [
              0
            ],
            "sum_hessian": [
              104
            ],
            "tree_param": {
              "num_deleted": "0",
              "num_feature": "78",
              "num_nodes": "1",
              "size_leaf_vector": "1"
            }
          },
          {
            "base_weights": [
              -0.000109478235
            ],
            "categories": [],
            "categories_nodes": [],
            "categories_segments": [],
            "categories_sizes": [],
            "default_left": [
              0
            ],
            "id": 36,
            "left_children": [
              -1
            ],
            "loss_changes": [
              0
            ],
            "parents": [
              2147483647
            ],
            "right_children": [
              -1
            ],
            "split_conditions": [
              -0.0000054739116
            ],
            "split_indices": [
              0
            ],
            "split_type": [
              0
            ],
            "sum_hessian": [
              98
            ],
            "tree_param": {
              "num_deleted": "0",
              "num_feature": "78",
              "num_nodes": "1",
              "size_leaf_vector": "1"
            }
          },
          {
            "base_weights": [
              0.0002476948
            ],
            "categories": [],
            "categories_nodes": [],
            "categories_segments": [],
            "categories_sizes": [],
            "default_left": [
              0
            ],
            "id": 37,
            "left_children": [
              -1
            ],
            "loss_changes": [
              0
            ],
            "parents": [
              2147483647
            ],
            "right_children": [
              -1
            ],
            "split_conditions": [
              0.000012384741
            ],
            "split_indices": [
              0
            ],
            "split_type": [
              0
            ],
            "sum_hessian": [
              106
            ],
            "tree_param": {
              "num_deleted": "0",
              "num_feature": "78",
              "num_nodes": "1",
              "size_leaf_vector": "1"
            }
          },
          {
            "base_weights": [
              -0.0004333247
            ],
            "categories": [],
            "categories_nodes": [],
            "categories_segments": [],
            "categories_sizes": [],
            "default_left": [
              0
            ],
            "id": 38,
            "left_children": [
              -1
            ],
            "loss_changes": [
              0
            ],
            "parents": [
              2147483647
            ],
            "right_children": [
              -1
            ],
            "split_conditions": [
              -0.000021666236
            ],
            "split_indices": [
              0
            ],
            "split_type": [
              0
            ],
            "sum_hessian": [
              108
            ],
            "tree_param": {
              "num_deleted": "0",
              "num_feature": "78",
              "num_nodes": "1",
              "size_leaf_vector": "1"
            }
          },
          {
            "base_weights": [
              0.00020200587
            ],
            "categories": [],
            "categories_nodes": [],
            "categories_segments": [],
            "categories_sizes": [],
            "default_left": [
              0
            ],
            "id": 39,
            "left_children": [
              -1
            ],
            "loss_changes": [
              0
            ],
            "parents": [
              2147483647
            ],
            "right_children": [
              -1
            ],
            "split_conditions": [
              0.000010100294
            ],
            "split_indices": [
              0
            ],
            "split_type": [
              0
            ],
            "sum_hessian": [
              102
            ],
            "tree_param": {
              "num_deleted": "0",
              "num_feature": "78",
              "num_nodes": "1",
              "size_leaf_vector": "1"
            }
          },
          {
            "base_weights": [
              -0.0007059143
            ],
            "categories": [],
            "categories_nodes": [],
            "categories_segments": [],
            "categories_sizes": [],
            "default_left": [
              0
            ],
            "id": 40,
            "left_children": [
              -1
            ],
            "loss_changes": [
              0
            ],
            "parents": [
              2147483647
            ],
            "right_children": [
              -1
            ],
            "split_conditions": [
              -0.000035295714
            ],
            "split_indices": [
              0
            ],
            "split_type": [
              0
            ],
            "sum_hessian": [
              103
            ],
            "tree_param": {
              "num_deleted": "0",
              "num_feature": "78",
              "num_nodes": "1",
              "size_leaf_vector": "1"
            }
          },
          {
            "base_weights": [
              -0.0010550069
            ],
            "categories": [],
            "categories_nodes": [],
            "categories_segments": [],
            "categories_sizes": [],
            "default_left": [
              0
            ],
            "id": 41,
            "left_children": [
              -1
            ],
            "loss_changes": [
              0
            ],
            "parents": [
              2147483647
            ],
            "right_children": [
              -1
            ],
            "split_conditions": [
              -0.000052750343
            ],
            "split_indices": [
              0
            ],
            "split_type": [
              0
            ],
            "sum_hessian": [
              101
            ],
            "tree_param": {
              "num_deleted": "0",
              "num_feature": "78",
              "num_nodes": "1",
              "size_leaf_vector": "1"
            }
          },
          {
            "base_weights": [
              0.00026476843
            ],
            "categories": [],
            "categories_nodes": [],
            "categories_segments": [],
            "categories_sizes": [],
            "default_left": [
              0
            ],
            "id": 42,
            "left_children": [
              -1
            ],
            "loss_changes": [
              0
            ],
            "parents": [
              2147483647
            ],
            "right_children": [
              -1
            ],
            "split_conditions": [
              0.000013238422
            ],
            "split_indices": [
              0
            ],
            "split_type": [
              0
            ],
            "sum_hessian": [
              102
            ],
            "tree_param": {
              "num_deleted": "0",
              "num_feature": "78",
              "num_nodes": "1",
              "size_leaf_vector": "1"
            }
          },
          {
            "base_weights": [
              0.00025388316
            ],
            "categories": [],
            "categories_nodes": [],
            "categories_segments": [],
            "categories_sizes": [],
            "default_left": [
              0
            ],
            "id": 43,
            "left_children": [
              -1
            ],
            "loss_changes": [
              0
            ],
            "parents": [
              2147483647
            ],
            "right_children": [
              -1
            ],
            "split_conditions": [
              0.000012694159
            ],
            "split_indices": [
              0
            ],
            "split_type": [
              0
            ],
            "sum_hessian": [
              104
            ],
            "tree_param": {
              "num_deleted": "0",
              "num_feature": "78",
              "num_nodes": "1",
              "size_leaf_vector": "1"
            }
          },
          {
            "base_weights": [
              0.00010076137
            ],
            "categories": [],
            "categories_nodes": [],
            "categories_segments": [],
            "categories_sizes": [],
            "default_left": [
              0
            ],
            "id": 44,
            "left_children": [
              -1
            ],
            "loss_changes": [
              0
            ],
            "parents": [
              2147483647
            ],
            "right_children": [
              -1
            ],
            "split_conditions": [
              0.0000050380686
            ],
            "split_indices": [
              0
            ],
            "split_type": [
              0
            ],
            "sum_hessian": [
              103
            ],
            "tree_param": {
              "num_deleted": "0",
              "num_feature": "78",
              "num_nodes": "1",
              "size_leaf_vector": "1"
            }
          },
          {
            "base_weights": [
              -0.000057566842
            ],
            "categories": [],
            "categories_nodes": [],
            "categories_segments": [],
            "categories_sizes": [],
            "default_left": [
              0
            ],
            "id": 45,
            "left_children": [
              -1
            ],
            "loss_changes": [
              0
            ],
            "parents": [
              2147483647
            ],
            "right_children": [
              -1
            ],
            "split_conditions": [
              -0.0000028783422
            ],
            "split_indices": [
              0
            ],
            "split_type": [
              0
            ],
            "sum_hessian": [
              104
            ],
            "tree_param": {
              "num_deleted": "0",
              "num_feature": "78",
              "num_nodes": "1",
              "size_leaf_vector": "1"
            }
          },
          {
            "base_weights": [
              -0.0013786509
            ],
            "categories": [],
            "categories_nodes": [],
            "categories_segments": [],
            "categories_sizes": [],
            "default_left": [
              0
            ],
            "id": 46,
            "left_children": [
              -1
            ],
            "loss_changes": [
              0
            ],
            "parents": [
              2147483647
            ],
            "right_children": [
              -1
            ],
            "split_conditions": [
              -0.000068932546
            ],
            "split_indices": [
              0
            ],
            "split_type": [
              0
            ],
            "sum_hessian": [
              104
            ],
            "tree_param": {
              "num_deleted": "0",
              "num_feature": "78",
              "num_nodes": "1",
              "size_leaf_vector": "1"
            }
          },
          {
            "base_weights": [
              -0.0006579324
            ],
            "categories": [],
            "categories_nodes": [],
            "categories_segments": [],
            "categories_sizes": [],
            "default_left": [
              0
            ],
            "id": 47,
            "left_children": [
              -1
            ],
            "loss_changes": [
              0
            ],
            "parents": [
              2147483647
            ],
            "right_children": [
              -1
            ],
            "split_conditions": [
              -0.000032896623
            ],
            "split_indices": [
              0
            ],
            "split_type": [
              0
            ],
            "sum_hessian": [
              1E+2
            ],
            "tree_param": {
              "num_deleted": "0",
              "num_feature": "78",
              "num_nodes": "1",
              "size_leaf_vector": "1"
            }
          },
          {
            "base_weights": [
              0.0003344831
            ],
            "categories": [],
            "categories_nodes": [],
            "categories_segments": [],
            "categories_sizes": [],
            "default_left": [
              0
            ],
            "id": 48,
            "left_children": [
              -1
            ],
            "loss_changes": [
              0
            ],
            "parents": [
              2147483647
            ],
            "right_children": [
              -1
            ],
            "split_conditions": [
              0.000016724156
            ],
            "split_indices": [
              0
            ],
            "split_type": [
              0
            ],
            "sum_hessian": [
              103
            ],
            "tree_param": {
              "num_deleted": "0",
              "num_feature": "78",
              "num_nodes": "1",
              "size_leaf_vector": "1"
            }
          },
          {
            "base_weights": [
              0.0012103308
            ],
            "categories": [],
            "categories_nodes": [],
            "categories_segments": [],
            "categories_sizes": [],
            "default_left": [
              0
            ],
            "id": 49,
            "left_children": [
              -1
            ],
            "loss_changes": [
              0
            ],
            "parents": [
              2147483647
            ],
            "right_children": [
              -1
            ],
            "split_conditions": [
              0.000060516537
            ],
            "split_indices": [
              0
            ],
            "split_type": [
              0
            ],
            "sum_hessian": [
              103
            ],
            "tree_param": {
              "num_deleted": "0",
              "num_feature": "78",
              "num_nodes": "1",
              "size_leaf_vector": "1"
            }
          },
          {
            "base_weights": [
              -0.00011290595
            ],
            "categories": [],
            "categories_nodes": [],
            "categories_segments": [],
            "categories_sizes": [],
            "default_left": [
              0
            ],
            "id": 50,
            "left_children": [
              -1
            ],
            "loss_changes": [
              0
            ],
            "parents": [
              2147483647
            ],
            "right_children": [
              -1
            ],
            "split_conditions": [
              -0.0000056452977
            ],
            "split_indices": [
              0
            ],
            "split_type": [
              0
            ],
            "sum_hessian": [
              103
            ],
            "tree_param": {
              "num_deleted": "0",
              "num_feature": "78",
              "num_nodes": "1",
              "size_leaf_vector": "1"
            }
          },
          {
            "base_weights": [
              0.00077053986
            ],
            "categories": [],
            "categories_nodes": [],
            "categories_segments": [],
            "categories_sizes": [],
            "default_left": [
              0
            ],
            "id": 51,
            "left_children": [
              -1
            ],
            "loss_changes": [
              0
            ],
            "parents": [
              2147483647
            ],
            "right_children": [
              -1
            ],
            "split_conditions": [
              0.000038526992
            ],
            "split_indices": [
              0
            ],
            "split_type": [
              0
            ],
            "sum_hessian": [
              105
            ],
            "tree_param": {
              "num_deleted": "0",
              "num_feature": "78",
              "num_nodes": "1",
              "size_leaf_vector": "1"
            }
          },
          {
            "base_weights": [
              0.0007690821
            ],
            "categories": [],
            "categories_nodes": [],
            "categories_segments": [],
            "categories_sizes": [],
            "default_left": [
              0
            ],
            "id": 52,
            "left_children": [
              -1
            ],
            "loss_changes": [
              0
            ],
            "parents": [
              2147483647
            ],
            "right_children": [
              -1
            ],
            "split_conditions": [
              0.000038454105
            ],
            "split_indices": [
              0
            ],
            "split_type": [
              0
            ],
            "sum_hessian": [
              104
            ],
            "tree_param": {
              "num_deleted": "0",
              "num_feature": "78",
              "num_nodes": "1",
              "size_leaf_vector": "1"
            }
          },
          {
            "base_weights": [
              -0.0003910428
            ],
            "categories": [],
            "categories_nodes": [],
            "categories_segments": [],
            "categories_sizes": [],
            "default_left": [
              0
            ],
            "id": 53,
            "left_children": [
              -1
            ],
            "loss_changes": [
              0
            ],
            "parents": [
              2147483647
            ],
            "right_children": [
              -1
            ],
            "split_conditions": [
              -0.00001955214
            ],
            "split_indices": [
              0
            ],
            "split_type": [
              0
            ],
            "sum_hessian": [
              103
            ],
            "tree_param": {
              "num_deleted": "0",
              "num_feature": "78",
              "num_nodes": "1",
              "size_leaf_vector": "1"
            }
          },
          {
            "base_weights": [
              0.000056123958
            ],
            "categories": [],
            "categories_nodes": [],
            "categories_segments": [],
            "categories_sizes": [],
            "default_left": [
              0
            ],
            "id": 54,
            "left_children": [
              -1
            ],
            "loss_changes": [
              0
            ],
            "parents": [
              2147483647
            ],
            "right_children": [
              -1
            ],
            "split_conditions": [
              0.000002806198
            ],
            "split_indices": [
              0
            ],
            "split_type": [
              0
            ],
            "sum_hessian": [
              104
            ],
            "tree_param": {
              "num_deleted": "0",
              "num_feature": "78",
              "num_nodes": "1",
              "size_leaf_vector": "1"
            }
          },
          {
            "base_weights": [
              -0.000120123594
            ],
            "categories": [],
            "categories_nodes": [],
            "categories_segments": [],
            "categories_sizes": [],
            "default_left": [
              0
            ],
            "id": 55,
            "left_children": [
              -1
            ],
            "loss_changes": [
              0
            ],
            "parents": [
              2147483647
            ],
            "right_children": [
              -1
            ],
            "split_conditions": [
              -0.00000600618
            ],
            "split_indices": [
              0
            ],
            "split_type": [
              0
            ],
            "sum_hessian": [
              107
            ],
            "tree_param": {
              "num_deleted": "0",
              "num_feature": "78",
              "num_nodes": "1",
              "size_leaf_vector": "1"
            }
          },
          {
            "base_weights": [
              0.0007013635
            ],
            "categories": [],
            "categories_nodes": [],
            "categories_segments": [],
            "categories_sizes": [],
            "default_left": [
              0
            ],
            "id": 56,
            "left_children": [
              -1
            ],
            "loss_changes": [
              0
            ],
            "parents": [
              2147483647
            ],
            "right_children": [
              -1
            ],
            "split_conditions": [
              0.000035068177
            ],
            "split_indices": [
              0
            ],
            "split_type": [
              0
            ],
            "sum_hessian": [
              93
            ],
            "tree_param": {
              "num_deleted": "0",
              "num_feature": "78",
              "num_nodes": "1",
              "size_leaf_vector": "1"
            }
          },
          {
            "base_weights": [
              0.00057424227
            ],
            "categories": [],
            "categories_nodes": [],
            "categories_segments": [],
            "categories_sizes": [],
            "default_left": [
              0
            ],
            "id": 57,
            "left_children": [
              -1
            ],
            "loss_changes": [
              0
            ],
            "parents": [
              2147483647
            ],
            "right_children": [
              -1
            ],
            "split_conditions": [
              0.000028712113
            ],
            "split_indices": [
              0
            ],
            "split_type": [
              0
            ],
            "sum_hessian": [
              105
            ],
            "tree_param": {
              "num_deleted": "0",
              "num_feature": "78",
              "num_nodes": "1",
              "size_leaf_vector": "1"
            }
          },
          {
            "base_weights": [
              0.0018196383
            ],
            "categories": [],
            "categories_nodes": [],
            "categories_segments": [],
            "categories_sizes": [],
            "default_left": [
              0
            ],
            "id": 58,
            "left_children": [
              -1
            ],
            "loss_changes": [
              0
            ],
            "parents": [
              2147483647
            ],
            "right_children": [
              -1
            ],
            "split_conditions": [
              0.000090981914
            ],
            "split_indices": [
              0
            ],
            "split_type": [
              0
            ],
            "sum_hessian": [
              97
            ],
            "tree_param": {
              "num_deleted": "0",
              "num_feature": "78",
              "num_nodes": "1",
              "size_leaf_vector": "1"
            }
          },
          {
            "base_weights": [
              -0.0012831821
            ],
            "categories": [],
            "categories_nodes": [],
            "categories_segments": [],
            "categories_sizes": [],
            "default_left": [
              0
            ],
            "id": 59,
            "left_children": [
              -1
            ],
            "loss_changes": [
              0
            ],
            "parents": [
              2147483647
            ],
            "right_children": [
              -1
            ],
            "split_conditions": [
              -0.0000641591
            ],
            "split_indices": [
              0
            ],
            "split_type": [
              0
            ],
            "sum_hessian": [
              106
            ],
            "tree_param": {
              "num_deleted": "0",
              "num_feature": "78",
              "num_nodes": "1",
              "size_leaf_vector": "1"
            }
          },
          {
            "base_weights": [
              -0.0009604165
            ],
            "categories": [],
            "categories_nodes": [],
            "categories_segments": [],
            "categories_sizes": [],
            "default_left": [
              0
            ],
            "id": 60,
            "left_children": [
              -1
            ],
            "loss_changes": [
              0
            ],
            "parents": [
              2147483647
            ],
            "right_children": [
              -1
            ],
            "split_conditions": [
              -0.000048020825
            ],
            "split_indices": [
              0
            ],
            "split_type": [
              0
            ],
            "sum_hessian": [
              102
            ],
            "tree_param": {
              "num_deleted": "0",
              "num_feature": "78",
              "num_nodes": "1",
              "size_leaf_vector": "1"
            }
          },
          {
            "base_weights": [
              -0.00012776136
            ],
            "categories": [],
            "categories_nodes": [],
            "categories_segments": [],
            "categories_sizes": [],
            "default_left": [
              0
            ],
            "id": 61,
            "left_children": [
              -1
            ],
            "loss_changes": [
              0
            ],
            "parents": [
              2147483647
            ],
            "right_children": [
              -1
            ],
            "split_conditions": [
              -0.0000063880684
            ],
            "split_indices": [
              0
            ],
            "split_type": [
              0
            ],
            "sum_hessian": [
              98
            ],
            "tree_param": {
              "num_deleted": "0",
              "num_feature": "78",
              "num_nodes": "1",
              "size_leaf_vector": "1"
            }
          },
          {
            "base_weights": [
              -0.00030469435
            ],
            "categories": [],
            "categories_nodes": [],
            "categories_segments": [],
            "categories_sizes": [],
            "default_left": [
              0
            ],
            "id": 62,
            "left_children": [
              -1
            ],
            "loss_changes": [
              0
            ],
            "parents": [
              2147483647
            ],
            "right_children": [
              -1
            ],
            "split_conditions": [
              -0.0000152347175
            ],
            "split_indices": [
              0
            ],
            "split_type": [
              0
            ],
            "sum_hessian": [
              102
            ],
            "tree_param": {
              "num_deleted": "0",
              "num_feature": "78",
              "num_nodes": "1",
              "size_leaf_vector": "1"
            }
          },
          {
            "base_weights": [
              -0.00052903075
            ],
            "categories": [],
            "categories_nodes": [],
            "categories_segments": [],
            "categories_sizes": [],
            "default_left": [
              0
            ],
            "id": 63,
            "left_children": [
              -1
            ],
            "loss_changes": [
              0
            ],
            "parents": [
              2147483647
            ],
            "right_children": [
              -1
            ],
            "split_conditions": [
              -0.000026451538
            ],
            "split_indices": [
              0
            ],
            "split_type": [
              0
            ],
            "sum_hessian": [
              99
            ],
            "tree_param": {
              "num_deleted": "0",
              "num_feature": "78",
              "num_nodes": "1",
              "size_leaf_vector": "1"
            }
          },
          {
            "base_weights": [
              0.00014647369
            ],
            "categories": [],
            "categories_nodes": [],
            "categories_segments": [],
            "categories_sizes": [],
            "default_left": [
              0
            ],
            "id": 64,
            "left_children": [
              -1
            ],
            "loss_changes": [
              0
            ],
            "parents": [
              2147483647
            ],
            "right_children": [
              -1
            ],
            "split_conditions": [
              0.0000073236843
            ],
            "split_indices": [
              0
            ],
            "split_type": [
              0
            ],
            "sum_hessian": [
              105
            ],
            "tree_param": {
              "num_deleted": "0",
              "num_feature": "78",
              "num_nodes": "1",
              "size_leaf_vector": "1"
            }
          },
          {
            "base_weights": [
              0.0003358966
            ],
            "categories": [],
            "categories_nodes": [],
            "categories_segments": [],
            "categories_sizes": [],
            "default_left": [
              0
            ],
            "id": 65,
            "left_children": [
              -1
            ],
            "loss_changes": [
              0
            ],
            "parents": [
              2147483647
            ],
            "right_children": [
              -1
            ],
            "split_conditions": [
              0.00001679483
            ],
            "split_indices": [
              0
            ],
            "split_type": [
              0
            ],
            "sum_hessian": [
              103
            ],
            "tree_param": {
              "num_deleted": "0",
              "num_feature": "78",
              "num_nodes": "1",
              "size_leaf_vector": "1"
            }
          },
          {
            "base_weights": [
              -0.00060832384
            ],
            "categories": [],
            "categories_nodes": [],
            "categories_segments": [],
            "categories_sizes": [],
            "default_left": [
              0
            ],
            "id": 66,
            "left_children": [
              -1
            ],
            "loss_changes": [
              0
            ],
            "parents": [
              2147483647
            ],
            "right_children": [
              -1
            ],
            "split_conditions": [
              -0.000030416193
            ],
            "split_indices": [
              0
            ],
            "split_type": [
              0
            ],
            "sum_hessian": [
              99
            ],
            "tree_param": {
              "num_deleted": "0",
              "num_feature": "78",
              "num_nodes": "1",
              "size_leaf_vector": "1"
            }
          },
          {
            "base_weights": [
              0.00080857123
            ],
            "categories": [],
            "categories_nodes": [],
            "categories_segments": [],
            "categories_sizes": [],
            "default_left": [
              0
            ],
            "id": 67,
            "left_children": [
              -1
            ],
            "loss_changes": [
              0
            ],
            "parents": [
              2147483647
            ],
            "right_children": [
              -1
            ],
            "split_conditions": [
              0.000040428564
            ],
            "split_indices": [
              0
            ],
            "split_type": [
              0
            ],
            "sum_hessian": [
              106
            ],
            "tree_param": {
              "num_deleted": "0",
              "num_feature": "78",
              "num_nodes": "1",
              "size_leaf_vector": "1"
            }
          },
          {
            "base_weights": [
              0.0008611974
            ],
            "categories": [],
            "categories_nodes": [],
            "categories_segments": [],
            "categories_sizes": [],
            "default_left": [
              0
            ],
            "id": 68,
            "left_children": [
              -1
            ],
            "loss_changes": [
              0
            ],
            "parents": [
              2147483647
            ],
            "right_children": [
              -1
            ],
            "split_conditions": [
              0.00004305987
            ],
            "split_indices": [
              0
            ],
            "split_type": [
              0
            ],
            "sum_hessian": [
              103
            ],
            "tree_param": {
              "num_deleted": "0",
              "num_feature": "78",
              "num_nodes": "1",
              "size_leaf_vector": "1"
            }
          },
          {
            "base_weights": [
              0.000056719316
            ],
            "categories": [],
            "categories_nodes": [],
            "categories_segments": [],
            "categories_sizes": [],
            "default_left": [
              0
            ],
            "id": 69,
            "left_children": [
              -1
            ],
            "loss_changes": [
              0
            ],
            "parents": [
              2147483647
            ],
            "right_children": [
              -1
            ],
            "split_conditions": [
              0.000002835966
            ],
            "split_indices": [
              0
            ],
            "split_type": [
              0
            ],
            "sum_hessian": [
              101
            ],
            "tree_param": {
              "num_deleted": "0",
              "num_feature": "78",
              "num_nodes": "1",
              "size_leaf_vector": "1"
            }
          },
          {
            "base_weights": [
              -0.0003643334
            ],
            "categories": [],
            "categories_nodes": [],
            "categories_segments": [],
            "categories_sizes": [],
            "default_left": [
              0
            ],
            "id": 70,
            "left_children": [
              -1
            ],
            "loss_changes": [
              0
            ],
            "parents": [
              2147483647
            ],
            "right_children": [
              -1
            ],
            "split_conditions": [
              -0.00001821667
            ],
            "split_indices": [
              0
            ],
            "split_type": [
              0
            ],
            "sum_hessian": [
              98
            ],
            "tree_param": {
              "num_deleted": "0",
              "num_feature": "78",
              "num_nodes": "1",
              "size_leaf_vector": "1"
            }
          },
          {
            "base_weights": [
              -0.00002548354
            ],
            "categories": [],
            "categories_nodes": [],
            "categories_segments": [],
            "categories_sizes": [],
            "default_left": [
              0
            ],
            "id": 71,
            "left_children": [
              -1
            ],
            "loss_changes": [
              0
            ],
            "parents": [
              2147483647
            ],
            "right_children": [
              -1
            ],
            "split_conditions": [
              -0.000001274177
            ],
            "split_indices": [
              0
            ],
            "split_type": [
              0
            ],
            "sum_hessian": [
              103
            ],
            "tree_param": {
              "num_deleted": "0",
              "num_feature": "78",
              "num_nodes": "1",
              "size_leaf_vector": "1"
            }
          },
          {
            "base_weights": [
              -0.0014848686
            ],
            "categories": [],
            "categories_nodes": [],
            "categories_segments": [],
            "categories_sizes": [],
            "default_left": [
              0
            ],
            "id": 72,
            "left_children": [
              -1
            ],
            "loss_changes": [
              0
            ],
            "parents": [
              2147483647
            ],
            "right_children": [
              -1
            ],
            "split_conditions": [
              -0.00007424343
            ],
            "split_indices": [
              0
            ],
            "split_type": [
              0
            ],
            "sum_hessian": [
              102
            ],
            "tree_param": {
              "num_deleted": "0",
              "num_feature": "78",
              "num_nodes": "1",
              "size_leaf_vector": "1"
            }
          },
          {
            "base_weights": [
              0.0004478766
            ],
            "categories": [],
            "categories_nodes": [],
            "categories_segments": [],
            "categories_sizes": [],
            "default_left": [
              0
            ],
            "id": 73,
            "left_children": [
              -1
            ],
            "loss_changes": [
              0
            ],
            "parents": [
              2147483647
            ],
            "right_children": [
              -1
            ],
            "split_conditions": [
              0.000022393831
            ],
            "split_indices": [
              0
            ],
            "split_type": [
              0
            ],
            "sum_hessian": [
              96
            ],
            "tree_param": {
              "num_deleted": "0",
              "num_feature": "78",
              "num_nodes": "1",
              "size_leaf_vector": "1"
            }
          },
          {
            "base_weights": [
              -0.0014151246
            ],
            "categories": [],
            "categories_nodes": [],
            "categories_segments": [],
            "categories_sizes": [],
            "default_left": [
              0
            ],
            "id": 74,
            "left_children": [
              -1
            ],
            "loss_changes": [
              0
            ],
            "parents": [
              2147483647
            ],
            "right_children": [
              -1
            ],
            "split_conditions": [
              -0.000070756236
            ],
            "split_indices": [
              0
            ],
            "split_type": [
              0
            ],
            "sum_hessian": [
              92
            ],
            "tree_param": {
              "num_deleted": "0",
              "num_feature": "78",
              "num_nodes": "1",
              "size_leaf_vector": "1"
            }
          },
          {
            "base_weights": [
              -0.00006336364
            ],
            "categories": [],
            "categories_nodes": [],
            "categories_segments": [],
            "categories_sizes": [],
            "default_left": [
              0
            ],
            "id": 75,
            "left_children": [
              -1
            ],
            "loss_changes": [
              0
            ],
            "parents": [
              2147483647
            ],
            "right_children": [
              -1
            ],
            "split_conditions": [
              -0.0000031681818
            ],
            "split_indices": [
              0
            ],
            "split_type": [
              0
            ],
            "sum_hessian": [
              105
            ],
            "tree_param": {
