{
  "learner": {
    "attributes": {
      "scikit_learn": "{\"_estimator_type\": \"regressor\"}"
    },
    "feature_names": [],
    "feature_types": [],
    "gradient_booster": {
      "model": {
        "cats": {
          "enc": [],
          "feature_segments": [],
          "sorted_idx": []
        },
        "gbtree_model_param": {
          "num_parallel_tree": "1",
          "num_trees": "800"
        },
        "iteration_indptr": [
          0,
          1,
          2,
          3,
          4,
          5,
          6,
          7,
          8,
          9,
          10,
          11,
          12,
          13,
          14,
          15,
          16,
          17,
          18,
          19,
          20,
          21,
          22,
          23,
          24,
          25,
          26,
          27,
          28,
          29,
          30,
          31,
          32,
          33,
          34,
          35,
          36,
          37,
          38,
          39,
          40,
          41,
          42,
          43,
          44,
          45,
          46,
          47,
          48,
          49,
          50,
          51,
          52,
          53,
          54,
          55,
          56,
          57,
          58,
          59,
          60,
          61,
          62,
          63,
          64,
          65,
          66,
          67,
          68,
          69,
          70,
          71,
          72,
          73,
          74,
          75,
          76,
          77,
          78,
          79,
          80,
          81,
          82,
          83,
          84,
          85,
          86,
          87,
          88,
          89,
          90,
          91,
          92,
          93,
          94,
          95,
          96,
          97,
          98,
          99,
          100,
          101,
          102,
          103,
          104,
          105,
          106,
          107,
          108,
          109,
          110,
          111,
          112,
          113,
          114,
          115,
          116,
          117,
          118,
          119,
          120,
          121,
          122,
          123,
          124,
          125,
          126,
          127,
          128,
          129,
          130,
          131,
          132,
          133,
          134,
          135,
          136,
          137,
          138,
          139,
          140,
          141,
          142,
          143,
          144,
          145,
          146,
          147,
          148,
          149,
          150,
          151,
          152,
          153,
          154,
          155,
          156,
          157,
          158,
          159,
          160,
          161,
          162,
          163,
          164,
          165,
          166,
          167,
          168,
          169,
          170,
          171,
          172,
          173,
          174,
          175,
          176,
          177,
          178,
          179,
          180,
          181,
          182,
          183,
          184,
          185,
          186,
          187,
          188,
          189,
          190,
          191,
          192,
          193,
          194,
          195,
          196,
          197,
          198,
          199,
          200,
          201,
          202,
          203,
          204,
          205,
          206,
          207,
          208,
          209,
          210,
          211,
          212,
          213,
          214,
          215,
          216,
          217,
          218,
          219,
          220,
          221,
          222,
          223,
          224,
          225,
          226,
          227,
          228,
          229,
          230,
          231,
          232,
          233,
          234,
          235,
          236,
          237,
          238,
          239,
          240,
          241,
          242,
          243,
          244,
          245,
          246,
          247,
          248,
          249,
          250,
          251,
          252,
          253,
          254,
          255,
          256,
          257,
          258,
          259,
          260,
          261,
          262,
          263,
          264,
          265,
          266,
          267,
          268,
          269,
          270,
          271,
          272,
          273,
          274,
          275,
          276,
          277,
          278,
          279,
          280,
          281,
          282,
          283,
          284,
          285,
          286,
          287,
          288,
          289,
          290,
          291,
          292,
          293,
          294,
          295,
          296,
          297,
          298,
          299,
          300,
          301,
          302,
          303,
          304,
          305,
          306,
          307,
          308,
          309,
          310,
          311,
          312,
          313,
          314,
          315,
          316,
          317,
          318,
          319,
          320,
          321,
          322,
          323,
          324,
          325,
          326,
          327,
          328,
          329,
          330,
          331,
          332,
          333,
          334,
          335,
          336,
          337,
          338,
          339,
          340,
          341,
          342,
          343,
          344,
          345,
          346,
          347,
          348,
          349,
          350,
          351,
          352,
          353,
          354,
          355,
          356,
          357,
          358,
          359,
          360,
          361,
          362,
          363,
          364,
          365,
          366,
          367,
          368,
          369,
          370,
          371,
          372,
          373,
          374,
          375,
          376,
          377,
          378,
          379,
          380,
          381,
          382,
          383,
          384,
          385,
          386,
          387,
          388,
          389,
          390,
          391,
          392,
          393,
          394,
          395,
          396,
          397,
          398,
          399,
          400,
          401,
          402,
          403,
          404,
          405,
          406,
          407,
          408,
          409,
          410,
          411,
          412,
          413,
          414,
          415,
          416,
          417,
          418,
          419,
          420,
          421,
          422,
          423,
          424,
          425,
          426,
          427,
          428,
          429,
          430,
          431,
          432,
          433,
          434,
          435,
          436,
          437,
          438,
          439,
          440,
          441,
          442,
          443,
          444,
          445,
          446,
          447,
          448,
          449,
          450,
          451,
          452,
          453,
          454,
          455,
          456,
          457,
          458,
          459,
          460,
          461,
          462,
          463,
          464,
          465,
          466,
          467,
          468,
          469,
          470,
          471,
          472,
          473,
          474,
          475,
          476,
          477,
          478,
          479,
          480,
          481,
          482,
          483,
          484,
          485,
          486,
          487,
          488,
          489,
          490,
          491,
          492,
          493,
          494,
          495,
          496,
          497,
          498,
          499,
          500,
          501,
          502,
          503,
          504,
          505,
          506,
          507,
          508,
          509,
          510,
          511,
          512,
          513,
          514,
          515,
          516,
          517,
          518,
          519,
          520,
          521,
          522,
          523,
          524,
          525,
          526,
          527,
          528,
          529,
          530,
          531,
          532,
          533,
          534,
          535,
          536,
          537,
          538,
          539,
          540,
          541,
          542,
          543,
          544,
          545,
          546,
          547,
          548,
          549,
          550,
          551,
          552,
          553,
          554,
          555,
          556,
          557,
          558,
          559,
          560,
          561,
          562,
          563,
          564,
          565,
          566,
          567,
          568,
          569,
          570,
          571,
          572,
          573,
          574,
          575,
          576,
          577,
          578,
          579,
          580,
          581,
          582,
          583,
          584,
          585,
          586,
          587,
          588,
          589,
          590,
          591,
          592,
          593,
          594,
          595,
          596,
          597,
          598,
          599,
          600,
          601,
          602,
          603,
          604,
          605,
          606,
          607,
          608,
          609,
          610,
          611,
          612,
          613,
          614,
          615,
          616,
          617,
          618,
          619,
          620,
          621,
          622,
          623,
          624,
          625,
          626,
          627,
          628,
          629,
          630,
          631,
          632,
          633,
          634,
          635,
          636,
          637,
          638,
          639,
          640,
          641,
          642,
          643,
          644,
          645,
          646,
          647,
          648,
          649,
          650,
          651,
          652,
          653,
          654,
          655,
          656,
          657,
          658,
          659,
          660,
          661,
          662,
          663,
          664,
          665,
          666,
          667,
          668,
          669,
          670,
          671,
          672,
          673,
          674,
          675,
          676,
          677,
          678,
          679,
          680,
          681,
          682,
          683,
          684,
          685,
          686,
          687,
          688,
          689,
          690,
          691,
          692,
          693,
          694,
          695,
          696,
          697,
          698,
          699,
          700,
          701,
          702,
          703,
          704,
          705,
          706,
          707,
          708,
          709,
          710,
          711,
          712,
          713,
          714,
          715,
          716,
          717,
          718,
          719,
          720,
          721,
          722,
          723,
          724,
          725,
          726,
          727,
          728,
          729,
          730,
          731,
          732,
          733,
          734,
          735,
          736,
          737,
          738,
          739,
          740,
          741,
          742,
          743,
          744,
          745,
          746,
          747,
          748,
          749,
          750,
          751,
          752,
          753,
          754,
          755,
          756,
          757,
          758,
          759,
          760,
          761,
          762,
          763,
          764,
          765,
          766,
          767,
          768,
          769,
          770,
          771,
          772,
          773,
          774,
          775,
          776,
          777,
          778,
          779,
          780,
          781,
          782,
          783,
          784,
          785,
          786,
          787,
          788,
          789,
          790,
          791,
          792,
          793,
          794,
          795,
          796,
          797,
          798,
          799,
          800
        ],
        "tree_info": [
          0,
          0,
          0,
          0,
          0,
          0,
          0,
          0,
          0,
          0,
          0,
          0,
          0,
          0,
          0,
          0,
          0,
          0,
          0,
          0,
          0,
          0,
          0,
          0,
          0,
          0,
          0,
          0,
          0,
          0,
          0,
          0,
          0,
          0,
          0,
          0,
          0,
          0,
          0,
          0,
          0,
          0,
          0,
          0,
          0,
          0,
          0,
          0,
          0,
          0,
          0,
          0,
          0,
          0,
          0,
          0,
          0,
          0,
          0,
          0,
          0,
          0,
          0,
          0,
          0,
          0,
          0,
          0,
          0,
          0,
          0,
          0,
          0,
          0,
          0,
          0,
          0,
          0,
          0,
          0,
          0,
          0,
          0,
          0,
          0,
          0,
          0,
          0,
          0,
          0,
          0,
          0,
          0,
          0,
          0,
          0,
          0,
          0,
          0,
          0,
          0,
          0,
          0,
          0,
          0,
          0,
          0,
          0,
          0,
          0,
          0,
          0,
          0,
          0,
          0,
          0,
          0,
          0,
          0,
          0,
          0,
          0,
          0,
          0,
          0,
          0,
          0,
          0,
          0,
          0,
          0,
          0,
          0,
          0,
          0,
          0,
          0,
          0,
          0,
          0,
          0,
          0,
          0,
          0,
          0,
          0,
          0,
          0,
          0,
          0,
          0,
          0,
          0,
          0,
          0,
          0,
          0,
          0,
          0,
          0,
          0,
          0,
          0,
          0,
          0,
          0,
          0,
          0,
          0,
          0,
          0,
          0,
          0,
          0,
          0,
          0,
          0,
          0,
          0,
          0,
          0,
          0,
          0,
          0,
          0,
          0,
          0,
          0,
          0,
          0,
          0,
          0,
          0,
          0,
          0,
          0,
          0,
          0,
          0,
          0,
          0,
          0,
          0,
          0,
          0,
          0,
          0,
          0,
          0,
          0,
          0,
          0,
          0,
          0,
          0,
          0,
          0,
          0,
          0,
          0,
          0,
          0,
          0,
          0,
          0,
          0,
          0,
          0,
          0,
          0,
          0,
          0,
          0,
          0,
          0,
          0,
          0,
          0,
          0,
          0,
          0,
          0,
          0,
          0,
          0,
          0,
          0,
          0,
          0,
          0,
          0,
          0,
          0,
          0,
          0,
          0,
          0,
          0,
          0,
          0,
          0,
          0,
          0,
          0,
          0,
          0,
          0,
          0,
          0,
          0,
          0,
          0,
          0,
          0,
          0,
          0,
          0,
          0,
          0,
          0,
          0,
          0,
          0,
          0,
          0,
          0,
          0,
          0,
          0,
          0,
          0,
          0,
          0,
          0,
          0,
          0,
          0,
          0,
          0,
          0,
          0,
          0,
          0,
          0,
          0,
          0,
          0,
          0,
          0,
          0,
          0,
          0,
          0,
          0,
          0,
          0,
          0,
          0,
          0,
          0,
          0,
          0,
          0,
          0,
          0,
          0,
          0,
          0,
          0,
          0,
          0,
          0,
          0,
          0,
          0,
          0,
          0,
          0,
          0,
          0,
          0,
          0,
          0,
          0,
          0,
          0,
          0,
          0,
          0,
          0,
          0,
          0,
          0,
          0,
          0,
          0,
          0,
          0,
          0,
          0,
          0,
          0,
          0,
          0,
          0,
          0,
          0,
          0,
          0,
          0,
          0,
          0,
          0,
          0,
          0,
          0,
          0,
          0,
          0,
          0,
          0,
          0,
          0,
          0,
          0,
          0,
          0,
          0,
          0,
          0,
          0,
          0,
          0,
          0,
          0,
          0,
          0,
          0,
          0,
          0,
          0,
          0,
          0,
          0,
          0,
          0,
          0,
          0,
          0,
          0,
          0,
          0,
          0,
          0,
          0,
          0,
          0,
          0,
          0,
          0,
          0,
          0,
          0,
          0,
          0,
          0,
          0,
          0,
          0,
          0,
          0,
          0,
          0,
          0,
          0,
          0,
          0,
          0,
          0,
          0,
          0,
          0,
          0,
          0,
          0,
          0,
          0,
          0,
          0,
          0,
          0,
          0,
          0,
          0,
          0,
          0,
          0,
          0,
          0,
          0,
          0,
          0,
          0,
          0,
          0,
          0,
          0,
          0,
          0,
          0,
          0,
          0,
          0,
          0,
          0,
          0,
          0,
          0,
          0,
          0,
          0,
          0,
          0,
          0,
          0,
          0,
          0,
          0,
          0,
          0,
          0,
          0,
          0,
          0,
          0,
          0,
          0,
          0,
          0,
          0,
          0,
          0,
          0,
          0,
          0,
          0,
          0,
          0,
          0,
          0,
          0,
          0,
          0,
          0,
          0,
          0,
          0,
          0,
          0,
          0,
          0,
          0,
          0,
          0,
          0,
          0,
          0,
          0,
          0,
          0,
          0,
          0,
          0,
          0,
          0,
          0,
          0,
          0,
          0,
          0,
          0,
          0,
          0,
          0,
          0,
          0,
          0,
          0,
          0,
          0,
          0,
          0,
          0,
          0,
          0,
          0,
          0,
          0,
          0,
          0,
          0,
          0,
          0,
          0,
          0,
          0,
          0,
          0,
          0,
          0,
          0,
          0,
          0,
          0,
          0,
          0,
          0,
          0,
          0,
          0,
          0,
          0,
          0,
          0,
          0,
          0,
          0,
          0,
          0,
          0,
          0,
          0,
          0,
          0,
          0,
          0,
          0,
          0,
          0,
          0,
          0,
          0,
          0,
          0,
          0,
          0,
          0,
          0,
          0,
          0,
          0,
          0,
          0,
          0,
          0,
          0,
          0,
          0,
          0,
          0,
          0,
          0,
          0,
          0,
          0,
          0,
          0,
          0,
          0,
          0,
          0,
          0,
          0,
          0,
          0,
          0,
          0,
          0,
          0,
          0,
          0,
          0,
          0,
          0,
          0,
          0,
          0,
          0,
          0,
          0,
          0,
          0,
          0,
          0,
          0,
          0,
          0,
          0,
          0,
          0,
          0,
          0,
          0,
          0,
          0,
          0,
          0,
          0,
          0,
          0,
          0,
          0,
          0,
          0,
          0,
          0,
          0,
          0,
          0,
          0,
          0,
          0,
          0,
          0,
          0,
          0,
          0,
          0,
          0,
          0,
          0,
          0,
          0,
          0,
          0,
          0,
          0,
          0,
          0,
          0,
          0,
          0,
          0,
          0,
          0,
          0,
          0,
          0,
          0,
          0,
          0,
          0,
          0,
          0,
          0,
          0,
          0,
          0,
          0,
          0,
          0,
          0,
          0,
          0,
          0,
          0,
          0,
          0,
          0,
          0,
          0,
          0,
          0,
          0,
          0,
          0,
          0,
          0,
          0,
          0,
          0,
          0,
          0,
          0,
          0,
          0,
          0,
          0,
          0,
          0,
          0,
          0,
          0,
          0,
          0,
          0,
          0,
          0,
          0,
          0,
          0,
          0,
          0,
          0,
          0,
          0,
          0,
          0,
          0,
          0,
          0,
          0,
          0,
          0,
          0,
          0,
          0,
          0,
          0,
          0,
          0,
          0,
          0,
          0,
          0,
          0,
          0,
          0,
          0,
          0,
          0,
          0,
          0,
          0,
          0,
          0,
          0,
          0,
          0,
          0
        ],
        "trees": [
          {
            "base_weights": [
              -0.0001690104
            ],
            "categories": [],
            "categories_nodes": [],
            "categories_segments": [],
            "categories_sizes": [],
            "default_left": [
              0
            ],
            "id": 0,
            "left_children": [
              -1
            ],
            "loss_changes": [
              0
            ],
            "parents": [
              2147483647
            ],
            "right_children": [
              -1
            ],
            "split_conditions": [
              -0.00000845052
            ],
            "split_indices": [
              0
            ],
            "split_type": [
              0
            ],
            "sum_hessian": [
              61
            ],
            "tree_param": {
              "num_deleted": "0",
              "num_feature": "6",
              "num_nodes": "1",
              "size_leaf_vector": "1"
            }
          },
          {
            "base_weights": [
              0.00005287021
            ],
            "categories": [],
            "categories_nodes": [],
            "categories_segments": [],
            "categories_sizes": [],
            "default_left": [
              0
            ],
            "id": 1,
            "left_children": [
              -1
            ],
            "loss_changes": [
              0
            ],
            "parents": [
              2147483647
            ],
            "right_children": [
              -1
            ],
            "split_conditions": [
              0.0000026435107
            ],
            "split_indices": [
              0
            ],
            "split_type": [
              0
            ],
            "sum_hessian": [
              65
            ],
            "tree_param": {
              "num_deleted": "0",
              "num_feature": "6",
              "num_nodes": "1",
              "size_leaf_vector": "1"
            }
          },
          {
            "base_weights": [
              -0.00026098627
            ],
            "categories": [],
            "categories_nodes": [],
            "categories_segments": [],
            "categories_sizes": [],
            "default_left": [
              0
            ],
            "id": 2,
            "left_children": [
              -1
            ],
            "loss_changes": [
              0
            ],
            "parents": [
              2147483647
            ],
            "right_children": [
              -1
            ],
            "split_conditions": [
              -0.000013049314
            ],
            "split_indices": [
              0
            ],
            "split_type": [
              0
            ],
            "sum_hessian": [
              59
            ],
            "tree_param": {
              "num_deleted": "0",
              "num_feature": "6",
              "num_nodes": "1",
              "size_leaf_vector": "1"
            }
          },
          {
            "base_weights": [
              -0.00010975514
            ],
            "categories": [],
            "categories_nodes": [],
            "categories_segments": [],
            "categories_sizes": [],
            "default_left": [
              0
            ],
            "id": 3,
            "left_children": [
              -1
            ],
            "loss_changes": [
              0
            ],
            "parents": [
              2147483647
            ],
            "right_children": [
              -1
            ],
            "split_conditions": [
              -0.0000054877573
            ],
            "split_indices": [
              0
            ],
            "split_type": [
              0
            ],
            "sum_hessian": [
              68
            ],
            "tree_param": {
              "num_deleted": "0",
              "num_feature": "6",
              "num_nodes": "1",
              "size_leaf_vector": "1"
            }
          },
          {
            "base_weights": [
              -0.000088653935
            ],
            "categories": [],
            "categories_nodes": [],
            "categories_segments": [],
            "categories_sizes": [],
            "default_left": [
              0
            ],
            "id": 4,
            "left_children": [
              -1
            ],
            "loss_changes": [
              0
            ],
            "parents": [
              2147483647
            ],
            "right_children": [
              -1
            ],
            "split_conditions": [
              -0.0000044326966
            ],
            "split_indices": [
              0
            ],
            "split_type": [
              0
            ],
            "sum_hessian": [
              69
            ],
            "tree_param": {
              "num_deleted": "0",
              "num_feature": "6",
              "num_nodes": "1",
              "size_leaf_vector": "1"
            }
          },
          {
            "base_weights": [
              -0.00012495904
            ],
            "categories": [],
            "categories_nodes": [],
            "categories_segments": [],
            "categories_sizes": [],
            "default_left": [
              0
            ],
            "id": 5,
            "left_children": [
              -1
            ],
            "loss_changes": [
              0
            ],
            "parents": [
              2147483647
            ],
            "right_children": [
              -1
            ],
            "split_conditions": [
              -0.000006247952
            ],
            "split_indices": [
              0
            ],
            "split_type": [
              0
            ],
            "sum_hessian": [
              69
            ],
            "tree_param": {
              "num_deleted": "0",
              "num_feature": "6",
              "num_nodes": "1",
              "size_leaf_vector": "1"
            }
          },
          {
            "base_weights": [
              -0.00010746542
            ],
            "categories": [],
            "categories_nodes": [],
            "categories_segments": [],
            "categories_sizes": [],
            "default_left": [
              0
            ],
            "id": 6,
            "left_children": [
              -1
            ],
            "loss_changes": [
              0
            ],
            "parents": [
              2147483647
            ],
            "right_children": [
              -1
            ],
            "split_conditions": [
              -0.000005373271
            ],
            "split_indices": [
              0
            ],
            "split_type": [
              0
            ],
            "sum_hessian": [
              66
            ],
            "tree_param": {
              "num_deleted": "0",
              "num_feature": "6",
              "num_nodes": "1",
              "size_leaf_vector": "1"
            }
          },
          {
            "base_weights": [
              -0.000018274082
            ],
            "categories": [],
            "categories_nodes": [],
            "categories_segments": [],
            "categories_sizes": [],
            "default_left": [
              0
            ],
            "id": 7,
            "left_children": [
              -1
            ],
            "loss_changes": [
              0
            ],
            "parents": [
              2147483647
            ],
            "right_children": [
              -1
            ],
            "split_conditions": [
              -9.137041E-7
            ],
            "split_indices": [
              0
            ],
            "split_type": [
              0
            ],
            "sum_hessian": [
              66
            ],
            "tree_param": {
              "num_deleted": "0",
              "num_feature": "6",
              "num_nodes": "1",
              "size_leaf_vector": "1"
            }
          },
          {
            "base_weights": [
              -0.0004608263
            ],
            "categories": [],
            "categories_nodes": [],
            "categories_segments": [],
            "categories_sizes": [],
            "default_left": [
              0
            ],
            "id": 8,
            "left_children": [
              -1
            ],
            "loss_changes": [
              0
            ],
            "parents": [
              2147483647
            ],
            "right_children": [
              -1
            ],
            "split_conditions": [
              -0.000023041315
            ],
            "split_indices": [
              0
            ],
            "split_type": [
              0
            ],
            "sum_hessian": [
              66
            ],
            "tree_param": {
              "num_deleted": "0",
              "num_feature": "6",
              "num_nodes": "1",
              "size_leaf_vector": "1"
            }
          },
          {
            "base_weights": [
              -0.00010278383
            ],
            "categories": [],
            "categories_nodes": [],
            "categories_segments": [],
            "categories_sizes": [],
            "default_left": [
              0
            ],
            "id": 9,
            "left_children": [
              -1
            ],
            "loss_changes": [
              0
            ],
            "parents": [
              2147483647
            ],
            "right_children": [
              -1
            ],
            "split_conditions": [
              -0.0000051391917
            ],
            "split_indices": [
              0
            ],
            "split_type": [
              0
            ],
            "sum_hessian": [
              66
            ],
            "tree_param": {
              "num_deleted": "0",
              "num_feature": "6",
              "num_nodes": "1",
              "size_leaf_vector": "1"
            }
          },
          {
            "base_weights": [
              -0.0000483195
            ],
            "categories": [],
            "categories_nodes": [],
            "categories_segments": [],
            "categories_sizes": [],
            "default_left": [
              0
            ],
            "id": 10,
            "left_children": [
              -1
            ],
            "loss_changes": [
              0
            ],
            "parents": [
              2147483647
            ],
            "right_children": [
              -1
            ],
            "split_conditions": [
              -0.0000024159751
            ],
            "split_indices": [
              0
            ],
            "split_type": [
              0
            ],
            "sum_hessian": [
              7E+1
            ],
            "tree_param": {
              "num_deleted": "0",
              "num_feature": "6",
              "num_nodes": "1",
              "size_leaf_vector": "1"
            }
          },
          {
            "base_weights": [
              -0.000055394066
            ],
            "categories": [],
            "categories_nodes": [],
            "categories_segments": [],
            "categories_sizes": [],
            "default_left": [
              0
            ],
            "id": 11,
            "left_children": [
              -1
            ],
            "loss_changes": [
              0
            ],
            "parents": [
              2147483647
            ],
            "right_children": [
              -1
            ],
            "split_conditions": [
              -0.0000027697033
            ],
            "split_indices": [
              0
            ],
            "split_type": [
              0
            ],
            "sum_hessian": [
              65
            ],
            "tree_param": {
              "num_deleted": "0",
              "num_feature": "6",
              "num_nodes": "1",
              "size_leaf_vector": "1"
            }
          },
          {
            "base_weights": [
              -0.000070021226
            ],
            "categories": [],
            "categories_nodes": [],
            "categories_segments": [],
            "categories_sizes": [],
            "default_left": [
              0
            ],
            "id": 12,
            "left_children": [
              -1
            ],
            "loss_changes": [
              0
            ],
            "parents": [
              2147483647
            ],
            "right_children": [
              -1
            ],
            "split_conditions": [
              -0.0000035010614
            ],
            "split_indices": [
              0
            ],
            "split_type": [
              0
            ],
            "sum_hessian": [
              65
            ],
            "tree_param": {
              "num_deleted": "0",
              "num_feature": "6",
              "num_nodes": "1",
              "size_leaf_vector": "1"
            }
          },
          {
            "base_weights": [
              0.00017183388
            ],
            "categories": [],
            "categories_nodes": [],
            "categories_segments": [],
            "categories_sizes": [],
            "default_left": [
              0
            ],
            "id": 13,
            "left_children": [
              -1
            ],
            "loss_changes": [
              0
            ],
            "parents": [
              2147483647
            ],
            "right_children": [
              -1
            ],
            "split_conditions": [
              0.000008591694
            ],
            "split_indices": [
              0
            ],
            "split_type": [
              0
            ],
            "sum_hessian": [
              64
            ],
            "tree_param": {
              "num_deleted": "0",
              "num_feature": "6",
              "num_nodes": "1",
              "size_leaf_vector": "1"
            }
          },
          {
            "base_weights": [
              0.00023790055
            ],
            "categories": [],
            "categories_nodes": [],
            "categories_segments": [],
            "categories_sizes": [],
            "default_left": [
              0
            ],
            "id": 14,
            "left_children": [
              -1
            ],
            "loss_changes": [
              0
            ],
            "parents": [
              2147483647
            ],
            "right_children": [
              -1
            ],
            "split_conditions": [
              0.0000118950275
            ],
            "split_indices": [
              0
            ],
            "split_type": [
              0
            ],
            "sum_hessian": [
              66
            ],
            "tree_param": {
              "num_deleted": "0",
              "num_feature": "6",
              "num_nodes": "1",
              "size_leaf_vector": "1"
            }
          },
          {
            "base_weights": [
              -0.00007479778
            ],
            "categories": [],
            "categories_nodes": [],
            "categories_segments": [],
            "categories_sizes": [],
            "default_left": [
              0
            ],
            "id": 15,
            "left_children": [
              -1
            ],
            "loss_changes": [
              0
            ],
            "parents": [
              2147483647
            ],
            "right_children": [
              -1
            ],
            "split_conditions": [
              -0.0000037398893
            ],
            "split_indices": [
              0
            ],
            "split_type": [
              0
            ],
            "sum_hessian": [
              67
            ],
            "tree_param": {
              "num_deleted": "0",
              "num_feature": "6",
              "num_nodes": "1",
              "size_leaf_vector": "1"
            }
          },
          {
            "base_weights": [
              -0.00011987961
            ],
            "categories": [],
            "categories_nodes": [],
            "categories_segments": [],
            "categories_sizes": [],
            "default_left": [
              0
            ],
            "id": 16,
            "left_children": [
              -1
            ],
            "loss_changes": [
              0
            ],
            "parents": [
              2147483647
            ],
            "right_children": [
              -1
            ],
            "split_conditions": [
              -0.0000059939807
            ],
            "split_indices": [
              0
            ],
            "split_type": [
              0
            ],
            "sum_hessian": [
              63
            ],
            "tree_param": {
              "num_deleted": "0",
              "num_feature": "6",
              "num_nodes": "1",
              "size_leaf_vector": "1"
            }
          },
          {
            "base_weights": [
              0.00002986101
            ],
            "categories": [],
            "categories_nodes": [],
            "categories_segments": [],
            "categories_sizes": [],
            "default_left": [
              0
            ],
            "id": 17,
            "left_children": [
              -1
            ],
            "loss_changes": [
              0
            ],
            "parents": [
              2147483647
            ],
            "right_children": [
              -1
            ],
            "split_conditions": [
              0.0000014930505
            ],
            "split_indices": [
              0
            ],
            "split_type": [
              0
            ],
            "sum_hessian": [
              63
            ],
            "tree_param": {
              "num_deleted": "0",
              "num_feature": "6",
              "num_nodes": "1",
              "size_leaf_vector": "1"
            }
          },
          {
            "base_weights": [
              0.00014051107
            ],
            "categories": [],
            "categories_nodes": [],
            "categories_segments": [],
            "categories_sizes": [],
            "default_left": [
              0
            ],
            "id": 18,
            "left_children": [
              -1
            ],
            "loss_changes": [
              0
            ],
            "parents": [
              2147483647
            ],
            "right_children": [
              -1
            ],
            "split_conditions": [
              0.0000070255533
            ],
            "split_indices": [
              0
            ],
            "split_type": [
              0
            ],
            "sum_hessian": [
              63
            ],
            "tree_param": {
              "num_deleted": "0",
              "num_feature": "6",
              "num_nodes": "1",
              "size_leaf_vector": "1"
            }
          },
          {
            "base_weights": [
              -0.0004492339
            ],
            "categories": [],
            "categories_nodes": [],
            "categories_segments": [],
            "categories_sizes": [],
            "default_left": [
              0
            ],
            "id": 19,
            "left_children": [
              -1
            ],
            "loss_changes": [
              0
            ],
            "parents": [
              2147483647
            ],
            "right_children": [
              -1
            ],
            "split_conditions": [
              -0.000022461694
            ],
            "split_indices": [
              0
            ],
            "split_type": [
              0
            ],
            "sum_hessian": [
              64
            ],
            "tree_param": {
              "num_deleted": "0",
              "num_feature": "6",
              "num_nodes": "1",
              "size_leaf_vector": "1"
            }
          },
          {
            "base_weights": [
              0.00051575305
            ],
            "categories": [],
            "categories_nodes": [],
            "categories_segments": [],
            "categories_sizes": [],
            "default_left": [
              0
            ],
            "id": 20,
            "left_children": [
              -1
            ],
            "loss_changes": [
              0
            ],
            "parents": [
              2147483647
            ],
            "right_children": [
              -1
            ],
            "split_conditions": [
              0.000025787653
            ],
            "split_indices": [
              0
            ],
            "split_type": [
              0
            ],
            "sum_hessian": [
              68
            ],
            "tree_param": {
              "num_deleted": "0",
              "num_feature": "6",
              "num_nodes": "1",
              "size_leaf_vector": "1"
            }
          },
          {
            "base_weights": [
              -0.00016317403
            ],
            "categories": [],
            "categories_nodes": [],
            "categories_segments": [],
            "categories_sizes": [],
            "default_left": [
              0
            ],
            "id": 21,
            "left_children": [
              -1
            ],
            "loss_changes": [
              0
            ],
            "parents": [
              2147483647
            ],
            "right_children": [
              -1
            ],
            "split_conditions": [
              -0.000008158701
            ],
            "split_indices": [
              0
            ],
            "split_type": [
              0
            ],
            "sum_hessian": [
              64
            ],
            "tree_param": {
              "num_deleted": "0",
              "num_feature": "6",
              "num_nodes": "1",
              "size_leaf_vector": "1"
            }
          },
          {
            "base_weights": [
              0.00025995236
            ],
            "categories": [],
            "categories_nodes": [],
            "categories_segments": [],
            "categories_sizes": [],
            "default_left": [
              0
            ],
            "id": 22,
            "left_children": [
              -1
            ],
            "loss_changes": [
              0
            ],
            "parents": [
              2147483647
            ],
            "right_children": [
              -1
            ],
            "split_conditions": [
              0.000012997618
            ],
            "split_indices": [
              0
            ],
            "split_type": [
              0
            ],
            "sum_hessian": [
              63
            ],
            "tree_param": {
              "num_deleted": "0",
              "num_feature": "6",
              "num_nodes": "1",
              "size_leaf_vector": "1"
            }
          },
          {
            "base_weights": [
              0.0001063356
            ],
            "categories": [],
            "categories_nodes": [],
            "categories_segments": [],
            "categories_sizes": [],
            "default_left": [
              0
            ],
            "id": 23,
            "left_children": [
              -1
            ],
            "loss_changes": [
              0
            ],
            "parents": [
              2147483647
            ],
            "right_children": [
              -1
            ],
            "split_conditions": [
              0.00000531678
            ],
            "split_indices": [
              0
            ],
            "split_type": [
              0
            ],
            "sum_hessian": [
              63
            ],
            "tree_param": {
              "num_deleted": "0",
              "num_feature": "6",
              "num_nodes": "1",
              "size_leaf_vector": "1"
            }
          },
          {
            "base_weights": [
              0.00048550474
            ],
            "categories": [],
            "categories_nodes": [],
            "categories_segments": [],
            "categories_sizes": [],
            "default_left": [
              0
            ],
            "id": 24,
            "left_children": [
              -1
            ],
            "loss_changes": [
              0
            ],
            "parents": [
              2147483647
            ],
            "right_children": [
              -1
            ],
            "split_conditions": [
              0.000024275238
            ],
            "split_indices": [
              0
            ],
            "split_type": [
              0
            ],
            "sum_hessian": [
              65
            ],
            "tree_param": {
              "num_deleted": "0",
              "num_feature": "6",
              "num_nodes": "1",
              "size_leaf_vector": "1"
            }
          },
          {
            "base_weights": [
              0.000009891703
            ],
            "categories": [],
            "categories_nodes": [],
            "categories_segments": [],
            "categories_sizes": [],
            "default_left": [
              0
            ],
            "id": 25,
            "left_children": [
              -1
            ],
            "loss_changes": [
              0
            ],
            "parents": [
              2147483647
            ],
            "right_children": [
              -1
            ],
            "split_conditions": [
              4.9458515E-7
            ],
            "split_indices": [
              0
            ],
            "split_type": [
              0
            ],
            "sum_hessian": [
              65
            ],
            "tree_param": {
              "num_deleted": "0",
              "num_feature": "6",
              "num_nodes": "1",
              "size_leaf_vector": "1"
            }
          },
          {
            "base_weights": [
              -0.000072131705
            ],
            "categories": [],
            "categories_nodes": [],
            "categories_segments": [],
            "categories_sizes": [],
            "default_left": [
              0
            ],
            "id": 26,
            "left_children": [
              -1
            ],
            "loss_changes": [
              0
            ],
            "parents": [
              2147483647
            ],
            "right_children": [
              -1
            ],
            "split_conditions": [
              -0.0000036065853
            ],
            "split_indices": [
              0
            ],
            "split_type": [
              0
            ],
            "sum_hessian": [
              63
            ],
            "tree_param": {
              "num_deleted": "0",
              "num_feature": "6",
              "num_nodes": "1",
              "size_leaf_vector": "1"
            }
          },
          {
            "base_weights": [
              0.00039167295
            ],
            "categories": [],
            "categories_nodes": [],
            "categories_segments": [],
            "categories_sizes": [],
            "default_left": [
              0
            ],
            "id": 27,
            "left_children": [
              -1
            ],
            "loss_changes": [
              0
            ],
            "parents": [
              2147483647
            ],
            "right_children": [
              -1
            ],
            "split_conditions": [
              0.000019583647
            ],
            "split_indices": [
              0
            ],
            "split_type": [
              0
            ],
            "sum_hessian": [
              64
            ],
            "tree_param": {
              "num_deleted": "0",
              "num_feature": "6",
              "num_nodes": "1",
              "size_leaf_vector": "1"
            }
          },
          {
            "base_weights": [
              -0.00041130092
            ],
            "categories": [],
            "categories_nodes": [],
            "categories_segments": [],
            "categories_sizes": [],
            "default_left": [
              0
            ],
            "id": 28,
            "left_children": [
              -1
            ],
            "loss_changes": [
              0
            ],
            "parents": [
              2147483647
            ],
            "right_children": [
              -1
            ],
            "split_conditions": [
              -0.000020565047
            ],
            "split_indices": [
              0
            ],
            "split_type": [
              0
            ],
            "sum_hessian": [
              62
            ],
            "tree_param": {
              "num_deleted": "0",
              "num_feature": "6",
              "num_nodes": "1",
              "size_leaf_vector": "1"
            }
          },
          {
            "base_weights": [
              -0.00030578586
            ],
            "categories": [],
            "categories_nodes": [],
            "categories_segments": [],
            "categories_sizes": [],
            "default_left": [
              0
            ],
            "id": 29,
            "left_children": [
              -1
            ],
            "loss_changes": [
              0
            ],
            "parents": [
              2147483647
            ],
            "right_children": [
              -1
            ],
            "split_conditions": [
              -0.000015289294
            ],
            "split_indices": [
              0
            ],
            "split_type": [
              0
            ],
            "sum_hessian": [
              66
            ],
            "tree_param": {
              "num_deleted": "0",
              "num_feature": "6",
              "num_nodes": "1",
              "size_leaf_vector": "1"
            }
          },
          {
            "base_weights": [
              0.00022990564
            ],
            "categories": [],
            "categories_nodes": [],
            "categories_segments": [],
            "categories_sizes": [],
            "default_left": [
              0
            ],
            "id": 30,
            "left_children": [
              -1
            ],
            "loss_changes": [
              0
            ],
            "parents": [
              2147483647
            ],
            "right_children": [
              -1
            ],
            "split_conditions": [
              0.000011495282
            ],
            "split_indices": [
              0
            ],
            "split_type": [
              0
            ],
            "sum_hessian": [
              66
            ],
            "tree_param": {
              "num_deleted": "0",
              "num_feature": "6",
              "num_nodes": "1",
              "size_leaf_vector": "1"
            }
          },
          {
            "base_weights": [
              -0.00028451512
            ],
            "categories": [],
            "categories_nodes": [],
            "categories_segments": [],
            "categories_sizes": [],
            "default_left": [
              0
            ],
            "id": 31,
            "left_children": [
              -1
            ],
            "loss_changes": [
              0
            ],
            "parents": [
              2147483647
            ],
            "right_children": [
              -1
            ],
            "split_conditions": [
              -0.000014225756
            ],
            "split_indices": [
              0
            ],
            "split_type": [
              0
            ],
            "sum_hessian": [
              68
            ],
            "tree_param": {
              "num_deleted": "0",
              "num_feature": "6",
              "num_nodes": "1",
              "size_leaf_vector": "1"
            }
          },
          {
            "base_weights": [
              0.0005169537
            ],
            "categories": [],
            "categories_nodes": [],
            "categories_segments": [],
            "categories_sizes": [],
            "default_left": [
              0
            ],
            "id": 32,
            "left_children": [
              -1
            ],
            "loss_changes": [
              0
            ],
            "parents": [
              2147483647
            ],
            "right_children": [
              -1
            ],
            "split_conditions": [
              0.000025847685
            ],
            "split_indices": [
              0
            ],
            "split_type": [
              0
            ],
            "sum_hessian": [
              66
            ],
            "tree_param": {
              "num_deleted": "0",
              "num_feature": "6",
              "num_nodes": "1",
              "size_leaf_vector": "1"
            }
          },
          {
            "base_weights": [
              -0.00010442906
            ],
            "categories": [],
            "categories_nodes": [],
            "categories_segments": [],
            "categories_sizes": [],
            "default_left": [
              0
            ],
            "id": 33,
            "left_children": [
              -1
            ],
            "loss_changes": [
              0
            ],
            "parents": [
              2147483647
            ],
            "right_children": [
              -1
            ],
            "split_conditions": [
              -0.000005221453
            ],
            "split_indices": [
              0
            ],
            "split_type": [
              0
            ],
            "sum_hessian": [
              67
            ],
            "tree_param": {
              "num_deleted": "0",
              "num_feature": "6",
              "num_nodes": "1",
              "size_leaf_vector": "1"
            }
          },
          {
            "base_weights": [
              0.000025279705
            ],
            "categories": [],
            "categories_nodes": [],
            "categories_segments": [],
            "categories_sizes": [],
            "default_left": [
              0
            ],
            "id": 34,
            "left_children": [
              -1
            ],
            "loss_changes": [
              0
            ],
            "parents": [
              2147483647
            ],
            "right_children": [
              -1
            ],
            "split_conditions": [
              0.0000012639853
            ],
            "split_indices": [
              0
            ],
            "split_type": [
              0
            ],
            "sum_hessian": [
              63
            ],
            "tree_param": {
              "num_deleted": "0",
              "num_feature": "6",
              "num_nodes": "1",
              "size_leaf_vector": "1"
            }
          },
          {
            "base_weights": [
              0.0000063575367
            ],
            "categories": [],
            "categories_nodes": [],
            "categories_segments": [],
            "categories_sizes": [],
            "default_left": [
              0
            ],
            "id": 35,
            "left_children": [
              -1
            ],
            "loss_changes": [
              0
            ],
            "parents": [
              2147483647
            ],
            "right_children": [
              -1
            ],
            "split_conditions": [
              3.1787684E-7
            ],
            "split_indices": [
              0
            ],
            "split_type": [
              0
            ],
            "sum_hessian": [
              66
            ],
            "tree_param": {
              "num_deleted": "0",
              "num_feature": "6",
              "num_nodes": "1",
              "size_leaf_vector": "1"
            }
          },
          {
            "base_weights": [
              0.00052652095
            ],
            "categories": [],
            "categories_nodes": [],
            "categories_segments": [],
            "categories_sizes": [],
            "default_left": [
              0
            ],
            "id": 36,
            "left_children": [
              -1
            ],
            "loss_changes": [
              0
            ],
            "parents": [
              2147483647
            ],
            "right_children": [
              -1
            ],
            "split_conditions": [
              0.000026326048
            ],
            "split_indices": [
              0
            ],
            "split_type": [
              0
            ],
            "sum_hessian": [
              61
            ],
            "tree_param": {
              "num_deleted": "0",
              "num_feature": "6",
              "num_nodes": "1",
              "size_leaf_vector": "1"
            }
          },
          {
            "base_weights": [
              -0.00012354057
            ],
            "categories": [],
            "categories_nodes": [],
            "categories_segments": [],
            "categories_sizes": [],
            "default_left": [
              0
            ],
            "id": 37,
            "left_children": [
              -1
            ],
            "loss_changes": [
              0
            ],
            "parents": [
              2147483647
            ],
            "right_children": [
              -1
            ],
            "split_conditions": [
              -0.0000061770284
            ],
            "split_indices": [
              0
            ],
            "split_type": [
              0
            ],
            "sum_hessian": [
              67
            ],
            "tree_param": {
              "num_deleted": "0",
              "num_feature": "6",
              "num_nodes": "1",
              "size_leaf_vector": "1"
            }
          },
          {
            "base_weights": [
              -0.00010188248
            ],
            "categories": [],
            "categories_nodes": [],
            "categories_segments": [],
            "categories_sizes": [],
            "default_left": [
              0
            ],
            "id": 38,
            "left_children": [
              -1
            ],
            "loss_changes": [
              0
            ],
            "parents": [
              2147483647
            ],
            "right_children": [
              -1
            ],
            "split_conditions": [
              -0.000005094124
            ],
            "split_indices": [
              0
            ],
            "split_type": [
              0
            ],
            "sum_hessian": [
              67
            ],
            "tree_param": {
              "num_deleted": "0",
              "num_feature": "6",
              "num_nodes": "1",
              "size_leaf_vector": "1"
            }
          },
          {
            "base_weights": [
              0.00064250827
            ],
            "categories": [],
            "categories_nodes": [],
            "categories_segments": [],
            "categories_sizes": [],
            "default_left": [
              0
            ],
            "id": 39,
            "left_children": [
              -1
            ],
            "loss_changes": [
              0
            ],
            "parents": [
              2147483647
            ],
            "right_children": [
              -1
            ],
            "split_conditions": [
              0.000032125416
            ],
            "split_indices": [
              0
            ],
            "split_type": [
              0
            ],
            "sum_hessian": [
              66
            ],
            "tree_param": {
              "num_deleted": "0",
              "num_feature": "6",
              "num_nodes": "1",
              "size_leaf_vector": "1"
            }
          },
          {
            "base_weights": [
              0.0000740198
            ],
            "categories": [],
            "categories_nodes": [],
            "categories_segments": [],
            "categories_sizes": [],
            "default_left": [
              0
            ],
            "id": 40,
            "left_children": [
              -1
            ],
            "loss_changes": [
              0
            ],
            "parents": [
              2147483647
            ],
            "right_children": [
              -1
            ],
            "split_conditions": [
              0.0000037009902
            ],
            "split_indices": [
              0
            ],
            "split_type": [
              0
            ],
            "sum_hessian": [
              63
            ],
            "tree_param": {
              "num_deleted": "0",
              "num_feature": "6",
              "num_nodes": "1",
              "size_leaf_vector": "1"
            }
          },
          {
            "base_weights": [
              -0.00021217907
            ],
            "categories": [],
            "categories_nodes": [],
            "categories_segments": [],
            "categories_sizes": [],
            "default_left": [
              0
            ],
            "id": 41,
            "left_children": [
              -1
            ],
            "loss_changes": [
              0
            ],
            "parents": [
              2147483647
            ],
            "right_children": [
              -1
            ],
            "split_conditions": [
              -0.000010608954
            ],
            "split_indices": [
              0
            ],
            "split_type": [
              0
            ],
            "sum_hessian": [
              6E+1
            ],
            "tree_param": {
              "num_deleted": "0",
              "num_feature": "6",
              "num_nodes": "1",
              "size_leaf_vector": "1"
            }
          },
          {
            "base_weights": [
              -0.00021033501
            ],
            "categories": [],
            "categories_nodes": [],
            "categories_segments": [],
            "categories_sizes": [],
            "default_left": [
              0
            ],
            "id": 42,
            "left_children": [
              -1
            ],
            "loss_changes": [
              0
            ],
            "parents": [
              2147483647
            ],
            "right_children": [
              -1
            ],
            "split_conditions": [
              -0.000010516751
            ],
            "split_indices": [
              0
            ],
            "split_type": [
              0
            ],
            "sum_hessian": [
              65
            ],
            "tree_param": {
              "num_deleted": "0",
              "num_feature": "6",
              "num_nodes": "1",
              "size_leaf_vector": "1"
            }
          },
          {
            "base_weights": [
              -0.00016818028
            ],
            "categories": [],
            "categories_nodes": [],
            "categories_segments": [],
            "categories_sizes": [],
            "default_left": [
              0
            ],
            "id": 43,
            "left_children": [
              -1
            ],
            "loss_changes": [
              0
            ],
            "parents": [
              2147483647
            ],
            "right_children": [
              -1
            ],
            "split_conditions": [
              -0.000008409014
            ],
            "split_indices": [
              0
            ],
            "split_type": [
              0
            ],
            "sum_hessian": [
              65
            ],
            "tree_param": {
              "num_deleted": "0",
              "num_feature": "6",
              "num_nodes": "1",
              "size_leaf_vector": "1"
            }
          },
          {
            "base_weights": [
              0.000029882389
            ],
            "categories": [],
            "categories_nodes": [],
            "categories_segments": [],
            "categories_sizes": [],
            "default_left": [
              0
            ],
            "id": 44,
            "left_children": [
              -1
            ],
            "loss_changes": [
              0
            ],
            "parents": [
              2147483647
            ],
            "right_children": [
              -1
            ],
            "split_conditions": [
              0.0000014941195
            ],
            "split_indices": [
              0
            ],
            "split_type": [
              0
            ],
            "sum_hessian": [
              65
            ],
            "tree_param": {
              "num_deleted": "0",
              "num_feature": "6",
              "num_nodes": "1",
              "size_leaf_vector": "1"
            }
          },
          {
            "base_weights": [
              -0.00046949615
            ],
            "categories": [],
            "categories_nodes": [],
            "categories_segments": [],
            "categories_sizes": [],
            "default_left": [
              0
            ],
            "id": 45,
            "left_children": [
              -1
            ],
            "loss_changes": [
              0
            ],
            "parents": [
              2147483647
            ],
            "right_children": [
              -1
            ],
            "split_conditions": [
              -0.000023474808
            ],
            "split_indices": [
              0
            ],
            "split_type": [
              0
            ],
            "sum_hessian": [
              66
            ],
            "tree_param": {
              "num_deleted": "0",
              "num_feature": "6",
              "num_nodes": "1",
              "size_leaf_vector": "1"
            }
          },
          {
            "base_weights": [
              -0.000099615376
            ],
            "categories": [],
            "categories_nodes": [],
            "categories_segments": [],
            "categories_sizes": [],
            "default_left": [
              0
            ],
            "id": 46,
            "left_children": [
              -1
            ],
            "loss_changes": [
              0
            ],
            "parents": [
              2147483647
            ],
            "right_children": [
              -1
            ],
            "split_conditions": [
              -0.000004980769
            ],
            "split_indices": [
              0
            ],
            "split_type": [
              0
            ],
            "sum_hessian": [
              65
            ],
            "tree_param": {
              "num_deleted": "0",
              "num_feature": "6",
              "num_nodes": "1",
              "size_leaf_vector": "1"
            }
          },
          {
            "base_weights": [
              -0.000007258012
            ],
            "categories": [],
            "categories_nodes": [],
            "categories_segments": [],
            "categories_sizes": [],
            "default_left": [
              0
            ],
            "id": 47,
            "left_children": [
              -1
            ],
            "loss_changes": [
              0
            ],
            "parents": [
              2147483647
            ],
            "right_children": [
              -1
            ],
            "split_conditions": [
              -3.629006E-7
            ],
            "split_indices": [
              0
            ],
            "split_type": [
              0
            ],
            "sum_hessian": [
              63
            ],
            "tree_param": {
              "num_deleted": "0",
              "num_feature": "6",
              "num_nodes": "1",
              "size_leaf_vector": "1"
            }
          },
          {
            "base_weights": [
              -0.0001463258
            ],
            "categories": [],
            "categories_nodes": [],
            "categories_segments": [],
            "categories_sizes": [],
            "default_left": [
              0
            ],
            "id": 48,
            "left_children": [
              -1
            ],
            "loss_changes": [
              0
            ],
            "parents": [
              2147483647
            ],
            "right_children": [
              -1
            ],
            "split_conditions": [
              -0.0000073162896
            ],
            "split_indices": [
              0
            ],
            "split_type": [
              0
            ],
            "sum_hessian": [
              64
            ],
            "tree_param": {
              "num_deleted": "0",
              "num_feature": "6",
              "num_nodes": "1",
              "size_leaf_vector": "1"
            }
          },
          {
            "base_weights": [
              0.000025737285
            ],
            "categories": [],
            "categories_nodes": [],
            "categories_segments": [],
            "categories_sizes": [],
            "default_left": [
              0
            ],
            "id": 49,
            "left_children": [
              -1
            ],
            "loss_changes": [
              0
            ],
            "parents": [
              2147483647
            ],
            "right_children": [
              -1
            ],
            "split_conditions": [
              0.0000012868643
            ],
            "split_indices": [
              0
            ],
            "split_type": [
              0
            ],
            "sum_hessian": [
              68
            ],
            "tree_param": {
              "num_deleted": "0",
              "num_feature": "6",
              "num_nodes": "1",
              "size_leaf_vector": "1"
            }
          },
          {
            "base_weights": [
              0.000076906006
            ],
            "categories": [],
            "categories_nodes": [],
            "categories_segments": [],
            "categories_sizes": [],
            "default_left": [
              0
            ],
            "id": 50,
            "left_children": [
              -1
            ],
            "loss_changes": [
              0
            ],
            "parents": [
              2147483647
            ],
            "right_children": [
              -1
            ],
            "split_conditions": [
              0.0000038453004
            ],
            "split_indices": [
              0
            ],
            "split_type": [
              0
            ],
            "sum_hessian": [
              65
            ],
            "tree_param": {
              "num_deleted": "0",
              "num_feature": "6",
              "num_nodes": "1",
              "size_leaf_vector": "1"
            }
          },
          {
            "base_weights": [
              0.00021529624
            ],
            "categories": [],
            "categories_nodes": [],
            "categories_segments": [],
            "categories_sizes": [],
            "default_left": [
              0
            ],
            "id": 51,
            "left_children": [
              -1
            ],
            "loss_changes": [
              0
            ],
            "parents": [
              2147483647
            ],
            "right_children": [
              -1
            ],
            "split_conditions": [
              0.000010764812
            ],
            "split_indices": [
              0
            ],
            "split_type": [
              0
            ],
            "sum_hessian": [
              68
            ],
            "tree_param": {
              "num_deleted": "0",
              "num_feature": "6",
              "num_nodes": "1",
              "size_leaf_vector": "1"
            }
          },
          {
            "base_weights": [
              -0.00019267504
            ],
            "categories": [],
            "categories_nodes": [],
            "categories_segments": [],
            "categories_sizes": [],
            "default_left": [
              0
            ],
            "id": 52,
            "left_children": [
              -1
            ],
            "loss_changes": [
              0
            ],
            "parents": [
              2147483647
            ],
            "right_children": [
              -1
            ],
            "split_conditions": [
              -0.000009633753
            ],
            "split_indices": [
              0
            ],
            "split_type": [
              0
            ],
            "sum_hessian": [
              67
            ],
            "tree_param": {
              "num_deleted": "0",
              "num_feature": "6",
              "num_nodes": "1",
              "size_leaf_vector": "1"
            }
          },
          {
            "base_weights": [
              -0.00030914825
            ],
            "categories": [],
            "categories_nodes": [],
            "categories_segments": [],
            "categories_sizes": [],
            "default_left": [
              0
            ],
            "id": 53,
            "left_children": [
              -1
            ],
            "loss_changes": [
              0
            ],
            "parents": [
              2147483647
            ],
            "right_children": [
              -1
            ],
            "split_conditions": [
              -0.000015457414
            ],
            "split_indices": [
              0
            ],
            "split_type": [
              0
            ],
            "sum_hessian": [
              66
            ],
            "tree_param": {
              "num_deleted": "0",
              "num_feature": "6",
              "num_nodes": "1",
              "size_leaf_vector": "1"
            }
          },
          {
            "base_weights": [
              -0.0002330337
            ],
            "categories": [],
            "categories_nodes": [],
            "categories_segments": [],
            "categories_sizes": [],
            "default_left": [
              0
            ],
            "id": 54,
            "left_children": [
              -1
            ],
            "loss_changes": [
              0
            ],
            "parents": [
              2147483647
            ],
            "right_children": [
              -1
            ],
            "split_conditions": [
              -0.000011651685
            ],
            "split_indices": [
              0
            ],
            "split_type": [
              0
            ],
            "sum_hessian": [
              65
            ],
            "tree_param": {
              "num_deleted": "0",
              "num_feature": "6",
              "num_nodes": "1",
              "size_leaf_vector": "1"
            }
          },
          {
            "base_weights": [
              0.00025018453
            ],
            "categories": [],
            "categories_nodes": [],
            "categories_segments": [],
            "categories_sizes": [],
            "default_left": [
              0
            ],
            "id": 55,
            "left_children": [
              -1
            ],
            "loss_changes": [
              0
            ],
            "parents": [
              2147483647
            ],
            "right_children": [
              -1
            ],
            "split_conditions": [
              0.0000125092265
            ],
            "split_indices": [
              0
            ],
            "split_type": [
              0
            ],
            "sum_hessian": [
              68
            ],
            "tree_param": {
              "num_deleted": "0",
              "num_feature": "6",
              "num_nodes": "1",
              "size_leaf_vector": "1"
            }
          },
          {
            "base_weights": [
              0.00043700842
            ],
            "categories": [],
            "categories_nodes": [],
            "categories_segments": [],
            "categories_sizes": [],
            "default_left": [
              0
            ],
            "id": 56,
            "left_children": [
              -1
            ],
            "loss_changes": [
              0
            ],
            "parents": [
              2147483647
            ],
            "right_children": [
              -1
            ],
            "split_conditions": [
              0.000021850421
            ],
            "split_indices": [
              0
            ],
            "split_type": [
              0
            ],
            "sum_hessian": [
              63
            ],
            "tree_param": {
              "num_deleted": "0",
              "num_feature": "6",
              "num_nodes": "1",
              "size_leaf_vector": "1"
            }
          },
          {
            "base_weights": [
              -0.00028479964
            ],
            "categories": [],
            "categories_nodes": [],
            "categories_segments": [],
            "categories_sizes": [],
            "default_left": [
              0
            ],
            "id": 57,
            "left_children": [
              -1
            ],
            "loss_changes": [
              0
            ],
            "parents": [
              2147483647
            ],
            "right_children": [
              -1
            ],
            "split_conditions": [
              -0.000014239982
            ],
            "split_indices": [
              0
            ],
            "split_type": [
              0
            ],
            "sum_hessian": [
              67
            ],
            "tree_param": {
              "num_deleted": "0",
              "num_feature": "6",
              "num_nodes": "1",
              "size_leaf_vector": "1"
            }
          },
          {
            "base_weights": [
              -0.00056959887
            ],
            "categories": [],
            "categories_nodes": [],
            "categories_segments": [],
            "categories_sizes": [],
            "default_left": [
              0
            ],
            "id": 58,
            "left_children": [
              -1
            ],
            "loss_changes": [
              0
            ],
            "parents": [
              2147483647
            ],
            "right_children": [
              -1
            ],
            "split_conditions": [
              -0.000028479944
            ],
            "split_indices": [
              0
            ],
            "split_type": [
              0
            ],
            "sum_hessian": [
              65
            ],
            "tree_param": {
              "num_deleted": "0",
              "num_feature": "6",
              "num_nodes": "1",
              "size_leaf_vector": "1"
            }
          },
          {
            "base_weights": [
              -0.00014488732
            ],
            "categories": [],
            "categories_nodes": [],
            "categories_segments": [],
            "categories_sizes": [],
            "default_left": [
              0
            ],
            "id": 59,
            "left_children": [
              -1
            ],
            "loss_changes": [
              0
            ],
            "parents": [
              2147483647
            ],
            "right_children": [
              -1
            ],
            "split_conditions": [
              -0.0000072443663
            ],
            "split_indices": [
              0
            ],
            "split_type": [
              0
            ],
            "sum_hessian": [
              65
            ],
            "tree_param": {
              "num_deleted": "0",
              "num_feature": "6",
              "num_nodes": "1",
              "size_leaf_vector": "1"
            }
          },
          {
            "base_weights": [
              -0.0003353495
            ],
            "categories": [],
            "categories_nodes": [],
            "categories_segments": [],
            "categories_sizes": [],
            "default_left": [
              0
            ],
            "id": 60,
            "left_children": [
              -1
            ],
            "loss_changes": [
              0
            ],
            "parents": [
              2147483647
            ],
            "right_children": [
              -1
            ],
            "split_conditions": [
              -0.000016767475
            ],
            "split_indices": [
              0
            ],
            "split_type": [
              0
            ],
            "sum_hessian": [
              63
            ],
            "tree_param": {
              "num_deleted": "0",
              "num_feature": "6",
              "num_nodes": "1",
              "size_leaf_vector": "1"
            }
          },
          {
            "base_weights": [
              0.00076990586
            ],
            "categories": [],
            "categories_nodes": [],
            "categories_segments": [],
            "categories_sizes": [],
            "default_left": [
              0
            ],
            "id": 61,
            "left_children": [
              -1
            ],
            "loss_changes": [
              0
            ],
            "parents": [
              2147483647
            ],
            "right_children": [
              -1
            ],
            "split_conditions": [
              0.000038495295
            ],
            "split_indices": [
              0
            ],
            "split_type": [
              0
            ],
            "sum_hessian": [
              63
            ],
            "tree_param": {
              "num_deleted": "0",
              "num_feature": "6",
              "num_nodes": "1",
              "size_leaf_vector": "1"
            }
          },
          {
            "base_weights": [
              -0.0000033304095
            ],
            "categories": [],
            "categories_nodes": [],
            "categories_segments": [],
            "categories_sizes": [],
            "default_left": [
              0
            ],
            "id": 62,
            "left_children": [
              -1
            ],
            "loss_changes": [
              0
            ],
            "parents": [
              2147483647
            ],
            "right_children": [
              -1
            ],
            "split_conditions": [
              -1.6652048E-7
            ],
            "split_indices": [
              0
            ],
            "split_type": [
              0
            ],
            "sum_hessian": [
              62
            ],
            "tree_param": {
              "num_deleted": "0",
              "num_feature": "6",
              "num_nodes": "1",
              "size_leaf_vector": "1"
            }
          },
          {
            "base_weights": [
              0.00022262335
            ],
            "categories": [],
            "categories_nodes": [],
            "categories_segments": [],
            "categories_sizes": [],
            "default_left": [
              0
            ],
            "id": 63,
            "left_children": [
              -1
            ],
            "loss_changes": [
              0
            ],
            "parents": [
              2147483647
            ],
            "right_children": [
              -1
            ],
            "split_conditions": [
              0.000011131167
            ],
            "split_indices": [
              0
            ],
            "split_type": [
              0
            ],
            "sum_hessian": [
              61
            ],
            "tree_param": {
              "num_deleted": "0",
              "num_feature": "6",
              "num_nodes": "1",
              "size_leaf_vector": "1"
            }
          },
          {
            "base_weights": [
              -0.00020091949
            ],
            "categories": [],
            "categories_nodes": [],
            "categories_segments": [],
            "categories_sizes": [],
            "default_left": [
              0
            ],
            "id": 64,
            "left_children": [
              -1
            ],
            "loss_changes": [
              0
            ],
            "parents": [
              2147483647
            ],
            "right_children": [
              -1
            ],
            "split_conditions": [
              -0.000010045975
            ],
            "split_indices": [
              0
            ],
            "split_type": [
              0
            ],
            "sum_hessian": [
              67
            ],
            "tree_param": {
              "num_deleted": "0",
              "num_feature": "6",
              "num_nodes": "1",
              "size_leaf_vector": "1"
            }
          },
          {
            "base_weights": [
              -0.000056978533
            ],
            "categories": [],
            "categories_nodes": [],
            "categories_segments": [],
            "categories_sizes": [],
            "default_left": [
              0
            ],
            "id": 65,
            "left_children": [
              -1
            ],
            "loss_changes": [
              0
            ],
            "parents": [
              2147483647
            ],
            "right_children": [
              -1
            ],
            "split_conditions": [
              -0.0000028489267
            ],
            "split_indices": [
              0
            ],
            "split_type": [
              0
            ],
            "sum_hessian": [
              66
            ],
            "tree_param": {
              "num_deleted": "0",
              "num_feature": "6",
              "num_nodes": "1",
              "size_leaf_vector": "1"
            }
          },
          {
            "base_weights": [
              0.0002190331
            ],
            "categories": [],
            "categories_nodes": [],
            "categories_segments": [],
            "categories_sizes": [],
            "default_left": [
              0
            ],
            "id": 66,
            "left_children": [
              -1
            ],
            "loss_changes": [
              0
            ],
            "parents": [
              2147483647
            ],
            "right_children": [
              -1
            ],
            "split_conditions": [
              0.000010951655
            ],
            "split_indices": [
              0
            ],
            "split_type": [
              0
            ],
            "sum_hessian": [
              62
            ],
            "tree_param": {
              "num_deleted": "0",
              "num_feature": "6",
              "num_nodes": "1",
              "size_leaf_vector": "1"
            }
          },
          {
            "base_weights": [
              0.00004783986
            ],
            "categories": [],
            "categories_nodes": [],
            "categories_segments": [],
            "categories_sizes": [],
            "default_left": [
              0
            ],
            "id": 67,
            "left_children": [
              -1
            ],
            "loss_changes": [
              0
            ],
            "parents": [
              2147483647
            ],
            "right_children": [
              -1
            ],
            "split_conditions": [
              0.0000023919931
            ],
            "split_indices": [
              0
            ],
            "split_type": [
              0
            ],
            "sum_hessian": [
              69
            ],
            "tree_param": {
              "num_deleted": "0",
              "num_feature": "6",
              "num_nodes": "1",
              "size_leaf_vector": "1"
            }
          },
          {
            "base_weights": [
              0.00032683695
            ],
            "categories": [],
            "categories_nodes": [],
            "categories_segments": [],
            "categories_sizes": [],
            "default_left": [
              0
            ],
            "id": 68,
            "left_children": [
              -1
            ],
            "loss_changes": [
              0
            ],
            "parents": [
              2147483647
            ],
            "right_children": [
              -1
            ],
            "split_conditions": [
              0.000016341848
            ],
            "split_indices": [
              0
            ],
            "split_type": [
              0
            ],
            "sum_hessian": [
              68
            ],
            "tree_param": {
              "num_deleted": "0",
              "num_feature": "6",
              "num_nodes": "1",
              "size_leaf_vector": "1"
            }
          },
          {
            "base_weights": [
              -0.00039428295
            ],
            "categories": [],
            "categories_nodes": [],
            "categories_segments": [],
            "categories_sizes": [],
            "default_left": [
              0
            ],
            "id": 69,
            "left_children": [
              -1
            ],
            "loss_changes": [
              0
            ],
            "parents": [
              2147483647
            ],
            "right_children": [
              -1
            ],
            "split_conditions": [
              -0.000019714147
            ],
            "split_indices": [
              0
            ],
            "split_type": [
              0
            ],
            "sum_hessian": [
              65
            ],
            "tree_param": {
              "num_deleted": "0",
              "num_feature": "6",
              "num_nodes": "1",
              "size_leaf_vector": "1"
            }
          },
          {
            "base_weights": [
              -0.0002576177
            ],
            "categories": [],
            "categories_nodes": [],
            "categories_segments": [],
            "categories_sizes": [],
            "default_left": [
              0
            ],
            "id": 70,
            "left_children": [
              -1
            ],
            "loss_changes": [
              0
            ],
            "parents": [
              2147483647
            ],
            "right_children": [
              -1
            ],
            "split_conditions": [
              -0.000012880885
            ],
            "split_indices": [
              0
            ],
            "split_type": [
              0
            ],
            "sum_hessian": [
              63
            ],
            "tree_param": {
              "num_deleted": "0",
              "num_feature": "6",
              "num_nodes": "1",
              "size_leaf_vector": "1"
            }
          },
          {
            "base_weights": [
              0.000020192429
            ],
            "categories": [],
            "categories_nodes": [],
            "categories_segments": [],
            "categories_sizes": [],
            "default_left": [
              0
            ],
            "id": 71,
            "left_children": [
              -1
            ],
            "loss_changes": [
              0
            ],
            "parents": [
              2147483647
            ],
            "right_children": [
              -1
            ],
            "split_conditions": [
              0.0000010096214
            ],
            "split_indices": [
              0
            ],
            "split_type": [
              0
            ],
            "sum_hessian": [
              64
            ],
            "tree_param": {
              "num_deleted": "0",
              "num_feature": "6",
              "num_nodes": "1",
              "size_leaf_vector": "1"
            }
          },
          {
            "base_weights": [
              0.00048317134
            ],
            "categories": [],
            "categories_nodes": [],
            "categories_segments": [],
            "categories_sizes": [],
            "default_left": [
              0
            ],
            "id": 72,
            "left_children": [
              -1
            ],
            "loss_changes": [
              0
            ],
            "parents": [
              2147483647
            ],
            "right_children": [
              -1
            ],
            "split_conditions": [
              0.000024158568
            ],
            "split_indices": [
              0
            ],
            "split_type": [
              0
            ],
            "sum_hessian": [
              61
            ],
            "tree_param": {
              "num_deleted": "0",
              "num_feature": "6",
              "num_nodes": "1",
              "size_leaf_vector": "1"
            }
          },
          {
            "base_weights": [
              0.0005884422
            ],
            "categories": [],
            "categories_nodes": [],
            "categories_segments": [],
            "categories_sizes": [],
            "default_left": [
              0
            ],
            "id": 73,
            "left_children": [
              -1
            ],
            "loss_changes": [
              0
            ],
            "parents": [
              2147483647
            ],
            "right_children": [
              -1
            ],
            "split_conditions": [
              0.00002942211
            ],
            "split_indices": [
              0
            ],
            "split_type": [
              0
            ],
            "sum_hessian": [
              62
            ],
            "tree_param": {
              "num_deleted": "0",
              "num_feature": "6",
              "num_nodes": "1",
              "size_leaf_vector": "1"
            }
          },
          {
            "base_weights": [
              0.00063726254
            ],
            "categories": [],
            "categories_nodes": [],
            "categories_segments": [],
            "categories_sizes": [],
            "default_left": [
              0
            ],
            "id": 74,
            "left_children": [
              -1
            ],
            "loss_changes": [
              0
            ],
            "parents": [
              2147483647
            ],
            "right_children": [
              -1
            ],
            "split_conditions": [
              0.00003186313
            ],
            "split_indices": [
              0
            ],
            "split_type": [
              0
            ],
            "sum_hessian": [
              55
            ],
            "tree_param": {
              "num_deleted": "0",
              "num_feature": "6",
              "num_nodes": "1",
              "size_leaf_vector": "1"
            }
          },
          {
            "base_weights": [
              -0.000008800136
            ],
            "categories": [],
            "categories_nodes": [],
            "categories_segments": [],
            "categories_sizes": [],
            "default_left": [
              0
            ],
            "id": 75,
            "left_children": [
              -1
            ],
            "loss_changes": [
              0
            ],
            "parents": [
              2147483647
            ],
            "right_children": [
              -1
            ],
            "split_conditions": [
              -4.400068E-7
            ],
            "split_indices": [
              0
            ],
            "split_type": [
              0
            ],
            "sum_hessian": [
              65
            ],
            "tree_param": {
              "num_deleted": "0",
              "num_feature": "6",
              "num_nodes": "1",
