{
  "learner": {
    "attributes": {
      "scikit_learn": "{\"_estimator_type\": \"regressor\"}"
    },
    "feature_names": [],
    "feature_types": [],
    "gradient_booster": {
      "model": {
        "cats": {
          "enc": [],
          "feature_segments": [],
          "sorted_idx": []
        },
        "gbtree_model_param": {
          "num_parallel_tree": "1",
          "num_trees": "800"
        },
        "iteration_indptr": [
          0,
          1,
          2,
          3,
          4,
          5,
          6,
          7,
          8,
          9,
          10,
          11,
          12,
          13,
          14,
          15,
          16,
          17,
          18,
          19,
          20,
          21,
          22,
          23,
          24,
          25,
          26,
          27,
          28,
          29,
          30,
          31,
          32,
          33,
          34,
          35,
          36,
          37,
          38,
          39,
          40,
          41,
          42,
          43,
          44,
          45,
          46,
          47,
          48,
          49,
          50,
          51,
          52,
          53,
          54,
          55,
          56,
          57,
          58,
          59,
          60,
          61,
          62,
          63,
          64,
          65,
          66,
          67,
          68,
          69,
          70,
          71,
          72,
          73,
          74,
          75,
          76,
          77,
          78,
          79,
          80,
          81,
          82,
          83,
          84,
          85,
          86,
          87,
          88,
          89,
          90,
          91,
          92,
          93,
          94,
          95,
          96,
          97,
          98,
          99,
          100,
          101,
          102,
          103,
          104,
          105,
          106,
          107,
          108,
          109,
          110,
          111,
          112,
          113,
          114,
          115,
          116,
          117,
          118,
          119,
          120,
          121,
          122,
          123,
          124,
          125,
          126,
          127,
          128,
          129,
          130,
          131,
          132,
          133,
          134,
          135,
          136,
          137,
          138,
          139,
          140,
          141,
          142,
          143,
          144,
          145,
          146,
          147,
          148,
          149,
          150,
          151,
          152,
          153,
          154,
          155,
          156,
          157,
          158,
          159,
          160,
          161,
          162,
          163,
          164,
          165,
          166,
          167,
          168,
          169,
          170,
          171,
          172,
          173,
          174,
          175,
          176,
          177,
          178,
          179,
          180,
          181,
          182,
          183,
          184,
          185,
          186,
          187,
          188,
          189,
          190,
          191,
          192,
          193,
          194,
          195,
          196,
          197,
          198,
          199,
          200,
          201,
          202,
          203,
          204,
          205,
          206,
          207,
          208,
          209,
          210,
          211,
          212,
          213,
          214,
          215,
          216,
          217,
          218,
          219,
          220,
          221,
          222,
          223,
          224,
          225,
          226,
          227,
          228,
          229,
          230,
          231,
          232,
          233,
          234,
          235,
          236,
          237,
          238,
          239,
          240,
          241,
          242,
          243,
          244,
          245,
          246,
          247,
          248,
          249,
          250,
          251,
          252,
          253,
          254,
          255,
          256,
          257,
          258,
          259,
          260,
          261,
          262,
          263,
          264,
          265,
          266,
          267,
          268,
          269,
          270,
          271,
          272,
          273,
          274,
          275,
          276,
          277,
          278,
          279,
          280,
          281,
          282,
          283,
          284,
          285,
          286,
          287,
          288,
          289,
          290,
          291,
          292,
          293,
          294,
          295,
          296,
          297,
          298,
          299,
          300,
          301,
          302,
          303,
          304,
          305,
          306,
          307,
          308,
          309,
          310,
          311,
          312,
          313,
          314,
          315,
          316,
          317,
          318,
          319,
          320,
          321,
          322,
          323,
          324,
          325,
          326,
          327,
          328,
          329,
          330,
          331,
          332,
          333,
          334,
          335,
          336,
          337,
          338,
          339,
          340,
          341,
          342,
          343,
          344,
          345,
          346,
          347,
          348,
          349,
          350,
          351,
          352,
          353,
          354,
          355,
          356,
          357,
          358,
          359,
          360,
          361,
          362,
          363,
          364,
          365,
          366,
          367,
          368,
          369,
          370,
          371,
          372,
          373,
          374,
          375,
          376,
          377,
          378,
          379,
          380,
          381,
          382,
          383,
          384,
          385,
          386,
          387,
          388,
          389,
          390,
          391,
          392,
          393,
          394,
          395,
          396,
          397,
          398,
          399,
          400,
          401,
          402,
          403,
          404,
          405,
          406,
          407,
          408,
          409,
          410,
          411,
          412,
          413,
          414,
          415,
          416,
          417,
          418,
          419,
          420,
          421,
          422,
          423,
          424,
          425,
          426,
          427,
          428,
          429,
          430,
          431,
          432,
          433,
          434,
          435,
          436,
          437,
          438,
          439,
          440,
          441,
          442,
          443,
          444,
          445,
          446,
          447,
          448,
          449,
          450,
          451,
          452,
          453,
          454,
          455,
          456,
          457,
          458,
          459,
          460,
          461,
          462,
          463,
          464,
          465,
          466,
          467,
          468,
          469,
          470,
          471,
          472,
          473,
          474,
          475,
          476,
          477,
          478,
          479,
          480,
          481,
          482,
          483,
          484,
          485,
          486,
          487,
          488,
          489,
          490,
          491,
          492,
          493,
          494,
          495,
          496,
          497,
          498,
          499,
          500,
          501,
          502,
          503,
          504,
          505,
          506,
          507,
          508,
          509,
          510,
          511,
          512,
          513,
          514,
          515,
          516,
          517,
          518,
          519,
          520,
          521,
          522,
          523,
          524,
          525,
          526,
          527,
          528,
          529,
          530,
          531,
          532,
          533,
          534,
          535,
          536,
          537,
          538,
          539,
          540,
          541,
          542,
          543,
          544,
          545,
          546,
          547,
          548,
          549,
          550,
          551,
          552,
          553,
          554,
          555,
          556,
          557,
          558,
          559,
          560,
          561,
          562,
          563,
          564,
          565,
          566,
          567,
          568,
          569,
          570,
          571,
          572,
          573,
          574,
          575,
          576,
          577,
          578,
          579,
          580,
          581,
          582,
          583,
          584,
          585,
          586,
          587,
          588,
          589,
          590,
          591,
          592,
          593,
          594,
          595,
          596,
          597,
          598,
          599,
          600,
          601,
          602,
          603,
          604,
          605,
          606,
          607,
          608,
          609,
          610,
          611,
          612,
          613,
          614,
          615,
          616,
          617,
          618,
          619,
          620,
          621,
          622,
          623,
          624,
          625,
          626,
          627,
          628,
          629,
          630,
          631,
          632,
          633,
          634,
          635,
          636,
          637,
          638,
          639,
          640,
          641,
          642,
          643,
          644,
          645,
          646,
          647,
          648,
          649,
          650,
          651,
          652,
          653,
          654,
          655,
          656,
          657,
          658,
          659,
          660,
          661,
          662,
          663,
          664,
          665,
          666,
          667,
          668,
          669,
          670,
          671,
          672,
          673,
          674,
          675,
          676,
          677,
          678,
          679,
          680,
          681,
          682,
          683,
          684,
          685,
          686,
          687,
          688,
          689,
          690,
          691,
          692,
          693,
          694,
          695,
          696,
          697,
          698,
          699,
          700,
          701,
          702,
          703,
          704,
          705,
          706,
          707,
          708,
          709,
          710,
          711,
          712,
          713,
          714,
          715,
          716,
          717,
          718,
          719,
          720,
          721,
          722,
          723,
          724,
          725,
          726,
          727,
          728,
          729,
          730,
          731,
          732,
          733,
          734,
          735,
          736,
          737,
          738,
          739,
          740,
          741,
          742,
          743,
          744,
          745,
          746,
          747,
          748,
          749,
          750,
          751,
          752,
          753,
          754,
          755,
          756,
          757,
          758,
          759,
          760,
          761,
          762,
          763,
          764,
          765,
          766,
          767,
          768,
          769,
          770,
          771,
          772,
          773,
          774,
          775,
          776,
          777,
          778,
          779,
          780,
          781,
          782,
          783,
          784,
          785,
          786,
          787,
          788,
          789,
          790,
          791,
          792,
          793,
          794,
          795,
          796,
          797,
          798,
          799,
          800
        ],
        "tree_info": [
          0,
          0,
          0,
          0,
          0,
          0,
          0,
          0,
          0,
          0,
          0,
          0,
          0,
          0,
          0,
          0,
          0,
          0,
          0,
          0,
          0,
          0,
          0,
          0,
          0,
          0,
          0,
          0,
          0,
          0,
          0,
          0,
          0,
          0,
          0,
          0,
          0,
          0,
          0,
          0,
          0,
          0,
          0,
          0,
          0,
          0,
          0,
          0,
          0,
          0,
          0,
          0,
          0,
          0,
          0,
          0,
          0,
          0,
          0,
          0,
          0,
          0,
          0,
          0,
          0,
          0,
          0,
          0,
          0,
          0,
          0,
          0,
          0,
          0,
          0,
          0,
          0,
          0,
          0,
          0,
          0,
          0,
          0,
          0,
          0,
          0,
          0,
          0,
          0,
          0,
          0,
          0,
          0,
          0,
          0,
          0,
          0,
          0,
          0,
          0,
          0,
          0,
          0,
          0,
          0,
          0,
          0,
          0,
          0,
          0,
          0,
          0,
          0,
          0,
          0,
          0,
          0,
          0,
          0,
          0,
          0,
          0,
          0,
          0,
          0,
          0,
          0,
          0,
          0,
          0,
          0,
          0,
          0,
          0,
          0,
          0,
          0,
          0,
          0,
          0,
          0,
          0,
          0,
          0,
          0,
          0,
          0,
          0,
          0,
          0,
          0,
          0,
          0,
          0,
          0,
          0,
          0,
          0,
          0,
          0,
          0,
          0,
          0,
          0,
          0,
          0,
          0,
          0,
          0,
          0,
          0,
          0,
          0,
          0,
          0,
          0,
          0,
          0,
          0,
          0,
          0,
          0,
          0,
          0,
          0,
          0,
          0,
          0,
          0,
          0,
          0,
          0,
          0,
          0,
          0,
          0,
          0,
          0,
          0,
          0,
          0,
          0,
          0,
          0,
          0,
          0,
          0,
          0,
          0,
          0,
          0,
          0,
          0,
          0,
          0,
          0,
          0,
          0,
          0,
          0,
          0,
          0,
          0,
          0,
          0,
          0,
          0,
          0,
          0,
          0,
          0,
          0,
          0,
          0,
          0,
          0,
          0,
          0,
          0,
          0,
          0,
          0,
          0,
          0,
          0,
          0,
          0,
          0,
          0,
          0,
          0,
          0,
          0,
          0,
          0,
          0,
          0,
          0,
          0,
          0,
          0,
          0,
          0,
          0,
          0,
          0,
          0,
          0,
          0,
          0,
          0,
          0,
          0,
          0,
          0,
          0,
          0,
          0,
          0,
          0,
          0,
          0,
          0,
          0,
          0,
          0,
          0,
          0,
          0,
          0,
          0,
          0,
          0,
          0,
          0,
          0,
          0,
          0,
          0,
          0,
          0,
          0,
          0,
          0,
          0,
          0,
          0,
          0,
          0,
          0,
          0,
          0,
          0,
          0,
          0,
          0,
          0,
          0,
          0,
          0,
          0,
          0,
          0,
          0,
          0,
          0,
          0,
          0,
          0,
          0,
          0,
          0,
          0,
          0,
          0,
          0,
          0,
          0,
          0,
          0,
          0,
          0,
          0,
          0,
          0,
          0,
          0,
          0,
          0,
          0,
          0,
          0,
          0,
          0,
          0,
          0,
          0,
          0,
          0,
          0,
          0,
          0,
          0,
          0,
          0,
          0,
          0,
          0,
          0,
          0,
          0,
          0,
          0,
          0,
          0,
          0,
          0,
          0,
          0,
          0,
          0,
          0,
          0,
          0,
          0,
          0,
          0,
          0,
          0,
          0,
          0,
          0,
          0,
          0,
          0,
          0,
          0,
          0,
          0,
          0,
          0,
          0,
          0,
          0,
          0,
          0,
          0,
          0,
          0,
          0,
          0,
          0,
          0,
          0,
          0,
          0,
          0,
          0,
          0,
          0,
          0,
          0,
          0,
          0,
          0,
          0,
          0,
          0,
          0,
          0,
          0,
          0,
          0,
          0,
          0,
          0,
          0,
          0,
          0,
          0,
          0,
          0,
          0,
          0,
          0,
          0,
          0,
          0,
          0,
          0,
          0,
          0,
          0,
          0,
          0,
          0,
          0,
          0,
          0,
          0,
          0,
          0,
          0,
          0,
          0,
          0,
          0,
          0,
          0,
          0,
          0,
          0,
          0,
          0,
          0,
          0,
          0,
          0,
          0,
          0,
          0,
          0,
          0,
          0,
          0,
          0,
          0,
          0,
          0,
          0,
          0,
          0,
          0,
          0,
          0,
          0,
          0,
          0,
          0,
          0,
          0,
          0,
          0,
          0,
          0,
          0,
          0,
          0,
          0,
          0,
          0,
          0,
          0,
          0,
          0,
          0,
          0,
          0,
          0,
          0,
          0,
          0,
          0,
          0,
          0,
          0,
          0,
          0,
          0,
          0,
          0,
          0,
          0,
          0,
          0,
          0,
          0,
          0,
          0,
          0,
          0,
          0,
          0,
          0,
          0,
          0,
          0,
          0,
          0,
          0,
          0,
          0,
          0,
          0,
          0,
          0,
          0,
          0,
          0,
          0,
          0,
          0,
          0,
          0,
          0,
          0,
          0,
          0,
          0,
          0,
          0,
          0,
          0,
          0,
          0,
          0,
          0,
          0,
          0,
          0,
          0,
          0,
          0,
          0,
          0,
          0,
          0,
          0,
          0,
          0,
          0,
          0,
          0,
          0,
          0,
          0,
          0,
          0,
          0,
          0,
          0,
          0,
          0,
          0,
          0,
          0,
          0,
          0,
          0,
          0,
          0,
          0,
          0,
          0,
          0,
          0,
          0,
          0,
          0,
          0,
          0,
          0,
          0,
          0,
          0,
          0,
          0,
          0,
          0,
          0,
          0,
          0,
          0,
          0,
          0,
          0,
          0,
          0,
          0,
          0,
          0,
          0,
          0,
          0,
          0,
          0,
          0,
          0,
          0,
          0,
          0,
          0,
          0,
          0,
          0,
          0,
          0,
          0,
          0,
          0,
          0,
          0,
          0,
          0,
          0,
          0,
          0,
          0,
          0,
          0,
          0,
          0,
          0,
          0,
          0,
          0,
          0,
          0,
          0,
          0,
          0,
          0,
          0,
          0,
          0,
          0,
          0,
          0,
          0,
          0,
          0,
          0,
          0,
          0,
          0,
          0,
          0,
          0,
          0,
          0,
          0,
          0,
          0,
          0,
          0,
          0,
          0,
          0,
          0,
          0,
          0,
          0,
          0,
          0,
          0,
          0,
          0,
          0,
          0,
          0,
          0,
          0,
          0,
          0,
          0,
          0,
          0,
          0,
          0,
          0,
          0,
          0,
          0,
          0,
          0,
          0,
          0,
          0,
          0,
          0,
          0,
          0,
          0,
          0,
          0,
          0,
          0,
          0,
          0,
          0,
          0,
          0,
          0,
          0,
          0,
          0,
          0,
          0,
          0,
          0,
          0,
          0,
          0,
          0,
          0,
          0,
          0,
          0,
          0,
          0,
          0,
          0,
          0,
          0,
          0,
          0,
          0,
          0,
          0,
          0,
          0,
          0,
          0,
          0,
          0,
          0,
          0,
          0,
          0,
          0,
          0,
          0,
          0,
          0,
          0,
          0,
          0,
          0,
          0,
          0
        ],
        "trees": [
          {
            "base_weights": [
              -0.00083255593
            ],
            "categories": [],
            "categories_nodes": [],
            "categories_segments": [],
            "categories_sizes": [],
            "default_left": [
              0
            ],
            "id": 0,
            "left_children": [
              -1
            ],
            "loss_changes": [
              0
            ],
            "parents": [
              2147483647
            ],
            "right_children": [
              -1
            ],
            "split_conditions": [
              -0.000041627798
            ],
            "split_indices": [
              0
            ],
            "split_type": [
              0
            ],
            "sum_hessian": [
              66
            ],
            "tree_param": {
              "num_deleted": "0",
              "num_feature": "8",
              "num_nodes": "1",
              "size_leaf_vector": "1"
            }
          },
          {
            "base_weights": [
              0.00062815927
            ],
            "categories": [],
            "categories_nodes": [],
            "categories_segments": [],
            "categories_sizes": [],
            "default_left": [
              0
            ],
            "id": 1,
            "left_children": [
              -1
            ],
            "loss_changes": [
              0
            ],
            "parents": [
              2147483647
            ],
            "right_children": [
              -1
            ],
            "split_conditions": [
              0.000031407963
            ],
            "split_indices": [
              0
            ],
            "split_type": [
              0
            ],
            "sum_hessian": [
              7E+1
            ],
            "tree_param": {
              "num_deleted": "0",
              "num_feature": "8",
              "num_nodes": "1",
              "size_leaf_vector": "1"
            }
          },
          {
            "base_weights": [
              0.00040724062
            ],
            "categories": [],
            "categories_nodes": [],
            "categories_segments": [],
            "categories_sizes": [],
            "default_left": [
              0
            ],
            "id": 2,
            "left_children": [
              -1
            ],
            "loss_changes": [
              0
            ],
            "parents": [
              2147483647
            ],
            "right_children": [
              -1
            ],
            "split_conditions": [
              0.000020362031
            ],
            "split_indices": [
              0
            ],
            "split_type": [
              0
            ],
            "sum_hessian": [
              64
            ],
            "tree_param": {
              "num_deleted": "0",
              "num_feature": "8",
              "num_nodes": "1",
              "size_leaf_vector": "1"
            }
          },
          {
            "base_weights": [
              0.0009263244
            ],
            "categories": [],
            "categories_nodes": [],
            "categories_segments": [],
            "categories_sizes": [],
            "default_left": [
              0
            ],
            "id": 3,
            "left_children": [
              -1
            ],
            "loss_changes": [
              0
            ],
            "parents": [
              2147483647
            ],
            "right_children": [
              -1
            ],
            "split_conditions": [
              0.00004631622
            ],
            "split_indices": [
              0
            ],
            "split_type": [
              0
            ],
            "sum_hessian": [
              74
            ],
            "tree_param": {
              "num_deleted": "0",
              "num_feature": "8",
              "num_nodes": "1",
              "size_leaf_vector": "1"
            }
          },
          {
            "base_weights": [
              -0.0009400295
            ],
            "categories": [],
            "categories_nodes": [],
            "categories_segments": [],
            "categories_sizes": [],
            "default_left": [
              0
            ],
            "id": 4,
            "left_children": [
              -1
            ],
            "loss_changes": [
              0
            ],
            "parents": [
              2147483647
            ],
            "right_children": [
              -1
            ],
            "split_conditions": [
              -0.000047001475
            ],
            "split_indices": [
              0
            ],
            "split_type": [
              0
            ],
            "sum_hessian": [
              75
            ],
            "tree_param": {
              "num_deleted": "0",
              "num_feature": "8",
              "num_nodes": "1",
              "size_leaf_vector": "1"
            }
          },
          {
            "base_weights": [
              -0.0003863782
            ],
            "categories": [],
            "categories_nodes": [],
            "categories_segments": [],
            "categories_sizes": [],
            "default_left": [
              0
            ],
            "id": 5,
            "left_children": [
              -1
            ],
            "loss_changes": [
              0
            ],
            "parents": [
              2147483647
            ],
            "right_children": [
              -1
            ],
            "split_conditions": [
              -0.00001931891
            ],
            "split_indices": [
              0
            ],
            "split_type": [
              0
            ],
            "sum_hessian": [
              75
            ],
            "tree_param": {
              "num_deleted": "0",
              "num_feature": "8",
              "num_nodes": "1",
              "size_leaf_vector": "1"
            }
          },
          {
            "base_weights": [
              0.0007151365
            ],
            "categories": [],
            "categories_nodes": [],
            "categories_segments": [],
            "categories_sizes": [],
            "default_left": [
              0
            ],
            "id": 6,
            "left_children": [
              -1
            ],
            "loss_changes": [
              0
            ],
            "parents": [
              2147483647
            ],
            "right_children": [
              -1
            ],
            "split_conditions": [
              0.000035756828
            ],
            "split_indices": [
              0
            ],
            "split_type": [
              0
            ],
            "sum_hessian": [
              72
            ],
            "tree_param": {
              "num_deleted": "0",
              "num_feature": "8",
              "num_nodes": "1",
              "size_leaf_vector": "1"
            }
          },
          {
            "base_weights": [
              -0.00049825537
            ],
            "categories": [],
            "categories_nodes": [],
            "categories_segments": [],
            "categories_sizes": [],
            "default_left": [
              0
            ],
            "id": 7,
            "left_children": [
              -1
            ],
            "loss_changes": [
              0
            ],
            "parents": [
              2147483647
            ],
            "right_children": [
              -1
            ],
            "split_conditions": [
              -0.000024912768
            ],
            "split_indices": [
              0
            ],
            "split_type": [
              0
            ],
            "sum_hessian": [
              69
            ],
            "tree_param": {
              "num_deleted": "0",
              "num_feature": "8",
              "num_nodes": "1",
              "size_leaf_vector": "1"
            }
          },
          {
            "base_weights": [
              0.00003129405
            ],
            "categories": [],
            "categories_nodes": [],
            "categories_segments": [],
            "categories_sizes": [],
            "default_left": [
              0
            ],
            "id": 8,
            "left_children": [
              -1
            ],
            "loss_changes": [
              0
            ],
            "parents": [
              2147483647
            ],
            "right_children": [
              -1
            ],
            "split_conditions": [
              0.0000015647025
            ],
            "split_indices": [
              0
            ],
            "split_type": [
              0
            ],
            "sum_hessian": [
              72
            ],
            "tree_param": {
              "num_deleted": "0",
              "num_feature": "8",
              "num_nodes": "1",
              "size_leaf_vector": "1"
            }
          },
          {
            "base_weights": [
              -0.00078790094
            ],
            "categories": [],
            "categories_nodes": [],
            "categories_segments": [],
            "categories_sizes": [],
            "default_left": [
              0
            ],
            "id": 9,
            "left_children": [
              -1
            ],
            "loss_changes": [
              0
            ],
            "parents": [
              2147483647
            ],
            "right_children": [
              -1
            ],
            "split_conditions": [
              -0.000039395047
            ],
            "split_indices": [
              0
            ],
            "split_type": [
              0
            ],
            "sum_hessian": [
              72
            ],
            "tree_param": {
              "num_deleted": "0",
              "num_feature": "8",
              "num_nodes": "1",
              "size_leaf_vector": "1"
            }
          },
          {
            "base_weights": [
              0.000005589082
            ],
            "categories": [],
            "categories_nodes": [],
            "categories_segments": [],
            "categories_sizes": [],
            "default_left": [
              0
            ],
            "id": 10,
            "left_children": [
              -1
            ],
            "loss_changes": [
              0
            ],
            "parents": [
              2147483647
            ],
            "right_children": [
              -1
            ],
            "split_conditions": [
              2.794541E-7
            ],
            "split_indices": [
              0
            ],
            "split_type": [
              0
            ],
            "sum_hessian": [
              76
            ],
            "tree_param": {
              "num_deleted": "0",
              "num_feature": "8",
              "num_nodes": "1",
              "size_leaf_vector": "1"
            }
          },
          {
            "base_weights": [
              0.00009238393
            ],
            "categories": [],
            "categories_nodes": [],
            "categories_segments": [],
            "categories_sizes": [],
            "default_left": [
              0
            ],
            "id": 11,
            "left_children": [
              -1
            ],
            "loss_changes": [
              0
            ],
            "parents": [
              2147483647
            ],
            "right_children": [
              -1
            ],
            "split_conditions": [
              0.0000046191967
            ],
            "split_indices": [
              0
            ],
            "split_type": [
              0
            ],
            "sum_hessian": [
              71
            ],
            "tree_param": {
              "num_deleted": "0",
              "num_feature": "8",
              "num_nodes": "1",
              "size_leaf_vector": "1"
            }
          },
          {
            "base_weights": [
              -0.00029741737
            ],
            "categories": [],
            "categories_nodes": [],
            "categories_segments": [],
            "categories_sizes": [],
            "default_left": [
              0
            ],
            "id": 12,
            "left_children": [
              -1
            ],
            "loss_changes": [
              0
            ],
            "parents": [
              2147483647
            ],
            "right_children": [
              -1
            ],
            "split_conditions": [
              -0.000014870869
            ],
            "split_indices": [
              0
            ],
            "split_type": [
              0
            ],
            "sum_hessian": [
              71
            ],
            "tree_param": {
              "num_deleted": "0",
              "num_feature": "8",
              "num_nodes": "1",
              "size_leaf_vector": "1"
            }
          },
          {
            "base_weights": [
              -0.00007382497
            ],
            "categories": [],
            "categories_nodes": [],
            "categories_segments": [],
            "categories_sizes": [],
            "default_left": [
              0
            ],
            "id": 13,
            "left_children": [
              -1
            ],
            "loss_changes": [
              0
            ],
            "parents": [
              2147483647
            ],
            "right_children": [
              -1
            ],
            "split_conditions": [
              -0.0000036912486
            ],
            "split_indices": [
              0
            ],
            "split_type": [
              0
            ],
            "sum_hessian": [
              69
            ],
            "tree_param": {
              "num_deleted": "0",
              "num_feature": "8",
              "num_nodes": "1",
              "size_leaf_vector": "1"
            }
          },
          {
            "base_weights": [
              0.0002922873
            ],
            "categories": [],
            "categories_nodes": [],
            "categories_segments": [],
            "categories_sizes": [],
            "default_left": [
              0
            ],
            "id": 14,
            "left_children": [
              -1
            ],
            "loss_changes": [
              0
            ],
            "parents": [
              2147483647
            ],
            "right_children": [
              -1
            ],
            "split_conditions": [
              0.000014614365
            ],
            "split_indices": [
              0
            ],
            "split_type": [
              0
            ],
            "sum_hessian": [
              71
            ],
            "tree_param": {
              "num_deleted": "0",
              "num_feature": "8",
              "num_nodes": "1",
              "size_leaf_vector": "1"
            }
          },
          {
            "base_weights": [
              -0.0006073109
            ],
            "categories": [],
            "categories_nodes": [],
            "categories_segments": [],
            "categories_sizes": [],
            "default_left": [
              0
            ],
            "id": 15,
            "left_children": [
              -1
            ],
            "loss_changes": [
              0
            ],
            "parents": [
              2147483647
            ],
            "right_children": [
              -1
            ],
            "split_conditions": [
              -0.000030365545
            ],
            "split_indices": [
              0
            ],
            "split_type": [
              0
            ],
            "sum_hessian": [
              73
            ],
            "tree_param": {
              "num_deleted": "0",
              "num_feature": "8",
              "num_nodes": "1",
              "size_leaf_vector": "1"
            }
          },
          {
            "base_weights": [
              0.00048780107
            ],
            "categories": [],
            "categories_nodes": [],
            "categories_segments": [],
            "categories_sizes": [],
            "default_left": [
              0
            ],
            "id": 16,
            "left_children": [
              -1
            ],
            "loss_changes": [
              0
            ],
            "parents": [
              2147483647
            ],
            "right_children": [
              -1
            ],
            "split_conditions": [
              0.000024390054
            ],
            "split_indices": [
              0
            ],
            "split_type": [
              0
            ],
            "sum_hessian": [
              69
            ],
            "tree_param": {
              "num_deleted": "0",
              "num_feature": "8",
              "num_nodes": "1",
              "size_leaf_vector": "1"
            }
          },
          {
            "base_weights": [
              -0.00052691594
            ],
            "categories": [],
            "categories_nodes": [],
            "categories_segments": [],
            "categories_sizes": [],
            "default_left": [
              0
            ],
            "id": 17,
            "left_children": [
              -1
            ],
            "loss_changes": [
              0
            ],
            "parents": [
              2147483647
            ],
            "right_children": [
              -1
            ],
            "split_conditions": [
              -0.000026345797
            ],
            "split_indices": [
              0
            ],
            "split_type": [
              0
            ],
            "sum_hessian": [
              69
            ],
            "tree_param": {
              "num_deleted": "0",
              "num_feature": "8",
              "num_nodes": "1",
              "size_leaf_vector": "1"
            }
          },
          {
            "base_weights": [
              0.0015660371
            ],
            "categories": [],
            "categories_nodes": [],
            "categories_segments": [],
            "categories_sizes": [],
            "default_left": [
              0
            ],
            "id": 18,
            "left_children": [
              -1
            ],
            "loss_changes": [
              0
            ],
            "parents": [
              2147483647
            ],
            "right_children": [
              -1
            ],
            "split_conditions": [
              0.000078301855
            ],
            "split_indices": [
              0
            ],
            "split_type": [
              0
            ],
            "sum_hessian": [
              68
            ],
            "tree_param": {
              "num_deleted": "0",
              "num_feature": "8",
              "num_nodes": "1",
              "size_leaf_vector": "1"
            }
          },
          {
            "base_weights": [
              -0.00064556464
            ],
            "categories": [],
            "categories_nodes": [],
            "categories_segments": [],
            "categories_sizes": [],
            "default_left": [
              0
            ],
            "id": 19,
            "left_children": [
              -1
            ],
            "loss_changes": [
              0
            ],
            "parents": [
              2147483647
            ],
            "right_children": [
              -1
            ],
            "split_conditions": [
              -0.000032278233
            ],
            "split_indices": [
              0
            ],
            "split_type": [
              0
            ],
            "sum_hessian": [
              7E+1
            ],
            "tree_param": {
              "num_deleted": "0",
              "num_feature": "8",
              "num_nodes": "1",
              "size_leaf_vector": "1"
            }
          },
          {
            "base_weights": [
              0.0005414188
            ],
            "categories": [],
            "categories_nodes": [],
            "categories_segments": [],
            "categories_sizes": [],
            "default_left": [
              0
            ],
            "id": 20,
            "left_children": [
              -1
            ],
            "loss_changes": [
              0
            ],
            "parents": [
              2147483647
            ],
            "right_children": [
              -1
            ],
            "split_conditions": [
              0.00002707094
            ],
            "split_indices": [
              0
            ],
            "split_type": [
              0
            ],
            "sum_hessian": [
              74
            ],
            "tree_param": {
              "num_deleted": "0",
              "num_feature": "8",
              "num_nodes": "1",
              "size_leaf_vector": "1"
            }
          },
          {
            "base_weights": [
              0.0008573292
            ],
            "categories": [],
            "categories_nodes": [],
            "categories_segments": [],
            "categories_sizes": [],
            "default_left": [
              0
            ],
            "id": 21,
            "left_children": [
              -1
            ],
            "loss_changes": [
              0
            ],
            "parents": [
              2147483647
            ],
            "right_children": [
              -1
            ],
            "split_conditions": [
              0.00004286646
            ],
            "split_indices": [
              0
            ],
            "split_type": [
              0
            ],
            "sum_hessian": [
              7E+1
            ],
            "tree_param": {
              "num_deleted": "0",
              "num_feature": "8",
              "num_nodes": "1",
              "size_leaf_vector": "1"
            }
          },
          {
            "base_weights": [
              -0.0012009967
            ],
            "categories": [],
            "categories_nodes": [],
            "categories_segments": [],
            "categories_sizes": [],
            "default_left": [
              0
            ],
            "id": 22,
            "left_children": [
              -1
            ],
            "loss_changes": [
              0
            ],
            "parents": [
              2147483647
            ],
            "right_children": [
              -1
            ],
            "split_conditions": [
              -0.000060049835
            ],
            "split_indices": [
              0
            ],
            "split_type": [
              0
            ],
            "sum_hessian": [
              69
            ],
            "tree_param": {
              "num_deleted": "0",
              "num_feature": "8",
              "num_nodes": "1",
              "size_leaf_vector": "1"
            }
          },
          {
            "base_weights": [
              0.00022293732
            ],
            "categories": [],
            "categories_nodes": [],
            "categories_segments": [],
            "categories_sizes": [],
            "default_left": [
              0
            ],
            "id": 23,
            "left_children": [
              -1
            ],
            "loss_changes": [
              0
            ],
            "parents": [
              2147483647
            ],
            "right_children": [
              -1
            ],
            "split_conditions": [
              0.000011146866
            ],
            "split_indices": [
              0
            ],
            "split_type": [
              0
            ],
            "sum_hessian": [
              69
            ],
            "tree_param": {
              "num_deleted": "0",
              "num_feature": "8",
              "num_nodes": "1",
              "size_leaf_vector": "1"
            }
          },
          {
            "base_weights": [
              0.0004512792
            ],
            "categories": [],
            "categories_nodes": [],
            "categories_segments": [],
            "categories_sizes": [],
            "default_left": [
              0
            ],
            "id": 24,
            "left_children": [
              -1
            ],
            "loss_changes": [
              0
            ],
            "parents": [
              2147483647
            ],
            "right_children": [
              -1
            ],
            "split_conditions": [
              0.00002256396
            ],
            "split_indices": [
              0
            ],
            "split_type": [
              0
            ],
            "sum_hessian": [
              7E+1
            ],
            "tree_param": {
              "num_deleted": "0",
              "num_feature": "8",
              "num_nodes": "1",
              "size_leaf_vector": "1"
            }
          },
          {
            "base_weights": [
              -0.00007389155
            ],
            "categories": [],
            "categories_nodes": [],
            "categories_segments": [],
            "categories_sizes": [],
            "default_left": [
              0
            ],
            "id": 25,
            "left_children": [
              -1
            ],
            "loss_changes": [
              0
            ],
            "parents": [
              2147483647
            ],
            "right_children": [
              -1
            ],
            "split_conditions": [
              -0.0000036945773
            ],
            "split_indices": [
              0
            ],
            "split_type": [
              0
            ],
            "sum_hessian": [
              7E+1
            ],
            "tree_param": {
              "num_deleted": "0",
              "num_feature": "8",
              "num_nodes": "1",
              "size_leaf_vector": "1"
            }
          },
          {
            "base_weights": [
              -0.00070817303
            ],
            "categories": [],
            "categories_nodes": [],
            "categories_segments": [],
            "categories_sizes": [],
            "default_left": [
              0
            ],
            "id": 26,
            "left_children": [
              -1
            ],
            "loss_changes": [
              0
            ],
            "parents": [
              2147483647
            ],
            "right_children": [
              -1
            ],
            "split_conditions": [
              -0.00003540865
            ],
            "split_indices": [
              0
            ],
            "split_type": [
              0
            ],
            "sum_hessian": [
              68
            ],
            "tree_param": {
              "num_deleted": "0",
              "num_feature": "8",
              "num_nodes": "1",
              "size_leaf_vector": "1"
            }
          },
          {
            "base_weights": [
              -0.00041012192
            ],
            "categories": [],
            "categories_nodes": [],
            "categories_segments": [],
            "categories_sizes": [],
            "default_left": [
              0
            ],
            "id": 27,
            "left_children": [
              -1
            ],
            "loss_changes": [
              0
            ],
            "parents": [
              2147483647
            ],
            "right_children": [
              -1
            ],
            "split_conditions": [
              -0.000020506097
            ],
            "split_indices": [
              0
            ],
            "split_type": [
              0
            ],
            "sum_hessian": [
              69
            ],
            "tree_param": {
              "num_deleted": "0",
              "num_feature": "8",
              "num_nodes": "1",
              "size_leaf_vector": "1"
            }
          },
          {
            "base_weights": [
              -0.00053727627
            ],
            "categories": [],
            "categories_nodes": [],
            "categories_segments": [],
            "categories_sizes": [],
            "default_left": [
              0
            ],
            "id": 28,
            "left_children": [
              -1
            ],
            "loss_changes": [
              0
            ],
            "parents": [
              2147483647
            ],
            "right_children": [
              -1
            ],
            "split_conditions": [
              -0.000026863814
            ],
            "split_indices": [
              0
            ],
            "split_type": [
              0
            ],
            "sum_hessian": [
              68
            ],
            "tree_param": {
              "num_deleted": "0",
              "num_feature": "8",
              "num_nodes": "1",
              "size_leaf_vector": "1"
            }
          },
          {
            "base_weights": [
              -0.00096752355
            ],
            "categories": [],
            "categories_nodes": [],
            "categories_segments": [],
            "categories_sizes": [],
            "default_left": [
              0
            ],
            "id": 29,
            "left_children": [
              -1
            ],
            "loss_changes": [
              0
            ],
            "parents": [
              2147483647
            ],
            "right_children": [
              -1
            ],
            "split_conditions": [
              -0.00004837618
            ],
            "split_indices": [
              0
            ],
            "split_type": [
              0
            ],
            "sum_hessian": [
              72
            ],
            "tree_param": {
              "num_deleted": "0",
              "num_feature": "8",
              "num_nodes": "1",
              "size_leaf_vector": "1"
            }
          },
          {
            "base_weights": [
              -0.00044370515
            ],
            "categories": [],
            "categories_nodes": [],
            "categories_segments": [],
            "categories_sizes": [],
            "default_left": [
              0
            ],
            "id": 30,
            "left_children": [
              -1
            ],
            "loss_changes": [
              0
            ],
            "parents": [
              2147483647
            ],
            "right_children": [
              -1
            ],
            "split_conditions": [
              -0.000022185259
            ],
            "split_indices": [
              0
            ],
            "split_type": [
              0
            ],
            "sum_hessian": [
              71
            ],
            "tree_param": {
              "num_deleted": "0",
              "num_feature": "8",
              "num_nodes": "1",
              "size_leaf_vector": "1"
            }
          },
          {
            "base_weights": [
              -0.0010659224
            ],
            "categories": [],
            "categories_nodes": [],
            "categories_segments": [],
            "categories_sizes": [],
            "default_left": [
              0
            ],
            "id": 31,
            "left_children": [
              -1
            ],
            "loss_changes": [
              0
            ],
            "parents": [
              2147483647
            ],
            "right_children": [
              -1
            ],
            "split_conditions": [
              -0.000053296124
            ],
            "split_indices": [
              0
            ],
            "split_type": [
              0
            ],
            "sum_hessian": [
              74
            ],
            "tree_param": {
              "num_deleted": "0",
              "num_feature": "8",
              "num_nodes": "1",
              "size_leaf_vector": "1"
            }
          },
          {
            "base_weights": [
              0.00056752644
            ],
            "categories": [],
            "categories_nodes": [],
            "categories_segments": [],
            "categories_sizes": [],
            "default_left": [
              0
            ],
            "id": 32,
            "left_children": [
              -1
            ],
            "loss_changes": [
              0
            ],
            "parents": [
              2147483647
            ],
            "right_children": [
              -1
            ],
            "split_conditions": [
              0.000028376322
            ],
            "split_indices": [
              0
            ],
            "split_type": [
              0
            ],
            "sum_hessian": [
              7E+1
            ],
            "tree_param": {
              "num_deleted": "0",
              "num_feature": "8",
              "num_nodes": "1",
              "size_leaf_vector": "1"
            }
          },
          {
            "base_weights": [
              0.0010984145
            ],
            "categories": [],
            "categories_nodes": [],
            "categories_segments": [],
            "categories_sizes": [],
            "default_left": [
              0
            ],
            "id": 33,
            "left_children": [
              -1
            ],
            "loss_changes": [
              0
            ],
            "parents": [
              2147483647
            ],
            "right_children": [
              -1
            ],
            "split_conditions": [
              0.00005492073
            ],
            "split_indices": [
              0
            ],
            "split_type": [
              0
            ],
            "sum_hessian": [
              72
            ],
            "tree_param": {
              "num_deleted": "0",
              "num_feature": "8",
              "num_nodes": "1",
              "size_leaf_vector": "1"
            }
          },
          {
            "base_weights": [
              -0.0020995366
            ],
            "categories": [],
            "categories_nodes": [],
            "categories_segments": [],
            "categories_sizes": [],
            "default_left": [
              0
            ],
            "id": 34,
            "left_children": [
              -1
            ],
            "loss_changes": [
              0
            ],
            "parents": [
              2147483647
            ],
            "right_children": [
              -1
            ],
            "split_conditions": [
              -0.00010497683
            ],
            "split_indices": [
              0
            ],
            "split_type": [
              0
            ],
            "sum_hessian": [
              69
            ],
            "tree_param": {
              "num_deleted": "0",
              "num_feature": "8",
              "num_nodes": "1",
              "size_leaf_vector": "1"
            }
          },
          {
            "base_weights": [
              0.0006739886
            ],
            "categories": [],
            "categories_nodes": [],
            "categories_segments": [],
            "categories_sizes": [],
            "default_left": [
              0
            ],
            "id": 35,
            "left_children": [
              -1
            ],
            "loss_changes": [
              0
            ],
            "parents": [
              2147483647
            ],
            "right_children": [
              -1
            ],
            "split_conditions": [
              0.00003369943
            ],
            "split_indices": [
              0
            ],
            "split_type": [
              0
            ],
            "sum_hessian": [
              7E+1
            ],
            "tree_param": {
              "num_deleted": "0",
              "num_feature": "8",
              "num_nodes": "1",
              "size_leaf_vector": "1"
            }
          },
          {
            "base_weights": [
              -0.00023756856
            ],
            "categories": [],
            "categories_nodes": [],
            "categories_segments": [],
            "categories_sizes": [],
            "default_left": [
              0
            ],
            "id": 36,
            "left_children": [
              -1
            ],
            "loss_changes": [
              0
            ],
            "parents": [
              2147483647
            ],
            "right_children": [
              -1
            ],
            "split_conditions": [
              -0.000011878428
            ],
            "split_indices": [
              0
            ],
            "split_type": [
              0
            ],
            "sum_hessian": [
              67
            ],
            "tree_param": {
              "num_deleted": "0",
              "num_feature": "8",
              "num_nodes": "1",
              "size_leaf_vector": "1"
            }
          },
          {
            "base_weights": [
              0.0008000882
            ],
            "categories": [],
            "categories_nodes": [],
            "categories_segments": [],
            "categories_sizes": [],
            "default_left": [
              0
            ],
            "id": 37,
            "left_children": [
              -1
            ],
            "loss_changes": [
              0
            ],
            "parents": [
              2147483647
            ],
            "right_children": [
              -1
            ],
            "split_conditions": [
              0.000040004412
            ],
            "split_indices": [
              0
            ],
            "split_type": [
              0
            ],
            "sum_hessian": [
              73
            ],
            "tree_param": {
              "num_deleted": "0",
              "num_feature": "8",
              "num_nodes": "1",
              "size_leaf_vector": "1"
            }
          },
          {
            "base_weights": [
              0.0005923421
            ],
            "categories": [],
            "categories_nodes": [],
            "categories_segments": [],
            "categories_sizes": [],
            "default_left": [
              0
            ],
            "id": 38,
            "left_children": [
              -1
            ],
            "loss_changes": [
              0
            ],
            "parents": [
              2147483647
            ],
            "right_children": [
              -1
            ],
            "split_conditions": [
              0.000029617106
            ],
            "split_indices": [
              0
            ],
            "split_type": [
              0
            ],
            "sum_hessian": [
              72
            ],
            "tree_param": {
              "num_deleted": "0",
              "num_feature": "8",
              "num_nodes": "1",
              "size_leaf_vector": "1"
            }
          },
          {
            "base_weights": [
              0.0011850728
            ],
            "categories": [],
            "categories_nodes": [],
            "categories_segments": [],
            "categories_sizes": [],
            "default_left": [
              0
            ],
            "id": 39,
            "left_children": [
              -1
            ],
            "loss_changes": [
              0
            ],
            "parents": [
              2147483647
            ],
            "right_children": [
              -1
            ],
            "split_conditions": [
              0.00005925364
            ],
            "split_indices": [
              0
            ],
            "split_type": [
              0
            ],
            "sum_hessian": [
              7E+1
            ],
            "tree_param": {
              "num_deleted": "0",
              "num_feature": "8",
              "num_nodes": "1",
              "size_leaf_vector": "1"
            }
          },
          {
            "base_weights": [
              0.00078581827
            ],
            "categories": [],
            "categories_nodes": [],
            "categories_segments": [],
            "categories_sizes": [],
            "default_left": [
              0
            ],
            "id": 40,
            "left_children": [
              -1
            ],
            "loss_changes": [
              0
            ],
            "parents": [
              2147483647
            ],
            "right_children": [
              -1
            ],
            "split_conditions": [
              0.000039290913
            ],
            "split_indices": [
              0
            ],
            "split_type": [
              0
            ],
            "sum_hessian": [
              68
            ],
            "tree_param": {
              "num_deleted": "0",
              "num_feature": "8",
              "num_nodes": "1",
              "size_leaf_vector": "1"
            }
          },
          {
            "base_weights": [
              -0.00014719367
            ],
            "categories": [],
            "categories_nodes": [],
            "categories_segments": [],
            "categories_sizes": [],
            "default_left": [
              0
            ],
            "id": 41,
            "left_children": [
              -1
            ],
            "loss_changes": [
              0
            ],
            "parents": [
              2147483647
            ],
            "right_children": [
              -1
            ],
            "split_conditions": [
              -0.0000073596834
            ],
            "split_indices": [
              0
            ],
            "split_type": [
              0
            ],
            "sum_hessian": [
              66
            ],
            "tree_param": {
              "num_deleted": "0",
              "num_feature": "8",
              "num_nodes": "1",
              "size_leaf_vector": "1"
            }
          },
          {
            "base_weights": [
              -0.00057045784
            ],
            "categories": [],
            "categories_nodes": [],
            "categories_segments": [],
            "categories_sizes": [],
            "default_left": [
              0
            ],
            "id": 42,
            "left_children": [
              -1
            ],
            "loss_changes": [
              0
            ],
            "parents": [
              2147483647
            ],
            "right_children": [
              -1
            ],
            "split_conditions": [
              -0.000028522893
            ],
            "split_indices": [
              0
            ],
            "split_type": [
              0
            ],
            "sum_hessian": [
              7E+1
            ],
            "tree_param": {
              "num_deleted": "0",
              "num_feature": "8",
              "num_nodes": "1",
              "size_leaf_vector": "1"
            }
          },
          {
            "base_weights": [
              0.0006639631
            ],
            "categories": [],
            "categories_nodes": [],
            "categories_segments": [],
            "categories_sizes": [],
            "default_left": [
              0
            ],
            "id": 43,
            "left_children": [
              -1
            ],
            "loss_changes": [
              0
            ],
            "parents": [
              2147483647
            ],
            "right_children": [
              -1
            ],
            "split_conditions": [
              0.000033198154
            ],
            "split_indices": [
              0
            ],
            "split_type": [
              0
            ],
            "sum_hessian": [
              71
            ],
            "tree_param": {
              "num_deleted": "0",
              "num_feature": "8",
              "num_nodes": "1",
              "size_leaf_vector": "1"
            }
          },
          {
            "base_weights": [
              -0.00020421612
            ],
            "categories": [],
            "categories_nodes": [],
            "categories_segments": [],
            "categories_sizes": [],
            "default_left": [
              0
            ],
            "id": 44,
            "left_children": [
              -1
            ],
            "loss_changes": [
              0
            ],
            "parents": [
              2147483647
            ],
            "right_children": [
              -1
            ],
            "split_conditions": [
              -0.000010210806
            ],
            "split_indices": [
              0
            ],
            "split_type": [
              0
            ],
            "sum_hessian": [
              71
            ],
            "tree_param": {
              "num_deleted": "0",
              "num_feature": "8",
              "num_nodes": "1",
              "size_leaf_vector": "1"
            }
          },
          {
            "base_weights": [
              -0.0005065694
            ],
            "categories": [],
            "categories_nodes": [],
            "categories_segments": [],
            "categories_sizes": [],
            "default_left": [
              0
            ],
            "id": 45,
            "left_children": [
              -1
            ],
            "loss_changes": [
              0
            ],
            "parents": [
              2147483647
            ],
            "right_children": [
              -1
            ],
            "split_conditions": [
              -0.00002532847
            ],
            "split_indices": [
              0
            ],
            "split_type": [
              0
            ],
            "sum_hessian": [
              72
            ],
            "tree_param": {
              "num_deleted": "0",
              "num_feature": "8",
              "num_nodes": "1",
              "size_leaf_vector": "1"
            }
          },
          {
            "base_weights": [
              0.001246839
            ],
            "categories": [],
            "categories_nodes": [],
            "categories_segments": [],
            "categories_sizes": [],
            "default_left": [
              0
            ],
            "id": 46,
            "left_children": [
              -1
            ],
            "loss_changes": [
              0
            ],
            "parents": [
              2147483647
            ],
            "right_children": [
              -1
            ],
            "split_conditions": [
              0.00006234195
            ],
            "split_indices": [
              0
            ],
            "split_type": [
              0
            ],
            "sum_hessian": [
              68
            ],
            "tree_param": {
              "num_deleted": "0",
              "num_feature": "8",
              "num_nodes": "1",
              "size_leaf_vector": "1"
            }
          },
          {
            "base_weights": [
              0.0009599717
            ],
            "categories": [],
            "categories_nodes": [],
            "categories_segments": [],
            "categories_sizes": [],
            "default_left": [
              0
            ],
            "id": 47,
            "left_children": [
              -1
            ],
            "loss_changes": [
              0
            ],
            "parents": [
              2147483647
            ],
            "right_children": [
              -1
            ],
            "split_conditions": [
              0.000047998587
            ],
            "split_indices": [
              0
            ],
            "split_type": [
              0
            ],
            "sum_hessian": [
              67
            ],
            "tree_param": {
              "num_deleted": "0",
              "num_feature": "8",
              "num_nodes": "1",
              "size_leaf_vector": "1"
            }
          },
          {
            "base_weights": [
              -0.00084320706
            ],
            "categories": [],
            "categories_nodes": [],
            "categories_segments": [],
            "categories_sizes": [],
            "default_left": [
              0
            ],
            "id": 48,
            "left_children": [
              -1
            ],
            "loss_changes": [
              0
            ],
            "parents": [
              2147483647
            ],
            "right_children": [
              -1
            ],
            "split_conditions": [
              -0.000042160354
            ],
            "split_indices": [
              0
            ],
            "split_type": [
              0
            ],
            "sum_hessian": [
              7E+1
            ],
            "tree_param": {
              "num_deleted": "0",
              "num_feature": "8",
              "num_nodes": "1",
              "size_leaf_vector": "1"
            }
          },
          {
            "base_weights": [
              0.00017914725
            ],
            "categories": [],
            "categories_nodes": [],
            "categories_segments": [],
            "categories_sizes": [],
            "default_left": [
              0
            ],
            "id": 49,
            "left_children": [
              -1
            ],
            "loss_changes": [
              0
            ],
            "parents": [
              2147483647
            ],
            "right_children": [
              -1
            ],
            "split_conditions": [
              0.000008957362
            ],
            "split_indices": [
              0
            ],
            "split_type": [
              0
            ],
            "sum_hessian": [
              74
            ],
            "tree_param": {
              "num_deleted": "0",
              "num_feature": "8",
              "num_nodes": "1",
              "size_leaf_vector": "1"
            }
          },
          {
            "base_weights": [
              0.001014135
            ],
            "categories": [],
            "categories_nodes": [],
            "categories_segments": [],
            "categories_sizes": [],
            "default_left": [
              0
            ],
            "id": 50,
            "left_children": [
              -1
            ],
            "loss_changes": [
              0
            ],
            "parents": [
              2147483647
            ],
            "right_children": [
              -1
            ],
            "split_conditions": [
              0.00005070675
            ],
            "split_indices": [
              0
            ],
            "split_type": [
              0
            ],
            "sum_hessian": [
              7E+1
            ],
            "tree_param": {
              "num_deleted": "0",
              "num_feature": "8",
              "num_nodes": "1",
              "size_leaf_vector": "1"
            }
          },
          {
            "base_weights": [
              -0.0003880435
            ],
            "categories": [],
            "categories_nodes": [],
            "categories_segments": [],
            "categories_sizes": [],
            "default_left": [
              0
            ],
            "id": 51,
            "left_children": [
              -1
            ],
            "loss_changes": [
              0
            ],
            "parents": [
              2147483647
            ],
            "right_children": [
              -1
            ],
            "split_conditions": [
              -0.000019402176
            ],
            "split_indices": [
              0
            ],
            "split_type": [
              0
            ],
            "sum_hessian": [
              74
            ],
            "tree_param": {
              "num_deleted": "0",
              "num_feature": "8",
              "num_nodes": "1",
              "size_leaf_vector": "1"
            }
          },
          {
            "base_weights": [
              -0.00067245244
            ],
            "categories": [],
            "categories_nodes": [],
            "categories_segments": [],
            "categories_sizes": [],
            "default_left": [
              0
            ],
            "id": 52,
            "left_children": [
              -1
            ],
            "loss_changes": [
              0
            ],
            "parents": [
              2147483647
            ],
            "right_children": [
              -1
            ],
            "split_conditions": [
              -0.000033622622
            ],
            "split_indices": [
              0
            ],
            "split_type": [
              0
            ],
            "sum_hessian": [
              73
            ],
            "tree_param": {
              "num_deleted": "0",
              "num_feature": "8",
              "num_nodes": "1",
              "size_leaf_vector": "1"
            }
          },
          {
            "base_weights": [
              -0.00056943175
            ],
            "categories": [],
            "categories_nodes": [],
            "categories_segments": [],
            "categories_sizes": [],
            "default_left": [
              0
            ],
            "id": 53,
            "left_children": [
              -1
            ],
            "loss_changes": [
              0
            ],
            "parents": [
              2147483647
            ],
            "right_children": [
              -1
            ],
            "split_conditions": [
              -0.000028471588
            ],
            "split_indices": [
              0
            ],
            "split_type": [
              0
            ],
            "sum_hessian": [
              71
            ],
            "tree_param": {
              "num_deleted": "0",
              "num_feature": "8",
              "num_nodes": "1",
              "size_leaf_vector": "1"
            }
          },
          {
            "base_weights": [
              0.00053288456
            ],
            "categories": [],
            "categories_nodes": [],
            "categories_segments": [],
            "categories_sizes": [],
            "default_left": [
              0
            ],
            "id": 54,
            "left_children": [
              -1
            ],
            "loss_changes": [
              0
            ],
            "parents": [
              2147483647
            ],
            "right_children": [
              -1
            ],
            "split_conditions": [
              0.000026644228
            ],
            "split_indices": [
              0
            ],
            "split_type": [
              0
            ],
            "sum_hessian": [
              7E+1
            ],
            "tree_param": {
              "num_deleted": "0",
              "num_feature": "8",
              "num_nodes": "1",
              "size_leaf_vector": "1"
            }
          },
          {
            "base_weights": [
              0.0001727672
            ],
            "categories": [],
            "categories_nodes": [],
            "categories_segments": [],
            "categories_sizes": [],
            "default_left": [
              0
            ],
            "id": 55,
            "left_children": [
              -1
            ],
            "loss_changes": [
              0
            ],
            "parents": [
              2147483647
            ],
            "right_children": [
              -1
            ],
            "split_conditions": [
              0.000008638361
            ],
            "split_indices": [
              0
            ],
            "split_type": [
              0
            ],
            "sum_hessian": [
              74
            ],
            "tree_param": {
              "num_deleted": "0",
              "num_feature": "8",
              "num_nodes": "1",
              "size_leaf_vector": "1"
            }
          },
          {
            "base_weights": [
              0.0022674385
            ],
            "categories": [],
            "categories_nodes": [],
            "categories_segments": [],
            "categories_sizes": [],
            "default_left": [
              0
            ],
            "id": 56,
            "left_children": [
              -1
            ],
            "loss_changes": [
              0
            ],
            "parents": [
              2147483647
            ],
            "right_children": [
              -1
            ],
            "split_conditions": [
              0.00011337193
            ],
            "split_indices": [
              0
            ],
            "split_type": [
              0
            ],
            "sum_hessian": [
              67
            ],
            "tree_param": {
              "num_deleted": "0",
              "num_feature": "8",
              "num_nodes": "1",
              "size_leaf_vector": "1"
            }
          },
          {
            "base_weights": [
              -0.00028466212
            ],
            "categories": [],
            "categories_nodes": [],
            "categories_segments": [],
            "categories_sizes": [],
            "default_left": [
              0
            ],
            "id": 57,
            "left_children": [
              -1
            ],
            "loss_changes": [
              0
            ],
            "parents": [
              2147483647
            ],
            "right_children": [
              -1
            ],
            "split_conditions": [
              -0.000014233106
            ],
            "split_indices": [
              0
            ],
            "split_type": [
              0
            ],
            "sum_hessian": [
              72
            ],
            "tree_param": {
              "num_deleted": "0",
              "num_feature": "8",
              "num_nodes": "1",
              "size_leaf_vector": "1"
            }
          },
          {
            "base_weights": [
              0.00042364883
            ],
            "categories": [],
            "categories_nodes": [],
            "categories_segments": [],
            "categories_sizes": [],
            "default_left": [
              0
            ],
            "id": 58,
            "left_children": [
              -1
            ],
            "loss_changes": [
              0
            ],
            "parents": [
              2147483647
            ],
            "right_children": [
              -1
            ],
            "split_conditions": [
              0.000021182443
            ],
            "split_indices": [
              0
            ],
            "split_type": [
              0
            ],
            "sum_hessian": [
              69
            ],
            "tree_param": {
              "num_deleted": "0",
              "num_feature": "8",
              "num_nodes": "1",
              "size_leaf_vector": "1"
            }
          },
          {
            "base_weights": [
              -0.00022697693
            ],
            "categories": [],
            "categories_nodes": [],
            "categories_segments": [],
            "categories_sizes": [],
            "default_left": [
              0
            ],
            "id": 59,
            "left_children": [
              -1
            ],
            "loss_changes": [
              0
            ],
            "parents": [
              2147483647
            ],
            "right_children": [
              -1
            ],
            "split_conditions": [
              -0.000011348847
            ],
            "split_indices": [
              0
            ],
            "split_type": [
              0
            ],
            "sum_hessian": [
              71
            ],
            "tree_param": {
              "num_deleted": "0",
              "num_feature": "8",
              "num_nodes": "1",
              "size_leaf_vector": "1"
            }
          },
          {
            "base_weights": [
              -0.0012262345
            ],
            "categories": [],
            "categories_nodes": [],
            "categories_segments": [],
            "categories_sizes": [],
            "default_left": [
              0
            ],
            "id": 60,
            "left_children": [
              -1
            ],
            "loss_changes": [
              0
            ],
            "parents": [
              2147483647
            ],
            "right_children": [
              -1
            ],
            "split_conditions": [
              -0.00006131172
            ],
            "split_indices": [
              0
            ],
            "split_type": [
              0
            ],
            "sum_hessian": [
              68
            ],
            "tree_param": {
              "num_deleted": "0",
              "num_feature": "8",
              "num_nodes": "1",
              "size_leaf_vector": "1"
            }
          },
          {
            "base_weights": [
              -0.0014625047
            ],
            "categories": [],
            "categories_nodes": [],
            "categories_segments": [],
            "categories_sizes": [],
            "default_left": [
              0
            ],
            "id": 61,
            "left_children": [
              -1
            ],
            "loss_changes": [
              0
            ],
            "parents": [
              2147483647
            ],
            "right_children": [
              -1
            ],
            "split_conditions": [
              -0.00007312524
            ],
            "split_indices": [
              0
            ],
            "split_type": [
              0
            ],
            "sum_hessian": [
              68
            ],
            "tree_param": {
              "num_deleted": "0",
              "num_feature": "8",
              "num_nodes": "1",
              "size_leaf_vector": "1"
            }
          },
          {
            "base_weights": [
              -0.0002958553
            ],
            "categories": [],
            "categories_nodes": [],
            "categories_segments": [],
            "categories_sizes": [],
            "default_left": [
              0
            ],
            "id": 62,
            "left_children": [
              -1
            ],
            "loss_changes": [
              0
            ],
            "parents": [
              2147483647
            ],
            "right_children": [
              -1
            ],
            "split_conditions": [
              -0.000014792766
            ],
            "split_indices": [
              0
            ],
            "split_type": [
              0
            ],
            "sum_hessian": [
              68
            ],
            "tree_param": {
              "num_deleted": "0",
              "num_feature": "8",
              "num_nodes": "1",
              "size_leaf_vector": "1"
            }
          },
          {
            "base_weights": [
              0.002721413
            ],
            "categories": [],
            "categories_nodes": [],
            "categories_segments": [],
            "categories_sizes": [],
            "default_left": [
              0
            ],
            "id": 63,
            "left_children": [
              -1
            ],
            "loss_changes": [
              0
            ],
            "parents": [
              2147483647
            ],
            "right_children": [
              -1
            ],
            "split_conditions": [
              0.00013607065
            ],
            "split_indices": [
              0
            ],
            "split_type": [
              0
            ],
            "sum_hessian": [
              66
            ],
            "tree_param": {
              "num_deleted": "0",
              "num_feature": "8",
              "num_nodes": "1",
              "size_leaf_vector": "1"
            }
          },
          {
            "base_weights": [
              0.00017850002
            ],
            "categories": [],
            "categories_nodes": [],
            "categories_segments": [],
            "categories_sizes": [],
            "default_left": [
              0
            ],
            "id": 64,
            "left_children": [
              -1
            ],
            "loss_changes": [
              0
            ],
            "parents": [
              2147483647
            ],
            "right_children": [
              -1
            ],
            "split_conditions": [
              0.000008925002
            ],
            "split_indices": [
              0
            ],
            "split_type": [
              0
            ],
            "sum_hessian": [
              73
            ],
            "tree_param": {
              "num_deleted": "0",
              "num_feature": "8",
              "num_nodes": "1",
              "size_leaf_vector": "1"
            }
          },
          {
            "base_weights": [
              0.00037770256
            ],
            "categories": [],
            "categories_nodes": [],
            "categories_segments": [],
            "categories_sizes": [],
            "default_left": [
              0
            ],
            "id": 65,
            "left_children": [
              -1
            ],
            "loss_changes": [
              0
            ],
            "parents": [
              2147483647
            ],
            "right_children": [
              -1
            ],
            "split_conditions": [
              0.000018885128
            ],
            "split_indices": [
              0
            ],
            "split_type": [
              0
            ],
            "sum_hessian": [
              72
            ],
            "tree_param": {
              "num_deleted": "0",
              "num_feature": "8",
              "num_nodes": "1",
              "size_leaf_vector": "1"
            }
          },
          {
            "base_weights": [
              0.00009325104
            ],
            "categories": [],
            "categories_nodes": [],
            "categories_segments": [],
            "categories_sizes": [],
            "default_left": [
              0
            ],
            "id": 66,
            "left_children": [
              -1
            ],
            "loss_changes": [
              0
            ],
            "parents": [
              2147483647
            ],
            "right_children": [
              -1
            ],
            "split_conditions": [
              0.000004662552
            ],
            "split_indices": [
              0
            ],
            "split_type": [
              0
            ],
            "sum_hessian": [
              67
            ],
            "tree_param": {
              "num_deleted": "0",
              "num_feature": "8",
              "num_nodes": "1",
              "size_leaf_vector": "1"
            }
          },
          {
            "base_weights": [
              0.00020019867
            ],
            "categories": [],
            "categories_nodes": [],
            "categories_segments": [],
            "categories_sizes": [],
            "default_left": [
              0
            ],
            "id": 67,
            "left_children": [
              -1
            ],
            "loss_changes": [
              0
            ],
            "parents": [
              2147483647
            ],
            "right_children": [
              -1
            ],
            "split_conditions": [
              0.000010009934
            ],
            "split_indices": [
              0
            ],
            "split_type": [
              0
            ],
            "sum_hessian": [
              74
            ],
            "tree_param": {
              "num_deleted": "0",
              "num_feature": "8",
              "num_nodes": "1",
              "size_leaf_vector": "1"
            }
          },
          {
            "base_weights": [
              0.00002238512
            ],
            "categories": [],
            "categories_nodes": [],
            "categories_segments": [],
            "categories_sizes": [],
            "default_left": [
              0
            ],
            "id": 68,
            "left_children": [
              -1
            ],
            "loss_changes": [
              0
            ],
            "parents": [
              2147483647
            ],
            "right_children": [
              -1
            ],
            "split_conditions": [
              0.000001119256
            ],
            "split_indices": [
              0
            ],
            "split_type": [
              0
            ],
            "sum_hessian": [
              73
            ],
            "tree_param": {
              "num_deleted": "0",
              "num_feature": "8",
              "num_nodes": "1",
              "size_leaf_vector": "1"
            }
          },
          {
            "base_weights": [
              0.00013013101
            ],
            "categories": [],
            "categories_nodes": [],
            "categories_segments": [],
            "categories_sizes": [],
            "default_left": [
              0
            ],
            "id": 69,
            "left_children": [
              -1
            ],
            "loss_changes": [
              0
            ],
            "parents": [
              2147483647
            ],
            "right_children": [
              -1
            ],
            "split_conditions": [
              0.0000065065506
            ],
            "split_indices": [
              0
            ],
            "split_type": [
              0
            ],
            "sum_hessian": [
              7E+1
            ],
            "tree_param": {
              "num_deleted": "0",
              "num_feature": "8",
              "num_nodes": "1",
              "size_leaf_vector": "1"
            }
          },
          {
            "base_weights": [
              0.0019748
            ],
            "categories": [],
            "categories_nodes": [],
            "categories_segments": [],
            "categories_sizes": [],
            "default_left": [
              0
            ],
            "id": 70,
            "left_children": [
              -1
            ],
            "loss_changes": [
              0
            ],
            "parents": [
              2147483647
            ],
            "right_children": [
              -1
            ],
            "split_conditions": [
              0.00009874
            ],
            "split_indices": [
              0
            ],
            "split_type": [
              0
            ],
            "sum_hessian": [
              68
            ],
            "tree_param": {
              "num_deleted": "0",
              "num_feature": "8",
              "num_nodes": "1",
              "size_leaf_vector": "1"
            }
          },
          {
            "base_weights": [
              0.00029332438
            ],
            "categories": [],
            "categories_nodes": [],
            "categories_segments": [],
            "categories_sizes": [],
            "default_left": [
              0
            ],
            "id": 71,
            "left_children": [
              -1
            ],
            "loss_changes": [
              0
            ],
            "parents": [
              2147483647
            ],
            "right_children": [
              -1
            ],
            "split_conditions": [
              0.00001466622
            ],
            "split_indices": [
              0
            ],
            "split_type": [
              0
            ],
            "sum_hessian": [
              7E+1
            ],
            "tree_param": {
              "num_deleted": "0",
              "num_feature": "8",
              "num_nodes": "1",
              "size_leaf_vector": "1"
            }
          },
          {
            "base_weights": [
              0.0009470319
            ],
            "categories": [],
            "categories_nodes": [],
            "categories_segments": [],
            "categories_sizes": [],
            "default_left": [
              0
            ],
            "id": 72,
            "left_children": [
              -1
            ],
            "loss_changes": [
              0
            ],
            "parents": [
              2147483647
            ],
            "right_children": [
              -1
            ],
            "split_conditions": [
              0.000047351594
            ],
            "split_indices": [
              0
            ],
            "split_type": [
              0
            ],
            "sum_hessian": [
              66
            ],
            "tree_param": {
              "num_deleted": "0",
              "num_feature": "8",
              "num_nodes": "1",
              "size_leaf_vector": "1"
            }
          },
          {
            "base_weights": [
              -0.00010950237
            ],
            "categories": [],
            "categories_nodes": [],
            "categories_segments": [],
            "categories_sizes": [],
            "default_left": [
              0
            ],
            "id": 73,
            "left_children": [
              -1
            ],
            "loss_changes": [
              0
            ],
            "parents": [
              2147483647
            ],
            "right_children": [
              -1
            ],
            "split_conditions": [
              -0.0000054751185
            ],
            "split_indices": [
              0
            ],
            "split_type": [
              0
            ],
            "sum_hessian": [
              67
            ],
            "tree_param": {
              "num_deleted": "0",
              "num_feature": "8",
              "num_nodes": "1",
              "size_leaf_vector": "1"
            }
          },
          {
            "base_weights": [
              0.0012740396
            ],
            "categories": [],
            "categories_nodes": [],
            "categories_segments": [],
            "categories_sizes": [],
            "default_left": [
              0
            ],
            "id": 74,
            "left_children": [
              -1
            ],
            "loss_changes": [
              0
            ],
            "parents": [
              2147483647
            ],
            "right_children": [
              -1
            ],
            "split_conditions": [
              0.000063701984
            ],
            "split_indices": [
              0
            ],
            "split_type": [
              0
            ],
            "sum_hessian": [
              6E+1
            ],
            "tree_param": {
              "num_deleted": "0",
              "num_feature": "8",
              "num_nodes": "1",
              "size_leaf_vector": "1"
            }
          },
          {
            "base_weights": [
              -0.0005984453
            ],
            "categories": [],
            "categories_nodes": [],
            "categories_segments": [],
            "categories_sizes": [],
            "default_left": [
              0
            ],
            "id": 75,
            "left_children": [
              -1
            ],
            "loss_changes": [
              0
            ],
            "parents": [
              2147483647
            ],
            "right_children": [
              -1
            ],
            "split_conditions": [
              -0.000029922265
            ],
            "split_indices": [
              0
            ],
            "split_type": [
              0
            ],
            "sum_hessian": [
              71
            ],
            "tree_param": {
              "num_deleted": "0",
              "num_feature": "8",
              "num_nodes": "1",
              "size_leaf_vector": "1"
            }
          },
          {
