{
  "learner": {
    "attributes": {
      "scikit_learn": "{\"_estimator_type\": \"regressor\"}"
    },
    "feature_names": [],
    "feature_types": [],
    "gradient_booster": {
      "model": {
        "cats": {
          "enc": [],
          "feature_segments": [],
          "sorted_idx": []
        },
        "gbtree_model_param": {
          "num_parallel_tree": "1",
          "num_trees": "800"
        },
        "iteration_indptr": [
          0,
          1,
          2,
          3,
          4,
          5,
          6,
          7,
          8,
          9,
          10,
          11,
          12,
          13,
          14,
          15,
          16,
          17,
          18,
          19,
          20,
          21,
          22,
          23,
          24,
          25,
          26,
          27,
          28,
          29,
          30,
          31,
          32,
          33,
          34,
          35,
          36,
          37,
          38,
          39,
          40,
          41,
          42,
          43,
          44,
          45,
          46,
          47,
          48,
          49,
          50,
          51,
          52,
          53,
          54,
          55,
          56,
          57,
          58,
          59,
          60,
          61,
          62,
          63,
          64,
          65,
          66,
          67,
          68,
          69,
          70,
          71,
          72,
          73,
          74,
          75,
          76,
          77,
          78,
          79,
          80,
          81,
          82,
          83,
          84,
          85,
          86,
          87,
          88,
          89,
          90,
          91,
          92,
          93,
          94,
          95,
          96,
          97,
          98,
          99,
          100,
          101,
          102,
          103,
          104,
          105,
          106,
          107,
          108,
          109,
          110,
          111,
          112,
          113,
          114,
          115,
          116,
          117,
          118,
          119,
          120,
          121,
          122,
          123,
          124,
          125,
          126,
          127,
          128,
          129,
          130,
          131,
          132,
          133,
          134,
          135,
          136,
          137,
          138,
          139,
          140,
          141,
          142,
          143,
          144,
          145,
          146,
          147,
          148,
          149,
          150,
          151,
          152,
          153,
          154,
          155,
          156,
          157,
          158,
          159,
          160,
          161,
          162,
          163,
          164,
          165,
          166,
          167,
          168,
          169,
          170,
          171,
          172,
          173,
          174,
          175,
          176,
          177,
          178,
          179,
          180,
          181,
          182,
          183,
          184,
          185,
          186,
          187,
          188,
          189,
          190,
          191,
          192,
          193,
          194,
          195,
          196,
          197,
          198,
          199,
          200,
          201,
          202,
          203,
          204,
          205,
          206,
          207,
          208,
          209,
          210,
          211,
          212,
          213,
          214,
          215,
          216,
          217,
          218,
          219,
          220,
          221,
          222,
          223,
          224,
          225,
          226,
          227,
          228,
          229,
          230,
          231,
          232,
          233,
          234,
          235,
          236,
          237,
          238,
          239,
          240,
          241,
          242,
          243,
          244,
          245,
          246,
          247,
          248,
          249,
          250,
          251,
          252,
          253,
          254,
          255,
          256,
          257,
          258,
          259,
          260,
          261,
          262,
          263,
          264,
          265,
          266,
          267,
          268,
          269,
          270,
          271,
          272,
          273,
          274,
          275,
          276,
          277,
          278,
          279,
          280,
          281,
          282,
          283,
          284,
          285,
          286,
          287,
          288,
          289,
          290,
          291,
          292,
          293,
          294,
          295,
          296,
          297,
          298,
          299,
          300,
          301,
          302,
          303,
          304,
          305,
          306,
          307,
          308,
          309,
          310,
          311,
          312,
          313,
          314,
          315,
          316,
          317,
          318,
          319,
          320,
          321,
          322,
          323,
          324,
          325,
          326,
          327,
          328,
          329,
          330,
          331,
          332,
          333,
          334,
          335,
          336,
          337,
          338,
          339,
          340,
          341,
          342,
          343,
          344,
          345,
          346,
          347,
          348,
          349,
          350,
          351,
          352,
          353,
          354,
          355,
          356,
          357,
          358,
          359,
          360,
          361,
          362,
          363,
          364,
          365,
          366,
          367,
          368,
          369,
          370,
          371,
          372,
          373,
          374,
          375,
          376,
          377,
          378,
          379,
          380,
          381,
          382,
          383,
          384,
          385,
          386,
          387,
          388,
          389,
          390,
          391,
          392,
          393,
          394,
          395,
          396,
          397,
          398,
          399,
          400,
          401,
          402,
          403,
          404,
          405,
          406,
          407,
          408,
          409,
          410,
          411,
          412,
          413,
          414,
          415,
          416,
          417,
          418,
          419,
          420,
          421,
          422,
          423,
          424,
          425,
          426,
          427,
          428,
          429,
          430,
          431,
          432,
          433,
          434,
          435,
          436,
          437,
          438,
          439,
          440,
          441,
          442,
          443,
          444,
          445,
          446,
          447,
          448,
          449,
          450,
          451,
          452,
          453,
          454,
          455,
          456,
          457,
          458,
          459,
          460,
          461,
          462,
          463,
          464,
          465,
          466,
          467,
          468,
          469,
          470,
          471,
          472,
          473,
          474,
          475,
          476,
          477,
          478,
          479,
          480,
          481,
          482,
          483,
          484,
          485,
          486,
          487,
          488,
          489,
          490,
          491,
          492,
          493,
          494,
          495,
          496,
          497,
          498,
          499,
          500,
          501,
          502,
          503,
          504,
          505,
          506,
          507,
          508,
          509,
          510,
          511,
          512,
          513,
          514,
          515,
          516,
          517,
          518,
          519,
          520,
          521,
          522,
          523,
          524,
          525,
          526,
          527,
          528,
          529,
          530,
          531,
          532,
          533,
          534,
          535,
          536,
          537,
          538,
          539,
          540,
          541,
          542,
          543,
          544,
          545,
          546,
          547,
          548,
          549,
          550,
          551,
          552,
          553,
          554,
          555,
          556,
          557,
          558,
          559,
          560,
          561,
          562,
          563,
          564,
          565,
          566,
          567,
          568,
          569,
          570,
          571,
          572,
          573,
          574,
          575,
          576,
          577,
          578,
          579,
          580,
          581,
          582,
          583,
          584,
          585,
          586,
          587,
          588,
          589,
          590,
          591,
          592,
          593,
          594,
          595,
          596,
          597,
          598,
          599,
          600,
          601,
          602,
          603,
          604,
          605,
          606,
          607,
          608,
          609,
          610,
          611,
          612,
          613,
          614,
          615,
          616,
          617,
          618,
          619,
          620,
          621,
          622,
          623,
          624,
          625,
          626,
          627,
          628,
          629,
          630,
          631,
          632,
          633,
          634,
          635,
          636,
          637,
          638,
          639,
          640,
          641,
          642,
          643,
          644,
          645,
          646,
          647,
          648,
          649,
          650,
          651,
          652,
          653,
          654,
          655,
          656,
          657,
          658,
          659,
          660,
          661,
          662,
          663,
          664,
          665,
          666,
          667,
          668,
          669,
          670,
          671,
          672,
          673,
          674,
          675,
          676,
          677,
          678,
          679,
          680,
          681,
          682,
          683,
          684,
          685,
          686,
          687,
          688,
          689,
          690,
          691,
          692,
          693,
          694,
          695,
          696,
          697,
          698,
          699,
          700,
          701,
          702,
          703,
          704,
          705,
          706,
          707,
          708,
          709,
          710,
          711,
          712,
          713,
          714,
          715,
          716,
          717,
          718,
          719,
          720,
          721,
          722,
          723,
          724,
          725,
          726,
          727,
          728,
          729,
          730,
          731,
          732,
          733,
          734,
          735,
          736,
          737,
          738,
          739,
          740,
          741,
          742,
          743,
          744,
          745,
          746,
          747,
          748,
          749,
          750,
          751,
          752,
          753,
          754,
          755,
          756,
          757,
          758,
          759,
          760,
          761,
          762,
          763,
          764,
          765,
          766,
          767,
          768,
          769,
          770,
          771,
          772,
          773,
          774,
          775,
          776,
          777,
          778,
          779,
          780,
          781,
          782,
          783,
          784,
          785,
          786,
          787,
          788,
          789,
          790,
          791,
          792,
          793,
          794,
          795,
          796,
          797,
          798,
          799,
          800
        ],
        "tree_info": [
          0,
          0,
          0,
          0,
          0,
          0,
          0,
          0,
          0,
          0,
          0,
          0,
          0,
          0,
          0,
          0,
          0,
          0,
          0,
          0,
          0,
          0,
          0,
          0,
          0,
          0,
          0,
          0,
          0,
          0,
          0,
          0,
          0,
          0,
          0,
          0,
          0,
          0,
          0,
          0,
          0,
          0,
          0,
          0,
          0,
          0,
          0,
          0,
          0,
          0,
          0,
          0,
          0,
          0,
          0,
          0,
          0,
          0,
          0,
          0,
          0,
          0,
          0,
          0,
          0,
          0,
          0,
          0,
          0,
          0,
          0,
          0,
          0,
          0,
          0,
          0,
          0,
          0,
          0,
          0,
          0,
          0,
          0,
          0,
          0,
          0,
          0,
          0,
          0,
          0,
          0,
          0,
          0,
          0,
          0,
          0,
          0,
          0,
          0,
          0,
          0,
          0,
          0,
          0,
          0,
          0,
          0,
          0,
          0,
          0,
          0,
          0,
          0,
          0,
          0,
          0,
          0,
          0,
          0,
          0,
          0,
          0,
          0,
          0,
          0,
          0,
          0,
          0,
          0,
          0,
          0,
          0,
          0,
          0,
          0,
          0,
          0,
          0,
          0,
          0,
          0,
          0,
          0,
          0,
          0,
          0,
          0,
          0,
          0,
          0,
          0,
          0,
          0,
          0,
          0,
          0,
          0,
          0,
          0,
          0,
          0,
          0,
          0,
          0,
          0,
          0,
          0,
          0,
          0,
          0,
          0,
          0,
          0,
          0,
          0,
          0,
          0,
          0,
          0,
          0,
          0,
          0,
          0,
          0,
          0,
          0,
          0,
          0,
          0,
          0,
          0,
          0,
          0,
          0,
          0,
          0,
          0,
          0,
          0,
          0,
          0,
          0,
          0,
          0,
          0,
          0,
          0,
          0,
          0,
          0,
          0,
          0,
          0,
          0,
          0,
          0,
          0,
          0,
          0,
          0,
          0,
          0,
          0,
          0,
          0,
          0,
          0,
          0,
          0,
          0,
          0,
          0,
          0,
          0,
          0,
          0,
          0,
          0,
          0,
          0,
          0,
          0,
          0,
          0,
          0,
          0,
          0,
          0,
          0,
          0,
          0,
          0,
          0,
          0,
          0,
          0,
          0,
          0,
          0,
          0,
          0,
          0,
          0,
          0,
          0,
          0,
          0,
          0,
          0,
          0,
          0,
          0,
          0,
          0,
          0,
          0,
          0,
          0,
          0,
          0,
          0,
          0,
          0,
          0,
          0,
          0,
          0,
          0,
          0,
          0,
          0,
          0,
          0,
          0,
          0,
          0,
          0,
          0,
          0,
          0,
          0,
          0,
          0,
          0,
          0,
          0,
          0,
          0,
          0,
          0,
          0,
          0,
          0,
          0,
          0,
          0,
          0,
          0,
          0,
          0,
          0,
          0,
          0,
          0,
          0,
          0,
          0,
          0,
          0,
          0,
          0,
          0,
          0,
          0,
          0,
          0,
          0,
          0,
          0,
          0,
          0,
          0,
          0,
          0,
          0,
          0,
          0,
          0,
          0,
          0,
          0,
          0,
          0,
          0,
          0,
          0,
          0,
          0,
          0,
          0,
          0,
          0,
          0,
          0,
          0,
          0,
          0,
          0,
          0,
          0,
          0,
          0,
          0,
          0,
          0,
          0,
          0,
          0,
          0,
          0,
          0,
          0,
          0,
          0,
          0,
          0,
          0,
          0,
          0,
          0,
          0,
          0,
          0,
          0,
          0,
          0,
          0,
          0,
          0,
          0,
          0,
          0,
          0,
          0,
          0,
          0,
          0,
          0,
          0,
          0,
          0,
          0,
          0,
          0,
          0,
          0,
          0,
          0,
          0,
          0,
          0,
          0,
          0,
          0,
          0,
          0,
          0,
          0,
          0,
          0,
          0,
          0,
          0,
          0,
          0,
          0,
          0,
          0,
          0,
          0,
          0,
          0,
          0,
          0,
          0,
          0,
          0,
          0,
          0,
          0,
          0,
          0,
          0,
          0,
          0,
          0,
          0,
          0,
          0,
          0,
          0,
          0,
          0,
          0,
          0,
          0,
          0,
          0,
          0,
          0,
          0,
          0,
          0,
          0,
          0,
          0,
          0,
          0,
          0,
          0,
          0,
          0,
          0,
          0,
          0,
          0,
          0,
          0,
          0,
          0,
          0,
          0,
          0,
          0,
          0,
          0,
          0,
          0,
          0,
          0,
          0,
          0,
          0,
          0,
          0,
          0,
          0,
          0,
          0,
          0,
          0,
          0,
          0,
          0,
          0,
          0,
          0,
          0,
          0,
          0,
          0,
          0,
          0,
          0,
          0,
          0,
          0,
          0,
          0,
          0,
          0,
          0,
          0,
          0,
          0,
          0,
          0,
          0,
          0,
          0,
          0,
          0,
          0,
          0,
          0,
          0,
          0,
          0,
          0,
          0,
          0,
          0,
          0,
          0,
          0,
          0,
          0,
          0,
          0,
          0,
          0,
          0,
          0,
          0,
          0,
          0,
          0,
          0,
          0,
          0,
          0,
          0,
          0,
          0,
          0,
          0,
          0,
          0,
          0,
          0,
          0,
          0,
          0,
          0,
          0,
          0,
          0,
          0,
          0,
          0,
          0,
          0,
          0,
          0,
          0,
          0,
          0,
          0,
          0,
          0,
          0,
          0,
          0,
          0,
          0,
          0,
          0,
          0,
          0,
          0,
          0,
          0,
          0,
          0,
          0,
          0,
          0,
          0,
          0,
          0,
          0,
          0,
          0,
          0,
          0,
          0,
          0,
          0,
          0,
          0,
          0,
          0,
          0,
          0,
          0,
          0,
          0,
          0,
          0,
          0,
          0,
          0,
          0,
          0,
          0,
          0,
          0,
          0,
          0,
          0,
          0,
          0,
          0,
          0,
          0,
          0,
          0,
          0,
          0,
          0,
          0,
          0,
          0,
          0,
          0,
          0,
          0,
          0,
          0,
          0,
          0,
          0,
          0,
          0,
          0,
          0,
          0,
          0,
          0,
          0,
          0,
          0,
          0,
          0,
          0,
          0,
          0,
          0,
          0,
          0,
          0,
          0,
          0,
          0,
          0,
          0,
          0,
          0,
          0,
          0,
          0,
          0,
          0,
          0,
          0,
          0,
          0,
          0,
          0,
          0,
          0,
          0,
          0,
          0,
          0,
          0,
          0,
          0,
          0,
          0,
          0,
          0,
          0,
          0,
          0,
          0,
          0,
          0,
          0,
          0,
          0,
          0,
          0,
          0,
          0,
          0,
          0,
          0,
          0,
          0,
          0,
          0,
          0,
          0,
          0,
          0,
          0,
          0,
          0,
          0,
          0,
          0,
          0,
          0,
          0,
          0,
          0,
          0,
          0,
          0,
          0,
          0,
          0,
          0,
          0,
          0,
          0,
          0,
          0,
          0,
          0,
          0,
          0,
          0,
          0,
          0,
          0,
          0,
          0,
          0,
          0,
          0,
          0,
          0,
          0,
          0,
          0,
          0,
          0,
          0,
          0,
          0,
          0,
          0,
          0,
          0,
          0,
          0,
          0,
          0
        ],
        "trees": [
          {
            "base_weights": [
              -0.000009809293,
              -0.17067353,
              0.0013858234,
              -0.010544158,
              -0.105041966,
              -0.006006743,
              0.0075738165
            ],
            "categories": [],
            "categories_nodes": [],
            "categories_segments": [],
            "categories_sizes": [],
            "default_left": [
              0,
              0,
              0,
              0,
              0,
              0,
              0
            ],
            "id": 0,
            "left_children": [
              1,
              3,
              -1,
              -1,
              5,
              -1,
              -1
            ],
            "loss_changes": [
              30.30289,
              2.3176193,
              0,
              0,
              1.3682265,
              0,
              0
            ],
            "parents": [
              2147483647,
              0,
              0,
              1,
              1,
              4,
              4
            ],
            "right_children": [
              2,
              4,
              -1,
              -1,
              6,
              -1,
              -1
            ],
            "split_conditions": [
              1,
              1.82E+3,
              0.0013858234,
              -0.010544158,
              2247,
              -0.006006743,
              0.0075738165
            ],
            "split_indices": [
              18,
              7,
              0,
              0,
              9,
              0,
              0
            ],
            "split_type": [
              0,
              0,
              0,
              0,
              0,
              0,
              0
            ],
            "sum_hessian": [
              6.4E+3,
              893,
              5507,
              551,
              342,
              324,
              18
            ],
            "tree_param": {
              "num_deleted": "0",
              "num_feature": "1000",
              "num_nodes": "7",
              "size_leaf_vector": "1"
            }
          },
          {
            "base_weights": [
              -0.000516913,
              -0.163777,
              0.0013177042,
              -0.0099399835,
              -0.10001294,
              -0.0056237807,
              0.0070239925
            ],
            "categories": [],
            "categories_nodes": [],
            "categories_segments": [],
            "categories_sizes": [],
            "default_left": [
              0,
              0,
              0,
              0,
              0,
              0,
              0
            ],
            "id": 1,
            "left_children": [
              1,
              3,
              -1,
              -1,
              5,
              -1,
              -1
            ],
            "loss_changes": [
              28.27821,
              1.994669,
              0,
              0,
              1.0116792,
              0,
              0
            ],
            "parents": [
              2147483647,
              0,
              0,
              1,
              1,
              4,
              4
            ],
            "right_children": [
              2,
              4,
              -1,
              -1,
              6,
              -1,
              -1
            ],
            "split_conditions": [
              1,
              1833,
              0.0013177042,
              -0.0099399835,
              2247,
              -0.0056237807,
              0.0070239925
            ],
            "split_indices": [
              18,
              7,
              0,
              0,
              9,
              0,
              0
            ],
            "split_type": [
              0,
              0,
              0,
              0,
              0,
              0,
              0
            ],
            "sum_hessian": [
              6442,
              909,
              5533,
              584,
              325,
              3.1E+2,
              15
            ],
            "tree_param": {
              "num_deleted": "0",
              "num_feature": "1000",
              "num_nodes": "7",
              "size_leaf_vector": "1"
            }
          },
          {
            "base_weights": [
              -0.0001179598,
              -0.15549737,
              0.001258755,
              -0.009485426,
              -0.09600382,
              -0.0054718843,
              0.0068764053
            ],
            "categories": [],
            "categories_nodes": [],
            "categories_segments": [],
            "categories_sizes": [],
            "default_left": [
              0,
              0,
              0,
              0,
              0,
              0,
              0
            ],
            "id": 2,
            "left_children": [
              1,
              3,
              -1,
              -1,
              5,
              -1,
              -1
            ],
            "loss_changes": [
              25.293581,
              1.7974205,
              0,
              0,
              1.0748007,
              0,
              0
            ],
            "parents": [
              2147483647,
              0,
              0,
              1,
              1,
              4,
              4
            ],
            "right_children": [
              2,
              4,
              -1,
              -1,
              6,
              -1,
              -1
            ],
            "split_conditions": [
              1,
              1.82E+3,
              0.001258755,
              -0.009485426,
              2247,
              -0.0054718843,
              0.0068764053
            ],
            "split_indices": [
              18,
              7,
              0,
              0,
              9,
              0,
              0
            ],
            "split_type": [
              0,
              0,
              0,
              0,
              0,
              0,
              0
            ],
            "sum_hessian": [
              6432,
              899,
              5533,
              568,
              331,
              314,
              17
            ],
            "tree_param": {
              "num_deleted": "0",
              "num_feature": "1000",
              "num_nodes": "7",
              "size_leaf_vector": "1"
            }
          },
          {
            "base_weights": [
              0.00027753043,
              -0.14626768,
              0.001185385,
              -0.0085779,
              -0.0037481652
            ],
            "categories": [],
            "categories_nodes": [],
            "categories_segments": [],
            "categories_sizes": [],
            "default_left": [
              0,
              0,
              0,
              0,
              0
            ],
            "id": 3,
            "left_children": [
              1,
              3,
              -1,
              -1,
              -1
            ],
            "loss_changes": [
              22.019611,
              1.5684052,
              0,
              0,
              0
            ],
            "parents": [
              2147483647,
              0,
              0,
              1,
              1
            ],
            "right_children": [
              2,
              4,
              -1,
              -1,
              -1
            ],
            "split_conditions": [
              1,
              1008,
              0.001185385,
              -0.0085779,
              -0.0037481652
            ],
            "split_indices": [
              18,
              9,
              0,
              0,
              0
            ],
            "split_type": [
              0,
              0,
              0,
              0,
              0
            ],
            "sum_hessian": [
              6409,
              882,
              5527,
              649,
              233
            ],
            "tree_param": {
              "num_deleted": "0",
              "num_feature": "1000",
              "num_nodes": "5",
              "size_leaf_vector": "1"
            }
          },
          {
            "base_weights": [
              -0.000066114335,
              -0.13925655,
              0.0011229463,
              -0.008610259,
              -0.0041456074
            ],
            "categories": [],
            "categories_nodes": [],
            "categories_segments": [],
            "categories_sizes": [],
            "default_left": [
              0,
              0,
              0,
              0,
              0
            ],
            "id": 4,
            "left_children": [
              1,
              3,
              -1,
              -1,
              -1
            ],
            "loss_changes": [
              20.078253,
              1.6274166,
              0,
              0,
              0
            ],
            "parents": [
              2147483647,
              0,
              0,
              1,
              1
            ],
            "right_children": [
              2,
              4,
              -1,
              -1,
              -1
            ],
            "split_conditions": [
              1,
              1.82E+3,
              0.0011229463,
              -0.008610259,
              -0.0041456074
            ],
            "split_indices": [
              18,
              7,
              0,
              0,
              0
            ],
            "split_type": [
              0,
              0,
              0,
              0,
              0
            ],
            "sum_hessian": [
              6.4E+3,
              8.9E+2,
              5.51E+3,
              559,
              331
            ],
            "tree_param": {
              "num_deleted": "0",
              "num_feature": "1000",
              "num_nodes": "5",
              "size_leaf_vector": "1"
            }
          },
          {
            "base_weights": [
              0.00018208599,
              -0.12898186,
              0.0010648352,
              -0.007808993,
              -0.003093206
            ],
            "categories": [],
            "categories_nodes": [],
            "categories_segments": [],
            "categories_sizes": [],
            "default_left": [
              0,
              0,
              0,
              0,
              0
            ],
            "id": 5,
            "left_children": [
              1,
              3,
              -1,
              -1,
              -1
            ],
            "loss_changes": [
              17.54715,
              1.6309004,
              0,
              0,
              0
            ],
            "parents": [
              2147483647,
              0,
              0,
              1,
              1
            ],
            "right_children": [
              2,
              4,
              -1,
              -1,
              -1
            ],
            "split_conditions": [
              613,
              1008,
              0.0010648352,
              -0.007808993,
              -0.003093206
            ],
            "split_indices": [
              19,
              9,
              0,
              0,
              0
            ],
            "split_type": [
              0,
              0,
              0,
              0,
              0
            ],
            "sum_hessian": [
              6.43E+3,
              902,
              5528,
              6.4E+2,
              262
            ],
            "tree_param": {
              "num_deleted": "0",
              "num_feature": "1000",
              "num_nodes": "5",
              "size_leaf_vector": "1"
            }
          },
          {
            "base_weights": [
              0.00008078333,
              -0.12544256,
              0.0010150402,
              -0.0065644863,
              0.0071018892
            ],
            "categories": [],
            "categories_nodes": [],
            "categories_segments": [],
            "categories_sizes": [],
            "default_left": [
              0,
              0,
              0,
              0,
              0
            ],
            "id": 6,
            "left_children": [
              1,
              3,
              -1,
              -1,
              -1
            ],
            "loss_changes": [
              16.281832,
              1.4292564,
              0,
              0,
              0
            ],
            "parents": [
              2147483647,
              0,
              0,
              1,
              1
            ],
            "right_children": [
              2,
              4,
              -1,
              -1,
              -1
            ],
            "split_conditions": [
              1,
              2247,
              0.0010150402,
              -0.0065644863,
              0.0071018892
            ],
            "split_indices": [
              18,
              9,
              0,
              0,
              0
            ],
            "split_type": [
              0,
              0,
              0,
              0,
              0
            ],
            "sum_hessian": [
              6411,
              888,
              5523,
              8.7E+2,
              18
            ],
            "tree_param": {
              "num_deleted": "0",
              "num_feature": "1000",
              "num_nodes": "5",
              "size_leaf_vector": "1"
            }
          },
          {
            "base_weights": [
              -0.00014355921,
              -0.120356314,
              0.0009722559,
              -0.007423833,
              -0.003421661
            ],
            "categories": [],
            "categories_nodes": [],
            "categories_segments": [],
            "categories_sizes": [],
            "default_left": [
              0,
              0,
              0,
              0,
              0
            ],
            "id": 7,
            "left_children": [
              1,
              3,
              -1,
              -1,
              -1
            ],
            "loss_changes": [
              15.226164,
              1.3025255,
              0,
              0,
              0
            ],
            "parents": [
              2147483647,
              0,
              0,
              1,
              1
            ],
            "right_children": [
              2,
              4,
              -1,
              -1,
              -1
            ],
            "split_conditions": [
              1,
              1833,
              0.0009722559,
              -0.007423833,
              -0.003421661
            ],
            "split_indices": [
              18,
              7,
              0,
              0,
              0
            ],
            "split_type": [
              0,
              0,
              0,
              0,
              0
            ],
            "sum_hessian": [
              6462,
              904,
              5558,
              584,
              3.2E+2
            ],
            "tree_param": {
              "num_deleted": "0",
              "num_feature": "1000",
              "num_nodes": "5",
              "size_leaf_vector": "1"
            }
          },
          {
            "base_weights": [
              0.00023747035,
              -0.114076436,
              0.0009221618,
              -0.007135894,
              -0.0033270647
            ],
            "categories": [],
            "categories_nodes": [],
            "categories_segments": [],
            "categories_sizes": [],
            "default_left": [
              0,
              0,
              0,
              0,
              0
            ],
            "id": 8,
            "left_children": [
              1,
              3,
              -1,
              -1,
              -1
            ],
            "loss_changes": [
              13.46731,
              1.1913595,
              0,
              0,
              0
            ],
            "parents": [
              2147483647,
              0,
              0,
              1,
              1
            ],
            "right_children": [
              2,
              4,
              -1,
              -1,
              -1
            ],
            "split_conditions": [
              1,
              1.82E+3,
              0.0009221618,
              -0.007135894,
              -0.0033270647
            ],
            "split_indices": [
              18,
              7,
              0,
              0,
              0
            ],
            "split_type": [
              0,
              0,
              0,
              0,
              0
            ],
            "sum_hessian": [
              6467,
              887,
              5.58E+3,
              551,
              336
            ],
            "tree_param": {
              "num_deleted": "0",
              "num_feature": "1000",
              "num_nodes": "5",
              "size_leaf_vector": "1"
            }
          },
          {
            "base_weights": [
              0.00036190424,
              -0.10743489,
              0.00088502694,
              -0.005614243,
              0.006986294
            ],
            "categories": [],
            "categories_nodes": [],
            "categories_segments": [],
            "categories_sizes": [],
            "default_left": [
              0,
              0,
              0,
              0,
              0
            ],
            "id": 9,
            "left_children": [
              1,
              3,
              -1,
              -1,
              -1
            ],
            "loss_changes": [
              11.991885,
              1.0970411,
              0,
              0,
              0
            ],
            "parents": [
              2147483647,
              0,
              0,
              1,
              1
            ],
            "right_children": [
              2,
              4,
              -1,
              -1,
              -1
            ],
            "split_conditions": [
              1,
              2247,
              0.00088502694,
              -0.005614243,
              0.006986294
            ],
            "split_indices": [
              18,
              9,
              0,
              0,
              0
            ],
            "split_type": [
              0,
              0,
              0,
              0,
              0
            ],
            "sum_hessian": [
              6412,
              887,
              5525,
              871,
              16
            ],
            "tree_param": {
              "num_deleted": "0",
              "num_feature": "1000",
              "num_nodes": "5",
              "size_leaf_vector": "1"
            }
          },
          {
            "base_weights": [
              -0.00034655805,
              -0.103392884,
              0.00081402826,
              -0.0065193907,
              -0.0029333653
            ],
            "categories": [],
            "categories_nodes": [],
            "categories_segments": [],
            "categories_sizes": [],
            "default_left": [
              0,
              0,
              0,
              0,
              0
            ],
            "id": 10,
            "left_children": [
              1,
              3,
              -1,
              -1,
              -1
            ],
            "loss_changes": [
              10.987744,
              1.060462,
              0,
              0,
              0
            ],
            "parents": [
              2147483647,
              0,
              0,
              1,
              1
            ],
            "right_children": [
              2,
              4,
              -1,
              -1,
              -1
            ],
            "split_conditions": [
              1,
              1755,
              0.00081402826,
              -0.0065193907,
              -0.0029333653
            ],
            "split_indices": [
              18,
              7,
              0,
              0,
              0
            ],
            "split_type": [
              0,
              0,
              0,
              0,
              0
            ],
            "sum_hessian": [
              6409,
              889,
              5.52E+3,
              552,
              337
            ],
            "tree_param": {
              "num_deleted": "0",
              "num_feature": "1000",
              "num_nodes": "5",
              "size_leaf_vector": "1"
            }
          },
          {
            "base_weights": [
              0.00031574097,
              -0.005920835,
              0.00067061646
            ],
            "categories": [],
            "categories_nodes": [],
            "categories_segments": [],
            "categories_sizes": [],
            "default_left": [
              0,
              0,
              0
            ],
            "id": 11,
            "left_children": [
              1,
              -1,
              -1
            ],
            "loss_changes": [
              9.986212,
              0,
              0
            ],
            "parents": [
              2147483647,
              0,
              0
            ],
            "right_children": [
              2,
              -1,
              -1
            ],
            "split_conditions": [
              1,
              -0.005920835,
              0.00067061646
            ],
            "split_indices": [
              8,
              0,
              0
            ],
            "split_type": [
              0,
              0,
              0
            ],
            "sum_hessian": [
              6418,
              636,
              5782
            ],
            "tree_param": {
              "num_deleted": "0",
              "num_feature": "1000",
              "num_nodes": "3",
              "size_leaf_vector": "1"
            }
          },
          {
            "base_weights": [
              -0.00020101732,
              -0.0047280504,
              0.0007555406
            ],
            "categories": [],
            "categories_nodes": [],
            "categories_segments": [],
            "categories_sizes": [],
            "default_left": [
              0,
              0,
              0
            ],
            "id": 12,
            "left_children": [
              1,
              -1,
              -1
            ],
            "loss_changes": [
              9.2930765,
              0,
              0
            ],
            "parents": [
              2147483647,
              0,
              0
            ],
            "right_children": [
              2,
              -1,
              -1
            ],
            "split_conditions": [
              1,
              -0.0047280504,
              0.0007555406
            ],
            "split_indices": [
              18,
              0,
              0
            ],
            "split_type": [
              0,
              0,
              0
            ],
            "sum_hessian": [
              6428,
              896,
              5532
            ],
            "tree_param": {
              "num_deleted": "0",
              "num_feature": "1000",
              "num_nodes": "3",
              "size_leaf_vector": "1"
            }
          },
          {
            "base_weights": [
              -0.000067948946,
              -0.0053251996,
              0.000600353
            ],
            "categories": [],
            "categories_nodes": [],
            "categories_segments": [],
            "categories_sizes": [],
            "default_left": [
              0,
              0,
              0
            ],
            "id": 13,
            "left_children": [
              1,
              -1,
              -1
            ],
            "loss_changes": [
              8.299912,
              0,
              0
            ],
            "parents": [
              2147483647,
              0,
              0
            ],
            "right_children": [
              2,
              -1,
              -1
            ],
            "split_conditions": [
              1,
              -0.0053251996,
              0.000600353
            ],
            "split_indices": [
              8,
              0,
              0
            ],
            "split_type": [
              0,
              0,
              0
            ],
            "sum_hessian": [
              6454,
              656,
              5798
            ],
            "tree_param": {
              "num_deleted": "0",
              "num_feature": "1000",
              "num_nodes": "3",
              "size_leaf_vector": "1"
            }
          },
          {
            "base_weights": [
              0.000037625683,
              -0.0042310148,
              0.000689287
            ],
            "categories": [],
            "categories_nodes": [],
            "categories_segments": [],
            "categories_sizes": [],
            "default_left": [
              0,
              0,
              0
            ],
            "id": 14,
            "left_children": [
              1,
              -1,
              -1
            ],
            "loss_changes": [
              7.4977627,
              0,
              0
            ],
            "parents": [
              2147483647,
              0,
              0
            ],
            "right_children": [
              2,
              -1,
              -1
            ],
            "split_conditions": [
              1,
              -0.0042310148,
              0.000689287
            ],
            "split_indices": [
              18,
              0,
              0
            ],
            "split_type": [
              0,
              0,
              0
            ],
            "sum_hessian": [
              6438,
              898,
              5.54E+3
            ],
            "tree_param": {
              "num_deleted": "0",
              "num_feature": "1000",
              "num_nodes": "3",
              "size_leaf_vector": "1"
            }
          },
          {
            "base_weights": [
              -0.00021087525,
              -0.004915368,
              0.0005287116
            ],
            "categories": [],
            "categories_nodes": [],
            "categories_segments": [],
            "categories_sizes": [],
            "default_left": [
              0,
              0,
              0
            ],
            "id": 15,
            "left_children": [
              1,
              -1,
              -1
            ],
            "loss_changes": [
              6.8144197,
              0,
              0
            ],
            "parents": [
              2147483647,
              0,
              0
            ],
            "right_children": [
              2,
              -1,
              -1
            ],
            "split_conditions": [
              1,
              -0.004915368,
              0.0005287116
            ],
            "split_indices": [
              8,
              0,
              0
            ],
            "split_type": [
              0,
              0,
              0
            ],
            "sum_hessian": [
              6437,
              636,
              5801
            ],
            "tree_param": {
              "num_deleted": "0",
              "num_feature": "1000",
              "num_nodes": "3",
              "size_leaf_vector": "1"
            }
          },
          {
            "base_weights": [
              -0.00011762549,
              -0.003887955,
              0.00062374165
            ],
            "categories": [],
            "categories_nodes": [],
            "categories_segments": [],
            "categories_sizes": [],
            "default_left": [
              0,
              0,
              0
            ],
            "id": 16,
            "left_children": [
              1,
              -1,
              -1
            ],
            "loss_changes": [
              6.256268,
              0,
              0
            ],
            "parents": [
              2147483647,
              0,
              0
            ],
            "right_children": [
              2,
              -1,
              -1
            ],
            "split_conditions": [
              1,
              -0.003887955,
              0.00062374165
            ],
            "split_indices": [
              18,
              0,
              0
            ],
            "split_type": [
              0,
              0,
              0
            ],
            "sum_hessian": [
              6395,
              891,
              5504
            ],
            "tree_param": {
              "num_deleted": "0",
              "num_feature": "1000",
              "num_nodes": "3",
              "size_leaf_vector": "1"
            }
          },
          {
            "base_weights": [
              0.00021482671,
              -0.004396004,
              0.00050641986
            ],
            "categories": [],
            "categories_nodes": [],
            "categories_segments": [],
            "categories_sizes": [],
            "default_left": [
              0,
              0,
              0
            ],
            "id": 17,
            "left_children": [
              1,
              -1,
              -1
            ],
            "loss_changes": [
              5.5910416,
              0,
              0
            ],
            "parents": [
              2147483647,
              0,
              0
            ],
            "right_children": [
              2,
              -1,
              -1
            ],
            "split_conditions": [
              1,
              -0.004396004,
              0.00050641986
            ],
            "split_indices": [
              8,
              0,
              0
            ],
            "split_type": [
              0,
              0,
              0
            ],
            "sum_hessian": [
              6395,
              645,
              5.75E+3
            ],
            "tree_param": {
              "num_deleted": "0",
              "num_feature": "1000",
              "num_nodes": "3",
              "size_leaf_vector": "1"
            }
          },
          {
            "base_weights": [
              0.00013523045,
              -0.0041470663,
              0.00046662946
            ],
            "categories": [],
            "categories_nodes": [],
            "categories_segments": [],
            "categories_sizes": [],
            "default_left": [
              0,
              0,
              0
            ],
            "id": 18,
            "left_children": [
              1,
              -1,
              -1
            ],
            "loss_changes": [
              4.9367714,
              0,
              0
            ],
            "parents": [
              2147483647,
              0,
              0
            ],
            "right_children": [
              2,
              -1,
              -1
            ],
            "split_conditions": [
              1,
              -0.0041470663,
              0.00046662946
            ],
            "split_indices": [
              8,
              0,
              0
            ],
            "split_type": [
              0,
              0,
              0
            ],
            "sum_hessian": [
              6457,
              642,
              5815
            ],
            "tree_param": {
              "num_deleted": "0",
              "num_feature": "1000",
              "num_nodes": "3",
              "size_leaf_vector": "1"
            }
          },
          {
            "base_weights": [
              -0.0003620297,
              -0.0034219779,
              0.00053546176
            ],
            "categories": [],
            "categories_nodes": [],
            "categories_segments": [],
            "categories_sizes": [],
            "default_left": [
              0,
              0,
              0
            ],
            "id": 19,
            "left_children": [
              1,
              -1,
              -1
            ],
            "loss_changes": [
              4.806331,
              0,
              0
            ],
            "parents": [
              2147483647,
              0,
              0
            ],
            "right_children": [
              2,
              -1,
              -1
            ],
            "split_conditions": [
              1,
              -0.0034219779,
              0.00053546176
            ],
            "split_indices": [
              18,
              0,
              0
            ],
            "split_type": [
              0,
              0,
              0
            ],
            "sum_hessian": [
              6373,
              8.9E+2,
              5483
            ],
            "tree_param": {
              "num_deleted": "0",
              "num_feature": "1000",
              "num_nodes": "3",
              "size_leaf_vector": "1"
            }
          },
          {
            "base_weights": [
              -0.00014553682,
              -0.003216558,
              0.0005144373
            ],
            "categories": [],
            "categories_nodes": [],
            "categories_segments": [],
            "categories_sizes": [],
            "default_left": [
              0,
              0,
              0
            ],
            "id": 20,
            "left_children": [
              1,
              -1,
              -1
            ],
            "loss_changes": [
              4.3009963,
              0,
              0
            ],
            "parents": [
              2147483647,
              0,
              0
            ],
            "right_children": [
              2,
              -1,
              -1
            ],
            "split_conditions": [
              1,
              -0.003216558,
              0.0005144373
            ],
            "split_indices": [
              18,
              0,
              0
            ],
            "split_type": [
              0,
              0,
              0
            ],
            "sum_hessian": [
              6418,
              896,
              5522
            ],
            "tree_param": {
              "num_deleted": "0",
              "num_feature": "1000",
              "num_nodes": "3",
              "size_leaf_vector": "1"
            }
          },
          {
            "base_weights": [
              -0.00034807448,
              -0.0031109152,
              0.0004849198
            ],
            "categories": [],
            "categories_nodes": [],
            "categories_segments": [],
            "categories_sizes": [],
            "default_left": [
              0,
              0,
              0
            ],
            "id": 21,
            "left_children": [
              1,
              -1,
              -1
            ],
            "loss_changes": [
              3.9867609,
              0,
              0
            ],
            "parents": [
              2147483647,
              0,
              0
            ],
            "right_children": [
              2,
              -1,
              -1
            ],
            "split_conditions": [
              1,
              -0.0031109152,
              0.0004849198
            ],
            "split_indices": [
              18,
              0,
              0
            ],
            "split_type": [
              0,
              0,
              0
            ],
            "sum_hessian": [
              6.41E+3,
              894,
              5516
            ],
            "tree_param": {
              "num_deleted": "0",
              "num_feature": "1000",
              "num_nodes": "3",
              "size_leaf_vector": "1"
            }
          },
          {
            "base_weights": [
              -0.0001467697,
              -0.0029245606,
              0.0004681955
            ],
            "categories": [],
            "categories_nodes": [],
            "categories_segments": [],
            "categories_sizes": [],
            "default_left": [
              0,
              0,
              0
            ],
            "id": 22,
            "left_children": [
              1,
              -1,
              -1
            ],
            "loss_changes": [
              3.5868292,
              0,
              0
            ],
            "parents": [
              2147483647,
              0,
              0
            ],
            "right_children": [
              2,
              -1,
              -1
            ],
            "split_conditions": [
              1,
              -0.0029245606,
              0.0004681955
            ],
            "split_indices": [
              18,
              0,
              0
            ],
            "split_type": [
              0,
              0,
              0
            ],
            "sum_hessian": [
              6.46E+3,
              904,
              5556
            ],
            "tree_param": {
              "num_deleted": "0",
              "num_feature": "1000",
              "num_nodes": "3",
              "size_leaf_vector": "1"
            }
          },
          {
            "base_weights": [
              -0.0004254318,
              -0.0032832138,
              0.00036349517
            ],
            "categories": [],
            "categories_nodes": [],
            "categories_segments": [],
            "categories_sizes": [],
            "default_left": [
              0,
              0,
              0
            ],
            "id": 23,
            "left_children": [
              1,
              -1,
              -1
            ],
            "loss_changes": [
              3.2260258,
              0,
              0
            ],
            "parents": [
              2147483647,
              0,
              0
            ],
            "right_children": [
              2,
              -1,
              -1
            ],
            "split_conditions": [
              7.1E+2,
              -0.0032832138,
              0.00036349517
            ],
            "split_indices": [
              9,
              0,
              0
            ],
            "split_type": [
              0,
              0,
              0
            ],
            "sum_hessian": [
              6422,
              676,
              5746
            ],
            "tree_param": {
              "num_deleted": "0",
              "num_feature": "1000",
              "num_nodes": "3",
              "size_leaf_vector": "1"
            }
          },
          {
            "base_weights": [
              -0.00028690146,
              -0.0031907011,
              0.00034237473
            ],
            "categories": [],
            "categories_nodes": [],
            "categories_segments": [],
            "categories_sizes": [],
            "default_left": [
              0,
              0,
              0
            ],
            "id": 24,
            "left_children": [
              1,
              -1,
              -1
            ],
            "loss_changes": [
              2.9133146,
              0,
              0
            ],
            "parents": [
              2147483647,
              0,
              0
            ],
            "right_children": [
              2,
              -1,
              -1
            ],
            "split_conditions": [
              1,
              -0.0031907011,
              0.00034237473
            ],
            "split_indices": [
              8,
              0,
              0
            ],
            "split_type": [
              0,
              0,
              0
            ],
            "sum_hessian": [
              6424,
              647,
              5777
            ],
            "tree_param": {
              "num_deleted": "0",
              "num_feature": "1000",
              "num_nodes": "3",
              "size_leaf_vector": "1"
            }
          },
          {
            "base_weights": [
              -0.00015688052,
              -0.002539123,
              0.00040486734
            ],
            "categories": [],
            "categories_nodes": [],
            "categories_segments": [],
            "categories_sizes": [],
            "default_left": [
              0,
              0,
              0
            ],
            "id": 25,
            "left_children": [
              1,
              -1,
              -1
            ],
            "loss_changes": [
              2.682744,
              0,
              0
            ],
            "parents": [
              2147483647,
              0,
              0
            ],
            "right_children": [
              2,
              -1,
              -1
            ],
            "split_conditions": [
              1,
              -0.002539123,
              0.00040486734
            ],
            "split_indices": [
              18,
              0,
              0
            ],
            "split_type": [
              0,
              0,
              0
            ],
            "sum_hessian": [
              6416,
              898,
              5518
            ],
            "tree_param": {
              "num_deleted": "0",
              "num_feature": "1000",
              "num_nodes": "3",
              "size_leaf_vector": "1"
            }
          },
          {
            "base_weights": [
              0.00029861362,
              -0.0028304793,
              0.00034462783
            ],
            "categories": [],
            "categories_nodes": [],
            "categories_segments": [],
            "categories_sizes": [],
            "default_left": [
              0,
              0,
              0
            ],
            "id": 26,
            "left_children": [
              1,
              -1,
              -1
            ],
            "loss_changes": [
              2.4140093,
              0,
              0
            ],
            "parents": [
              2147483647,
              0,
              0
            ],
            "right_children": [
              2,
              -1,
              -1
            ],
            "split_conditions": [
              7.1E+2,
              -0.0028304793,
              0.00034462783
            ],
            "split_indices": [
              9,
              0,
              0
            ],
            "split_type": [
              0,
              0,
              0
            ],
            "sum_hessian": [
              6429,
              666,
              5763
            ],
            "tree_param": {
              "num_deleted": "0",
              "num_feature": "1000",
              "num_nodes": "3",
              "size_leaf_vector": "1"
            }
          },
          {
            "base_weights": [
              0.00001605075,
              -0.0026345046,
              0.00033188722
            ],
            "categories": [],
            "categories_nodes": [],
            "categories_segments": [],
            "categories_sizes": [],
            "default_left": [
              0,
              0,
              0
            ],
            "id": 27,
            "left_children": [
              1,
              -1,
              -1
            ],
            "loss_changes": [
              2.2451434,
              0,
              0
            ],
            "parents": [
              2147483647,
              0,
              0
            ],
            "right_children": [
              2,
              -1,
              -1
            ],
            "split_conditions": [
              875,
              -0.0026345046,
              0.00033188722
            ],
            "split_indices": [
              9,
              0,
              0
            ],
            "split_type": [
              0,
              0,
              0
            ],
            "sum_hessian": [
              6429,
              716,
              5713
            ],
            "tree_param": {
              "num_deleted": "0",
              "num_feature": "1000",
              "num_nodes": "3",
              "size_leaf_vector": "1"
            }
          },
          {
            "base_weights": [
              0.00009458561,
              -0.0021756154,
              0.0003530128
            ],
            "categories": [],
            "categories_nodes": [],
            "categories_segments": [],
            "categories_sizes": [],
            "default_left": [
              0,
              0,
              0
            ],
            "id": 28,
            "left_children": [
              1,
              -1,
              -1
            ],
            "loss_changes": [
              1.9406735,
              0,
              0
            ],
            "parents": [
              2147483647,
              0,
              0
            ],
            "right_children": [
              2,
              -1,
              -1
            ],
            "split_conditions": [
              1,
              -0.0021756154,
              0.0003530128
            ],
            "split_indices": [
              18,
              0,
              0
            ],
            "split_type": [
              0,
              0,
              0
            ],
            "sum_hessian": [
              6385,
              878,
              5507
            ],
            "tree_param": {
              "num_deleted": "0",
              "num_feature": "1000",
              "num_nodes": "3",
              "size_leaf_vector": "1"
            }
          },
          {
            "base_weights": [
              0.00025201,
              -0.0023810698,
              0.0003074533
            ],
            "categories": [],
            "categories_nodes": [],
            "categories_segments": [],
            "categories_sizes": [],
            "default_left": [
              0,
              0,
              0
            ],
            "id": 29,
            "left_children": [
              1,
              -1,
              -1
            ],
            "loss_changes": [
              1.8096418,
              0,
              0
            ],
            "parents": [
              2147483647,
              0,
              0
            ],
            "right_children": [
              2,
              -1,
              -1
            ],
            "split_conditions": [
              875,
              -0.0023810698,
              0.0003074533
            ],
            "split_indices": [
              9,
              0,
              0
            ],
            "split_type": [
              0,
              0,
              0
            ],
            "sum_hessian": [
              6406,
              701,
              5705
            ],
            "tree_param": {
              "num_deleted": "0",
              "num_feature": "1000",
              "num_nodes": "3",
              "size_leaf_vector": "1"
            }
          },
          {
            "base_weights": [
              0.00030695897,
              -0.0017447375,
              0.00037124427
            ],
            "categories": [],
            "categories_nodes": [],
            "categories_segments": [],
            "categories_sizes": [],
            "default_left": [
              0,
              0,
              0
            ],
            "id": 30,
            "left_children": [
              1,
              -1,
              -1
            ],
            "loss_changes": [
              1.6103865,
              0,
              0
            ],
            "parents": [
              2147483647,
              0,
              0
            ],
            "right_children": [
              2,
              -1,
              -1
            ],
            "split_conditions": [
              936,
              -0.0017447375,
              0.00037124427
            ],
            "split_indices": [
              19,
              0,
              0
            ],
            "split_type": [
              0,
              0,
              0
            ],
            "sum_hessian": [
              6423,
              1079,
              5344
            ],
            "tree_param": {
              "num_deleted": "0",
              "num_feature": "1000",
              "num_nodes": "3",
              "size_leaf_vector": "1"
            }
          },
          {
            "base_weights": [
              -0.000027623826,
              -0.0027121566,
              0.0002321812
            ],
            "categories": [],
            "categories_nodes": [],
            "categories_segments": [],
            "categories_sizes": [],
            "default_left": [
              0,
              0,
              0
            ],
            "id": 31,
            "left_children": [
              1,
              -1,
              -1
            ],
            "loss_changes": [
              1.6377915,
              0,
              0
            ],
            "parents": [
              2147483647,
              0,
              0
            ],
            "right_children": [
              2,
              -1,
              -1
            ],
            "split_conditions": [
              1,
              -0.0027121566,
              0.0002321812
            ],
            "split_indices": [
              6,
              0,
              0
            ],
            "split_type": [
              0,
              0,
              0
            ],
            "sum_hessian": [
              6463,
              511,
              5952
            ],
            "tree_param": {
              "num_deleted": "0",
              "num_feature": "1000",
              "num_nodes": "3",
              "size_leaf_vector": "1"
            }
          },
          {
            "base_weights": [
              0.000058666068,
              -0.0019375769,
              0.00028900857
            ],
            "categories": [],
            "categories_nodes": [],
            "categories_segments": [],
            "categories_sizes": [],
            "default_left": [
              0,
              0,
              0
            ],
            "id": 32,
            "left_children": [
              1,
              -1,
              -1
            ],
            "loss_changes": [
              1.4189212,
              0,
              0
            ],
            "parents": [
              2147483647,
              0,
              0
            ],
            "right_children": [
              2,
              -1,
              -1
            ],
            "split_conditions": [
              1008,
              -0.0019375769,
              0.00028900857
            ],
            "split_indices": [
              9,
              0,
              0
            ],
            "split_type": [
              0,
              0,
              0
            ],
            "sum_hessian": [
              6386,
              819,
              5567
            ],
            "tree_param": {
              "num_deleted": "0",
              "num_feature": "1000",
              "num_nodes": "3",
              "size_leaf_vector": "1"
            }
          },
          {
            "base_weights": [
              0.00019407291,
              -0.0017924634,
              0.00029356984
            ],
            "categories": [],
            "categories_nodes": [],
            "categories_segments": [],
            "categories_sizes": [],
            "default_left": [
              0,
              0,
              0
            ],
            "id": 33,
            "left_children": [
              1,
              -1,
              -1
            ],
            "loss_changes": [
              1.3157805,
              0,
              0
            ],
            "parents": [
              2147483647,
              0,
              0
            ],
            "right_children": [
              2,
              -1,
              -1
            ],
            "split_conditions": [
              1,
              -0.0017924634,
              0.00029356984
            ],
            "split_indices": [
              18,
              0,
              0
            ],
            "split_type": [
              0,
              0,
              0
            ],
            "sum_hessian": [
              6426,
              873,
              5553
            ],
            "tree_param": {
              "num_deleted": "0",
              "num_feature": "1000",
              "num_nodes": "3",
              "size_leaf_vector": "1"
            }
          },
          {
            "base_weights": [
              -0.00018840075,
              -0.0015325473,
              0.00030711465
            ],
            "categories": [],
            "categories_nodes": [],
            "categories_segments": [],
            "categories_sizes": [],
            "default_left": [
              0,
              0,
              0
            ],
            "id": 34,
            "left_children": [
              1,
              -1,
              -1
            ],
            "loss_changes": [
              1.2396244,
              0,
              0
            ],
            "parents": [
              2147483647,
              0,
              0
            ],
            "right_children": [
              2,
              -1,
              -1
            ],
            "split_conditions": [
              936,
              -0.0015325473,
              0.00030711465
            ],
            "split_indices": [
              19,
              0,
              0
            ],
            "split_type": [
              0,
              0,
              0
            ],
            "sum_hessian": [
              6424,
              1104,
              5.32E+3
            ],
            "tree_param": {
              "num_deleted": "0",
              "num_feature": "1000",
              "num_nodes": "3",
              "size_leaf_vector": "1"
            }
          },
          {
            "base_weights": [
              -0.00016669101,
              -0.0022873485,
              0.00018231836
            ],
            "categories": [],
            "categories_nodes": [],
            "categories_segments": [],
            "categories_sizes": [],
            "default_left": [
              0,
              0,
              0
            ],
            "id": 35,
            "left_children": [
              1,
              -1,
              -1
            ],
            "loss_changes": [
              1.1234307,
              0,
              0
            ],
            "parents": [
              2147483647,
              0,
              0
            ],
            "right_children": [
              2,
              -1,
              -1
            ],
            "split_conditions": [
              1,
              -0.0022873485,
              0.00018231836
            ],
            "split_indices": [
              6,
              0,
              0
            ],
            "split_type": [
              0,
              0,
              0
            ],
            "sum_hessian": [
              6.46E+3,
              497,
              5963
            ],
            "tree_param": {
              "num_deleted": "0",
              "num_feature": "1000",
              "num_nodes": "3",
              "size_leaf_vector": "1"
            }
          },
          {
            "base_weights": [
              0.00006611456,
              -0.0016640973,
              0.000249798
            ],
            "categories": [],
            "categories_nodes": [],
            "categories_segments": [],
            "categories_sizes": [],
            "default_left": [
              0,
              0,
              0
            ],
            "id": 36,
            "left_children": [
              1,
              -1,
              -1
            ],
            "loss_changes": [
              1.0569363,
              0,
              0
            ],
            "parents": [
              2147483647,
              0,
              0
            ],
            "right_children": [
              2,
              -1,
              -1
            ],
            "split_conditions": [
              1008,
              -0.0016640973,
              0.000249798
            ],
            "split_indices": [
              9,
              0,
              0
            ],
            "split_type": [
              0,
              0,
              0
            ],
            "sum_hessian": [
              6425,
              826,
              5599
            ],
            "tree_param": {
              "num_deleted": "0",
              "num_feature": "1000",
              "num_nodes": "3",
              "size_leaf_vector": "1"
            }
          },
          {
            "base_weights": [
              -0.00029202638
            ],
            "categories": [],
            "categories_nodes": [],
            "categories_segments": [],
            "categories_sizes": [],
            "default_left": [
              0
            ],
            "id": 37,
            "left_children": [
              -1
            ],
            "loss_changes": [
              0
            ],
            "parents": [
              2147483647
            ],
            "right_children": [
              -1
            ],
            "split_conditions": [
              -0.000014601319
            ],
            "split_indices": [
              0
            ],
            "split_type": [
              0
            ],
            "sum_hessian": [
              6389
            ],
            "tree_param": {
              "num_deleted": "0",
              "num_feature": "1000",
              "num_nodes": "1",
              "size_leaf_vector": "1"
            }
          },
          {
            "base_weights": [
              -0.00017788228
            ],
            "categories": [],
            "categories_nodes": [],
            "categories_segments": [],
            "categories_sizes": [],
            "default_left": [
              0
            ],
            "id": 38,
            "left_children": [
              -1
            ],
            "loss_changes": [
              0
            ],
            "parents": [
              2147483647
            ],
            "right_children": [
              -1
            ],
            "split_conditions": [
              -0.000008894114
            ],
            "split_indices": [
              0
            ],
            "split_type": [
              0
            ],
            "sum_hessian": [
              6419
            ],
            "tree_param": {
              "num_deleted": "0",
              "num_feature": "1000",
              "num_nodes": "1",
              "size_leaf_vector": "1"
            }
          },
          {
            "base_weights": [
              0.00016455368
            ],
            "categories": [],
            "categories_nodes": [],
            "categories_segments": [],
            "categories_sizes": [],
            "default_left": [
              0
            ],
            "id": 39,
            "left_children": [
              -1
            ],
            "loss_changes": [
              0
            ],
            "parents": [
              2147483647
            ],
            "right_children": [
              -1
            ],
            "split_conditions": [
              0.000008227685
            ],
            "split_indices": [
              0
            ],
            "split_type": [
              0
            ],
            "sum_hessian": [
              6369
            ],
            "tree_param": {
              "num_deleted": "0",
              "num_feature": "1000",
              "num_nodes": "1",
              "size_leaf_vector": "1"
            }
          },
          {
            "base_weights": [
              0.00012849398
            ],
            "categories": [],
            "categories_nodes": [],
            "categories_segments": [],
            "categories_sizes": [],
            "default_left": [
              0
            ],
            "id": 40,
            "left_children": [
              -1
            ],
            "loss_changes": [
              0
            ],
            "parents": [
              2147483647
            ],
            "right_children": [
              -1
            ],
            "split_conditions": [
              0.000006424699
            ],
            "split_indices": [
              0
            ],
            "split_type": [
              0
            ],
            "sum_hessian": [
              6432
            ],
            "tree_param": {
              "num_deleted": "0",
              "num_feature": "1000",
              "num_nodes": "1",
              "size_leaf_vector": "1"
            }
          },
          {
            "base_weights": [
              0.000029244122
            ],
            "categories": [],
            "categories_nodes": [],
            "categories_segments": [],
            "categories_sizes": [],
            "default_left": [
              0
            ],
            "id": 41,
            "left_children": [
              -1
            ],
            "loss_changes": [
              0
            ],
            "parents": [
              2147483647
            ],
            "right_children": [
              -1
            ],
            "split_conditions": [
              0.0000014622061
            ],
            "split_indices": [
              0
            ],
            "split_type": [
              0
            ],
            "sum_hessian": [
              6441
            ],
            "tree_param": {
              "num_deleted": "0",
              "num_feature": "1000",
              "num_nodes": "1",
              "size_leaf_vector": "1"
            }
          },
          {
            "base_weights": [
              0.00017198229
            ],
            "categories": [],
            "categories_nodes": [],
            "categories_segments": [],
            "categories_sizes": [],
            "default_left": [
              0
            ],
            "id": 42,
            "left_children": [
              -1
            ],
            "loss_changes": [
              0
            ],
            "parents": [
              2147483647
            ],
            "right_children": [
              -1
            ],
            "split_conditions": [
              0.000008599115
            ],
            "split_indices": [
              0
            ],
            "split_type": [
              0
            ],
            "sum_hessian": [
              6429
            ],
            "tree_param": {
              "num_deleted": "0",
              "num_feature": "1000",
              "num_nodes": "1",
              "size_leaf_vector": "1"
            }
          },
          {
            "base_weights": [
              0.000026545626
            ],
            "categories": [],
            "categories_nodes": [],
            "categories_segments": [],
            "categories_sizes": [],
            "default_left": [
              0
            ],
            "id": 43,
            "left_children": [
              -1
            ],
            "loss_changes": [
              0
            ],
            "parents": [
              2147483647
            ],
            "right_children": [
              -1
            ],
            "split_conditions": [
              0.0000013272813
            ],
            "split_indices": [
              0
            ],
            "split_type": [
              0
            ],
            "sum_hessian": [
              6437
            ],
            "tree_param": {
              "num_deleted": "0",
              "num_feature": "1000",
              "num_nodes": "1",
              "size_leaf_vector": "1"
            }
          },
          {
            "base_weights": [
              0.000009769916
            ],
            "categories": [],
            "categories_nodes": [],
            "categories_segments": [],
            "categories_sizes": [],
            "default_left": [
              0
            ],
            "id": 44,
            "left_children": [
              -1
            ],
            "loss_changes": [
              0
            ],
            "parents": [
              2147483647
            ],
            "right_children": [
              -1
            ],
            "split_conditions": [
              4.884958E-7
            ],
            "split_indices": [
              0
            ],
            "split_type": [
              0
            ],
            "sum_hessian": [
              6452
            ],
            "tree_param": {
              "num_deleted": "0",
              "num_feature": "1000",
              "num_nodes": "1",
              "size_leaf_vector": "1"
            }
          },
          {
            "base_weights": [
              -0.000052882886
            ],
            "categories": [],
            "categories_nodes": [],
            "categories_segments": [],
            "categories_sizes": [],
            "default_left": [
              0
            ],
            "id": 45,
            "left_children": [
              -1
            ],
            "loss_changes": [
              0
            ],
            "parents": [
              2147483647
            ],
            "right_children": [
              -1
            ],
            "split_conditions": [
              -0.0000026441444
            ],
            "split_indices": [
              0
            ],
            "split_type": [
              0
            ],
            "sum_hessian": [
              6409
            ],
            "tree_param": {
              "num_deleted": "0",
              "num_feature": "1000",
              "num_nodes": "1",
              "size_leaf_vector": "1"
            }
          },
          {
            "base_weights": [
              0.00012783225
            ],
            "categories": [],
            "categories_nodes": [],
            "categories_segments": [],
            "categories_sizes": [],
            "default_left": [
              0
            ],
            "id": 46,
            "left_children": [
              -1
            ],
            "loss_changes": [
              0
            ],
            "parents": [
              2147483647
            ],
            "right_children": [
              -1
            ],
            "split_conditions": [
              0.0000063916123
            ],
            "split_indices": [
              0
            ],
            "split_type": [
              0
            ],
            "sum_hessian": [
              6462
            ],
            "tree_param": {
              "num_deleted": "0",
              "num_feature": "1000",
              "num_nodes": "1",
              "size_leaf_vector": "1"
            }
          },
          {
            "base_weights": [
              0.00005310663
            ],
            "categories": [],
            "categories_nodes": [],
            "categories_segments": [],
            "categories_sizes": [],
            "default_left": [
              0
            ],
            "id": 47,
            "left_children": [
              -1
            ],
            "loss_changes": [
              0
            ],
            "parents": [
              2147483647
            ],
            "right_children": [
              -1
            ],
            "split_conditions": [
              0.0000026553314
            ],
            "split_indices": [
              0
            ],
            "split_type": [
              0
            ],
            "sum_hessian": [
              6453
            ],
            "tree_param": {
              "num_deleted": "0",
              "num_feature": "1000",
              "num_nodes": "1",
              "size_leaf_vector": "1"
            }
          },
          {
            "base_weights": [
              0.00017149524
            ],
            "categories": [],
            "categories_nodes": [],
            "categories_segments": [],
            "categories_sizes": [],
            "default_left": [
              0
            ],
            "id": 48,
            "left_children": [
              -1
            ],
            "loss_changes": [
              0
            ],
            "parents": [
              2147483647
            ],
            "right_children": [
              -1
            ],
            "split_conditions": [
              0.000008574762
            ],
            "split_indices": [
              0
            ],
            "split_type": [
              0
            ],
            "sum_hessian": [
              6422
            ],
            "tree_param": {
              "num_deleted": "0",
              "num_feature": "1000",
              "num_nodes": "1",
              "size_leaf_vector": "1"
            }
          },
          {
            "base_weights": [
              -0.0002743463
            ],
            "categories": [],
            "categories_nodes": [],
            "categories_segments": [],
            "categories_sizes": [],
            "default_left": [
              0
            ],
            "id": 49,
            "left_children": [
              -1
            ],
            "loss_changes": [
              0
            ],
            "parents": [
              2147483647
            ],
            "right_children": [
              -1
            ],
            "split_conditions": [
              -0.000013717315
            ],
            "split_indices": [
              0
            ],
            "split_type": [
              0
            ],
            "sum_hessian": [
              6419
            ],
            "tree_param": {
              "num_deleted": "0",
              "num_feature": "1000",
              "num_nodes": "1",
              "size_leaf_vector": "1"
            }
          },
          {
            "base_weights": [
              0.000019637935
            ],
            "categories": [],
            "categories_nodes": [],
            "categories_segments": [],
            "categories_sizes": [],
            "default_left": [
              0
            ],
            "id": 50,
            "left_children": [
              -1
            ],
            "loss_changes": [
              0
            ],
            "parents": [
              2147483647
            ],
            "right_children": [
              -1
            ],
            "split_conditions": [
              9.818967E-7
            ],
            "split_indices": [
              0
            ],
            "split_type": [
              0
            ],
            "sum_hessian": [
              6457
            ],
            "tree_param": {
              "num_deleted": "0",
              "num_feature": "1000",
              "num_nodes": "1",
              "size_leaf_vector": "1"
            }
          },
          {
            "base_weights": [
              -0.00012697428
            ],
            "categories": [],
            "categories_nodes": [],
            "categories_segments": [],
            "categories_sizes": [],
            "default_left": [
              0
            ],
            "id": 51,
            "left_children": [
              -1
            ],
            "loss_changes": [
              0
            ],
            "parents": [
              2147483647
            ],
            "right_children": [
              -1
            ],
            "split_conditions": [
              -0.000006348714
            ],
            "split_indices": [
              0
            ],
            "split_type": [
              0
            ],
            "sum_hessian": [
              6377
            ],
            "tree_param": {
              "num_deleted": "0",
              "num_feature": "1000",
              "num_nodes": "1",
              "size_leaf_vector": "1"
            }
          },
          {
            "base_weights": [
              0.00007267436
            ],
            "categories": [],
            "categories_nodes": [],
            "categories_segments": [],
            "categories_sizes": [],
            "default_left": [
              0
            ],
            "id": 52,
            "left_children": [
              -1
            ],
            "loss_changes": [
              0
            ],
            "parents": [
              2147483647
            ],
            "right_children": [
              -1
            ],
            "split_conditions": [
              0.000003633718
            ],
            "split_indices": [
              0
            ],
            "split_type": [
              0
            ],
            "sum_hessian": [
              6428
            ],
            "tree_param": {
              "num_deleted": "0",
              "num_feature": "1000",
              "num_nodes": "1",
              "size_leaf_vector": "1"
            }
          },
          {
            "base_weights": [
              0.00008202285
            ],
            "categories": [],
            "categories_nodes": [],
            "categories_segments": [],
            "categories_sizes": [],
            "default_left": [
              0
            ],
            "id": 53,
            "left_children": [
              -1
            ],
            "loss_changes": [
              0
            ],
            "parents": [
              2147483647
            ],
            "right_children": [
              -1
            ],
            "split_conditions": [
              0.0000041011426
            ],
            "split_indices": [
              0
            ],
            "split_type": [
              0
            ],
            "sum_hessian": [
              6452
            ],
            "tree_param": {
              "num_deleted": "0",
              "num_feature": "1000",
              "num_nodes": "1",
              "size_leaf_vector": "1"
            }
          },
          {
            "base_weights": [
              -0.000018215538
            ],
            "categories": [],
            "categories_nodes": [],
            "categories_segments": [],
            "categories_sizes": [],
            "default_left": [
              0
            ],
            "id": 54,
            "left_children": [
              -1
            ],
            "loss_changes": [
              0
            ],
            "parents": [
              2147483647
            ],
            "right_children": [
              -1
            ],
            "split_conditions": [
              -9.107769E-7
            ],
            "split_indices": [
              0
            ],
            "split_type": [
              0
            ],
            "sum_hessian": [
              6.45E+3
            ],
            "tree_param": {
              "num_deleted": "0",
              "num_feature": "1000",
              "num_nodes": "1",
              "size_leaf_vector": "1"
            }
          },
          {
            "base_weights": [
              -0.00032221622,
              -0.0015646933,
              0.000237482
            ],
            "categories": [],
            "categories_nodes": [],
            "categories_segments": [],
            "categories_sizes": [],
            "default_left": [
              0,
              0,
              0
            ],
            "id": 55,
            "left_children": [
              1,
              -1,
              -1
            ],
            "loss_changes": [
              1.0147442,
              0,
              0
            ],
            "parents": [
              2147483647,
              0,
              0
            ],
            "right_children": [
              2,
              -1,
              -1
            ],
            "split_conditions": [
              1,
              -0.0015646933,
              0.000237482
            ],
            "split_indices": [
              18,
              0,
              0
            ],
            "split_type": [
              0,
              0,
              0
            ],
            "sum_hessian": [
